{"learner":{"attributes":{"scikit_learn":"{\"_estimator_type\": \"classifier\"}"},"feature_names":["age","sex","cp","trestbps","chol","fbs","restecg","thalach","exang","oldpeak","slope","ca","thal"],"feature_types":["int","int","int","int","int","int","int","int","int","float","int","float","float"],"gradient_booster":{"model":{"cats":{"enc":[],"feature_segments":[],"sorted_idx":[]},"gbtree_model_param":{"num_parallel_tree":"1","num_trees":"200"},"iteration_indptr":[0,1,2,3,4,5,6,7,8,9,10,11,12,13,14,15,16,17,18,19,20,21,22,23,24,25,26,27,28,29,30,31,32,33,34,35,36,37,38,39,40,41,42,43,44,45,46,47,48,49,50,51,52,53,54,55,56,57,58,59,60,61,62,63,64,65,66,67,68,69,70,71,72,73,74,75,76,77,78,79,80,81,82,83,84,85,86,87,88,89,90,91,92,93,94,95,96,97,98,99,100,101,102,103,104,105,106,107,108,109,110,111,112,113,114,115,116,117,118,119,120,121,122,123,124,125,126,127,128,129,130,131,132,133,134,135,136,137,138,139,140,141,142,143,144,145,146,147,148,149,150,151,152,153,154,155,156,157,158,159,160,161,162,163,164,165,166,167,168,169,170,171,172,173,174,175,176,177,178,179,180,181,182,183,184,185,186,187,188,189,190,191,192,193,194,195,196,197,198,199,200],"tree_info":[0,0,0,0,0,0,0,0,0,0,0,0,0,0,0,0,0,0,0,0,0,0,0,0,0,0,0,0,0,0,0,0,0,0,0,0,0,0,0,0,0,0,0,0,0,0,0,0,0,0,0,0,0,0,0,0,0,0,0,0,0,0,0,0,0,0,0,0,0,0,0,0,0,0,0,0,0,0,0,0,0,0,0,0,0,0,0,0,0,0,0,0,0,0,0,0,0,0,0,0,0,0,0,0,0,0,0,0,0,0,0,0,0,0,0,0,0,0,0,0,0,0,0,0,0,0,0,0,0,0,0,0,0,0,0,0,0,0,0,0,0,0,0,0,0,0,0,0,0,0,0,0,0,0,0,0,0,0,0,0,0,0,0,0,0,0,0,0,0,0,0,0,0,0,0,0,0,0,0,0,0,0,0,0,0,0,0,0,0,0,0,0,0,0,0,0,0,0,0,0],"trees":[{"base_weights":[-1.9660946E-2,-9.715476E-1,1.0135462E0,-1.2398651E0,2.1589561E-3,1.0909876E-1,1.5260502E0,-5.6932913E-3,-1.4425059E-2,-3.237742E-3,5.417115E-3,8.144863E-3,1.8364966E-2],"categories":[],"categories_nodes":[],"categories_segments":[],"categories_sizes":[],"default_left":[0,0,0,0,0,0,0,0,0,0,0,0,0],"id":0,"left_children":[1,3,5,7,-1,9,11,-1,-1,-1,-1,-1,-1],"loss_changes":[6.0087852E1,1.0396017E1,1.3417801E1,2.7221794E0,0E0,2.3620677E0,2.6194267E0,0E0,0E0,0E0,0E0,0E0,0E0],"parents":[2147483647,0,0,1,1,2,2,3,3,5,5,6,6],"right_children":[2,4,6,8,-1,10,12,-1,-1,-1,-1,-1,-1],"split_conditions":[4E0,1.8E0,7E-1,1.51E2,2.1589561E-3,2.37E2,1E0,-5.6932913E-3,-1.4425059E-2,-3.237742E-3,5.417115E-3,8.144863E-3,1.8364966E-2],"split_indices":[2,9,9,7,0,4,8,0,0,0,0,0,0],"split_type":[0,0,0,0,0,0,0,0,0,0,0,0,0],"sum_hessian":[5.9094948E1,3.0788963E1,2.8305983E1,2.5078108E1,5.710856E0,1.0676818E1,1.7629164E1,6.7040486E0,1.837406E1,5.4625583E0,5.21426E0,6.4557505E0,1.1173414E1],"tree_param":{"num_deleted":"0","num_feature":"13","num_nodes":"13","size_leaf_vector":"1"}},{"base_weights":[-4.603982E-2,-8.540554E-1,1.0907044E0,-1.2496094E0,1.0957475E-3,2.6888445E-1,1.785319E-2,-1.5305916E-2,-3.4066807E-3,-3.7636019E-3,8.518841E-3],"categories":[],"categories_nodes":[],"categories_segments":[],"categories_sizes":[],"default_left":[0,0,0,0,0,0,0,0,0,0,0],"id":1,"left_children":[1,3,5,7,-1,9,-1,-1,-1,-1,-1],"loss_changes":[5.543744E1,1.3571997E1,1.3845228E1,5.8813705E0,0E0,5.0875893E0,0E0,0E0,0E0,0E0,0E0],"parents":[2147483647,0,0,1,1,2,2,3,3,5,5],"right_children":[2,4,6,8,-1,10,-1,-1,-1,-1,-1],"split_conditions":[4.734219E0,1E0,1E0,5.9E1,1.0957475E-3,9E-1,1.785319E-2,-1.5305916E-2,-3.4066807E-3,-3.7636019E-3,8.518841E-3],"split_indices":[12,11,11,0,0,9,0,0,0,0,0],"split_type":[0,0,0,0,0,0,0,0,0,0,0],"sum_hessian":[5.8341858E1,3.424714E1,2.4094719E1,2.4070026E1,1.0177113E1,1.1672143E1,1.2422575E1,1.7863829E1,6.2061977E0,5.7085505E0,5.9635925E0],"tree_param":{"num_deleted":"0","num_feature":"13","num_nodes":"11","size_leaf_vector":"1"}},{"base_weights":[5.5794228E-2,-6.954202E-1,1.1016217E0,-1.0929416E0,4.454009E-3,-1.4848338E-3,1.4884136E0,-6.7706406E-3,-1.4172208E-2,1.7753555E-2,7.1057426E-3],"categories":[],"categories_nodes":[],"categories_segments":[],"categories_sizes":[],"default_left":[0,0,0,0,0,0,0,0,0,0,0],"id":2,"left_children":[1,3,5,7,-1,-1,9,-1,-1,-1,-1],"loss_changes":[4.816827E1,1.6688879E1,1.2603737E1,2.652567E0,0E0,0E0,3.1238976E0,0E0,0E0,0E0,0E0],"parents":[2147483647,0,0,1,1,2,2,3,3,6,6],"right_children":[2,4,6,8,-1,-1,10,-1,-1,-1,-1],"split_conditions":[1E0,1E0,1E0,1.62E2,4.454009E-3,-1.4848338E-3,1.51E2,-6.7706406E-3,-1.4172208E-2,1.7753555E-2,7.1057426E-3],"split_indices":[11,8,1,7,0,0,7,0,0,0,0],"split_type":[0,0,0,0,0,0,0,0,0,0,0],"sum_hessian":[5.9335686E1,3.472668E1,2.4609005E1,2.578412E1,8.94256E0,5.960589E0,1.8648417E1,1.2649479E1,1.3134643E1,1.26861315E1,5.962285E0],"tree_param":{"num_deleted":"0","num_feature":"13","num_nodes":"11","size_leaf_vector":"1"}},{"base_weights":[3.068801E-2,-8.715448E-1,1.102927E0,-1.2377906E0,5.4516376E-4,2.9281577E-1,1.7557602E-2,-1.5143784E-2,-3.3351057E-3,1.1788586E-2,-3.383823E-3],"categories":[],"categories_nodes":[],"categories_segments":[],"categories_sizes":[],"default_left":[0,0,0,0,0,0,0,0,0,0,0],"id":3,"left_children":[1,3,5,7,-1,9,-1,-1,-1,-1,-1],"loss_changes":[6.26845E1,1.2008385E1,1.5138222E1,5.8155746E0,0E0,8.456417E0,0E0,0E0,0E0,0E0,0E0],"parents":[2147483647,0,0,1,1,2,2,3,3,5,5],"right_children":[2,4,6,8,-1,10,-1,-1,-1,-1,-1],"split_conditions":[4.734219E0,1E0,1E0,5.9E1,5.4516376E-4,5.2E1,1.7557602E-2,-1.5143784E-2,-3.3351057E-3,1.1788586E-2,-3.383823E-3],"split_indices":[12,11,11,0,0,0,0,0,0,0,0],"split_type":[0,0,0,0,0,0,0,0,0,0,0],"sum_hessian":[6.2802628E1,3.4206676E1,2.8595951E1,2.4271128E1,9.935551E0,1.3407234E1,1.5188717E1,1.806959E1,6.201539E0,5.21668E0,8.190555E0],"tree_param":{"num_deleted":"0","num_feature":"13","num_nodes":"11","size_leaf_vector":"1"}},{"base_weights":[6.2834644E-3,-7.538779E-1,1.0783001E0,-1.1570823E0,3.875408E-3,-4.813677E-4,1.5212044E0,-1.2986021E-2,-5.623673E-3,1.0946488E-2,1.7907575E-2],"categories":[],"categories_nodes":[],"categories_segments":[],"categories_sizes":[],"default_left":[0,0,0,0,0,0,0,0,0,0,0],"id":4,"left_children":[1,3,5,7,-1,-1,9,-1,-1,-1,-1],"loss_changes":[5.0373158E1,1.7096127E1,1.28672085E1,1.5405655E0,0E0,0E0,1.5968323E-1,0E0,0E0,0E0,0E0],"parents":[2147483647,0,0,1,1,2,2,3,3,6,6],"right_children":[2,4,6,8,-1,-1,10,-1,-1,-1,-1],"split_conditions":[1E0,1E0,6E-1,5.9E1,3.875408E-3,-4.813677E-4,1E0,-1.2986021E-2,-5.623673E-3,1.0946488E-2,1.7907575E-2],"split_indices":[11,8,9,0,0,0,8,0,0,0,0],"split_type":[0,0,0,0,0,0,0,0,0,0,0],"sum_hessian":[5.9817165E1,3.5172966E1,2.46442E1,2.5981365E1,9.191602E0,7.2067103E0,1.7437489E1,2.003114E1,5.950226E0,8.7120495E0,8.725439E0],"tree_param":{"num_deleted":"0","num_feature":"13","num_nodes":"11","size_leaf_vector":"1"}},{"base_weights":[-4.1947156E-2,-9.680623E-1,1.0686215E0,-1.285438E0,-1.1129306E-3,-1.1036114E-2,1.7544234E-2,-1.5081321E-2,-7.489581E-3,-8.111322E-3,8.528895E-3],"categories":[],"categories_nodes":[],"categories_segments":[],"categories_sizes":[],"default_left":[0,0,0,0,0,0,0,0,0,0,0],"id":5,"left_children":[1,3,5,7,-1,9,-1,-1,-1,-1,-1],"loss_changes":[6.3566902E1,9.014366E0,2.0841442E1,1.7950401E0,0E0,8.929609E0,0E0,0E0,0E0,0E0,0E0],"parents":[2147483647,0,0,1,1,2,2,3,3,5,5],"right_children":[2,4,6,8,-1,10,-1,-1,-1,-1,-1],"split_conditions":[4E0,1E0,6.722408E-1,1E0,-1.1129306E-3,7E-1,1.7544234E-2,-1.5081321E-2,-7.489581E-3,-8.111322E-3,8.528895E-3],"split_indices":[2,11,11,9,0,9,0,0,0,0,0],"split_type":[0,0,0,0,0,0,0,0,0,0,0],"sum_hessian":[5.9798763E1,3.2677208E1,2.7121553E1,2.347935E1,9.197859E0,1.0917711E1,1.6203842E1,1.5312096E1,8.167254E0,5.6999764E0,5.2177353E0],"tree_param":{"num_deleted":"0","num_feature":"13","num_nodes":"11","size_leaf_vector":"1"}},{"base_weights":[2.0949307E-3,-7.8754026E-1,1.0446053E0,-1.1507579E0,6.2987115E-3,1.7063105E-1,1.646396E-2,-7.133834E-3,-1.48073165E-2,3.5184606E-3,-4.3692524E-4],"categories":[],"categories_nodes":[],"categories_segments":[],"categories_sizes":[],"default_left":[0,0,0,0,0,0,0,0,0,0,0],"id":6,"left_children":[1,3,5,7,-1,9,-1,-1,-1,-1,-1],"loss_changes":[5.1878963E1,1.9187141E1,1.40041065E1,3.114544E0,0E0,4.8886186E-1,0E0,0E0,0E0,0E0,0E0],"parents":[2147483647,0,0,1,1,2,2,3,3,5,5],"right_children":[2,4,6,8,-1,10,-1,-1,-1,-1,-1],"split_conditions":[1E0,1E0,9E-1,1.62E2,6.2987115E-3,1E-1,1.646396E-2,-7.133834E-3,-1.48073165E-2,3.5184606E-3,-4.3692524E-4],"split_indices":[11,8,9,7,0,9,0,0,0,0,0],"split_type":[0,0,0,0,0,0,0,0,0,0,0],"sum_hessian":[6.1021523E1,3.486106E1,2.616046E1,2.7899755E1,6.9613047E0,1.1191176E1,1.4969284E1,1.3357096E1,1.4542661E1,5.716283E0,5.4748936E0],"tree_param":{"num_deleted":"0","num_feature":"13","num_nodes":"11","size_leaf_vector":"1"}},{"base_weights":[1.04521684E-1,-6.846221E-1,1.156202E0,-1.111073E0,4.7600865E-3,-9.1827824E-4,1.54488105E-2,-1.2699502E-2,-4.258787E-3],"categories":[],"categories_nodes":[],"categories_segments":[],"categories_sizes":[],"default_left":[0,0,0,0,0,0,0,0,0],"id":7,"left_children":[1,3,5,7,-1,-1,-1,-1,-1],"loss_changes":[5.1225388E1,1.8023457E1,1.2959217E1,2.3057175E0,0E0,0E0,0E0,0E0,0E0],"parents":[2147483647,0,0,1,1,2,2,3,3],"right_children":[2,4,6,8,-1,-1,-1,-1,-1],"split_conditions":[1E0,1E0,1E0,2.73E2,4.7600865E-3,-9.1827824E-4,1.54488105E-2,-1.2699502E-2,-4.258787E-3],"split_indices":[11,8,1,4,0,0,0,0,0],"split_type":[0,0,0,0,0,0,0,0,0],"sum_hessian":[5.9768993E1,3.4345993E1,2.5423E1,2.5148405E1,9.197588E0,6.2187233E0,1.9204277E1,1.9722013E1,5.426391E0],"tree_param":{"num_deleted":"0","num_feature":"13","num_nodes":"9","size_leaf_vector":"1"}},{"base_weights":[2.9412657E-2,-8.2093674E-1,1.1188824E0,-1.214829E0,1.6212385E-3,3.945649E-1,1.6255368E-2,-1.478394E-2,-3.6186657E-3,-3.4660106E-3,1.182534E-2],"categories":[],"categories_nodes":[],"categories_segments":[],"categories_sizes":[],"default_left":[0,0,0,0,0,0,0,0,0,0,0],"id":8,"left_children":[1,3,5,7,-1,9,-1,-1,-1,-1,-1],"loss_changes":[5.9482433E1,1.4167969E1,9.6833E0,5.2824326E0,0E0,7.9438434E0,0E0,0E0,0E0,0E0,0E0],"parents":[2147483647,0,0,1,1,2,2,3,3,5,5],"right_children":[2,4,6,8,-1,10,-1,-1,-1,-1,-1],"split_conditions":[4.734219E0,1E0,1E0,5.9E1,1.6212385E-3,1E0,1.6255368E-2,-1.478394E-2,-3.6186657E-3,-3.4660106E-3,1.182534E-2],"split_indices":[12,11,11,0,0,8,0,0,0,0,0],"split_type":[0,0,0,0,0,0,0,0,0,0,0],"sum_hessian":[6.22146E1,3.508031E1,2.7134289E1,2.4876888E1,1.0203422E1,1.1900292E1,1.5233996E1,1.8444345E1,6.432543E0,6.420905E0,5.4793878E0],"tree_param":{"num_deleted":"0","num_feature":"13","num_nodes":"11","size_leaf_vector":"1"}},{"base_weights":[3.8100284E-2,-8.1116956E-1,1.0670744E0,-1.1013658E0,3.1449073E-3,5.051452E-1,1.5710196E-2,-1.2063503E-2,-5.511982E-3,-1.5518693E-3,9.125293E-3],"categories":[],"categories_nodes":[],"categories_segments":[],"categories_sizes":[],"default_left":[0,0,0,0,0,0,0,0,0,0,0],"id":9,"left_children":[1,3,5,7,-1,9,-1,-1,-1,-1,-1],"loss_changes":[5.3929966E1,1.1398827E1,7.1039066E0,9.0159225E-1,0E0,4.085172E0,0E0,0E0,0E0,0E0,0E0],"parents":[2147483647,0,0,1,1,2,2,3,3,5,5],"right_children":[2,4,6,8,-1,10,-1,-1,-1,-1,-1],"split_conditions":[4.734219E0,1E0,1E0,1.4E0,3.1449073E-3,6E-1,1.5710196E-2,-1.2063503E-2,-5.511982E-3,-1.5518693E-3,9.125293E-3],"split_indices":[12,8,8,9,0,9,0,0,0,0,0],"split_type":[0,0,0,0,0,0,0,0,0,0,0],"sum_hessian":[5.972297E1,3.2834496E1,2.6888474E1,2.6121843E1,6.7126536E0,1.3659591E1,1.3228884E1,2.0934391E1,5.187453E0,5.447981E0,8.21161E0],"tree_param":{"num_deleted":"0","num_feature":"13","num_nodes":"11","size_leaf_vector":"1"}},{"base_weights":[1.1820263E-1,-8.0860424E-1,1.0999576E0,-1.164494E0,-1.7555356E-4,9.32083E-2,1.8158942E-2,-6.038404E-3,-1.6085645E-2,8.870011E-3,-5.282438E-3],"categories":[],"categories_nodes":[],"categories_segments":[],"categories_sizes":[],"default_left":[0,0,0,0,0,0,0,0,0,0,0],"id":10,"left_children":[1,3,5,7,-1,9,-1,-1,-1,-1,-1],"loss_changes":[5.793478E1,9.220928E0,2.2079662E1,4.661598E0,0E0,7.316982E0,0E0,0E0,0E0,0E0,0E0],"parents":[2147483647,0,0,1,1,2,2,3,3,5,5],"right_children":[2,4,6,8,-1,10,-1,-1,-1,-1,-1],"split_conditions":[4E0,1E0,6.722408E-1,1.61E2,-1.7555356E-4,1.47E2,1.8158942E-2,-6.038404E-3,-1.6085645E-2,8.870011E-3,-5.282438E-3],"split_indices":[2,11,11,7,0,7,0,0,0,0,0],"split_type":[0,0,0,0,0,0,0,0,0,0,0],"sum_hessian":[6.169428E1,3.1825962E1,2.9868317E1,2.162491E1,1.020105E1,1.288277E1,1.6985546E1,1.0600817E1,1.1024095E1,5.4693537E0,7.413416E0],"tree_param":{"num_deleted":"0","num_feature":"13","num_nodes":"11","size_leaf_vector":"1"}},{"base_weights":[9.443541E-3,-9.24869E-1,1.1684569E0,-1.3324628E-2,-1.3804512E-2,1.3991126E-3,1.6330987E-2,-5.978076E-3,5.6903595E-3],"categories":[],"categories_nodes":[],"categories_segments":[],"categories_sizes":[],"default_left":[0,0,0,0,0,0,0,0,0],"id":11,"left_children":[1,3,5,-1,7,-1,-1,-1,-1],"loss_changes":[6.891327E1,1.3068005E1,1.3344151E1,0E0,4.391808E0,0E0,0E0,0E0,0E0],"parents":[2147483647,0,0,1,1,2,2,4,4],"right_children":[2,4,6,-1,8,-1,-1,-1,-1],"split_conditions":[4.734219E0,4E0,4E0,-1.3324628E-2,2E0,1.3991126E-3,1.6330987E-2,-5.978076E-3,5.6903595E-3],"split_indices":[12,2,2,0,10,0,0,0,0],"split_type":[0,0,0,0,0,0,0,0,0],"sum_hessian":[6.164088E1,3.424061E1,2.7400274E1,2.333736E1,1.0903246E1,8.93114E0,1.8469135E1,5.4333644E0,5.4698815E0],"tree_param":{"num_deleted":"0","num_feature":"13","num_nodes":"9","size_leaf_vector":"1"}},{"base_weights":[8.352872E-2,-7.6849E-1,1.0770574E0,-1.2674446E0,3.3182117E-1,3.868964E-1,1.6329171E-2,-7.82207E-3,-1.6001398E-2,5.5030403E-3,5.0676544E-4,8.610185E-3,-6.560296E-4],"categories":[],"categories_nodes":[],"categories_segments":[],"categories_sizes":[],"default_left":[0,0,0,0,0,0,0,0,0,0,0,0,0],"id":12,"left_children":[1,3,5,7,9,11,-1,-1,-1,-1,-1,-1,-1],"loss_changes":[5.486754E1,1.9608543E1,1.0834366E1,2.6637955E0,6.905854E-1,3.1981924E0,0E0,0E0,0E0,0E0,0E0,0E0,0E0],"parents":[2147483647,0,0,1,1,2,2,3,3,4,4,5,5],"right_children":[2,4,6,8,10,12,-1,-1,-1,-1,-1,-1,-1],"split_conditions":[4.734219E0,1E0,1E0,1.62E2,1.53E2,1.45E2,1.6329171E-2,-7.82207E-3,-1.6001398E-2,5.5030403E-3,5.0676544E-4,8.610185E-3,-6.560296E-4],"split_indices":[12,11,11,7,7,7,0,0,0,0,0,0,0],"split_type":[0,0,0,0,0,0,0,0,0,0,0,0,0],"sum_hessian":[6.2838764E1,3.3950443E1,2.888832E1,2.3253746E1,1.0696696E1,1.3643924E1,1.5244397E1,1.0821565E1,1.243218E1,5.4804015E0,5.2162952E0,6.221901E0,7.422023E0],"tree_param":{"num_deleted":"0","num_feature":"13","num_nodes":"13","size_leaf_vector":"1"}},{"base_weights":[2.7777381E-2,-8.35569E-1,9.221172E-1,-1.2373784E0,-5.3856112E-2,1.4822932E-2,1.4182357E0,-1.4494509E-2,-7.931351E-3,-3.8093405E-3,2.6707782E-3,-1.1017164E-3,1.328363E-3,6.094646E-3,1.7739816E-2],"categories":[],"categories_nodes":[],"categories_segments":[],"categories_sizes":[],"default_left":[0,0,0,0,0,0,0,0,0,0,0,0,0,0,0],"id":13,"left_children":[1,3,5,7,9,11,13,-1,-1,-1,-1,-1,-1,-1,-1],"loss_changes":[4.7361973E1,9.741922E0,1.3534193E1,7.892895E-1,1.3243668E0,1.8657625E-1,4.5172462E0,0E0,0E0,0E0,0E0,0E0,0E0,0E0,0E0],"parents":[2147483647,0,0,1,1,2,2,3,3,4,4,5,5,6,6],"right_children":[2,4,6,8,10,12,14,-1,-1,-1,-1,-1,-1,-1,-1],"split_conditions":[4E0,5.7E1,7E-1,6E-1,2E0,2.49E2,1E0,-1.4494509E-2,-7.931351E-3,-3.8093405E-3,2.6707782E-3,-1.1017164E-3,1.328363E-3,6.094646E-3,1.7739816E-2],"split_indices":[2,0,9,9,10,4,8,0,0,0,0,0,0,0,0],"split_type":[0,0,0,0,0,0,0,0,0,0,0,0,0,0,0],"sum_hessian":[5.934188E1,3.0227566E1,2.9114315E1,1.958021E1,1.0647357E1,1.0656232E1,1.8458084E1,1.1721747E1,7.858462E0,5.180612E0,5.4667444E0,5.2073174E0,5.448914E0,6.4675746E0,1.1990509E1],"tree_param":{"num_deleted":"0","num_feature":"13","num_nodes":"15","size_leaf_vector":"1"}},{"base_weights":[-1.4950973E-2,-8.7080663E-1,9.328905E-1,-1.2705352E-2,-2.6961836E-1,5.2226454E-2,1.7353406E-2,-7.20283E-3,6.614229E-4,-7.2373715E-3,6.3527203E-3],"categories":[],"categories_nodes":[],"categories_segments":[],"categories_sizes":[],"default_left":[0,0,0,0,0,0,0,0,0,0,0],"id":14,"left_children":[1,3,5,-1,7,9,-1,-1,-1,-1,-1],"loss_changes":[5.2320385E1,7.800108E0,2.1541937E1,0E0,2.2872999E0,7.52903E0,0E0,0E0,0E0,0E0,0E0],"parents":[2147483647,0,0,1,1,2,2,4,4,5,5],"right_children":[2,4,6,-1,8,10,-1,-1,-1,-1,-1],"split_conditions":[4E0,2E0,6.722408E-1,-1.2705352E-2,2.3E2,2E0,1.7353406E-2,-7.20283E-3,6.614229E-4,-7.2373715E-3,6.3527203E-3],"split_indices":[2,10,11,0,4,10,0,0,0,0,0],"split_type":[0,0,0,0,0,0,0,0,0,0,0],"sum_hessian":[6.249487E1,3.2883713E1,2.9611155E1,1.908246E1,1.3801254E1,1.4625361E1,1.4985792E1,5.4034324E0,8.397822E0,6.171084E0,8.454277E0],"tree_param":{"num_deleted":"0","num_feature":"13","num_nodes":"11","size_leaf_vector":"1"}},{"base_weights":[6.036439E-2,-6.460826E-1,9.817626E-1,-1.1777433E0,-4.0273156E-2,1.8083714E-3,1.4639851E-2,-7.2420645E-3,-1.4013812E-2,7.2182408E-3,-5.1199077E-3],"categories":[],"categories_nodes":[],"categories_segments":[],"categories_sizes":[],"default_left":[0,0,0,0,0,0,0,0,0,0,0],"id":15,"left_children":[1,3,5,7,9,-1,-1,-1,-1,-1,-1],"loss_changes":[4.116325E1,1.1498061E1,1.03248005E1,9.17923E-1,6.765013E0,0E0,0E0,0E0,0E0,0E0,0E0],"parents":[2147483647,0,0,1,1,2,2,3,3,4,4],"right_children":[2,4,6,8,10,-1,-1,-1,-1,-1,-1],"split_conditions":[1E0,2E0,2E0,1.62E2,1.44E2,1.8083714E-3,1.4639851E-2,-7.2420645E-3,-1.4013812E-2,7.2182408E-3,-5.1199077E-3],"split_indices":[11,10,10,7,7,0,0,0,0,0,0],"split_type":[0,0,0,0,0,0,0,0,0,0,0],"sum_hessian":[6.1264206E1,3.4846092E1,2.6418114E1,1.8055996E1,1.6790096E1,1.0444991E1,1.5973123E1,7.362722E0,1.06932745E1,6.216555E0,1.0573542E1],"tree_param":{"num_deleted":"0","num_feature":"13","num_nodes":"11","size_leaf_vector":"1"}},{"base_weights":[-1.5632251E-2,-9.359878E-1,9.490504E-1,-1.1226884E0,5.5308355E-4,8.494011E-3,1.4268657E0,-1.3017422E-2,-7.565128E-3,-3.224161E-3,3.510165E-3,7.218542E-3,1.692019E-2],"categories":[],"categories_nodes":[],"categories_segments":[],"categories_sizes":[],"default_left":[0,0,0,0,0,0,0,0,0,0,0,0,0],"id":16,"left_children":[1,3,5,7,-1,9,11,-1,-1,-1,-1,-1,-1],"loss_changes":[5.7447865E1,6.1889133E0,1.4189064E1,8.447914E-1,0E0,1.4337564E0,2.694622E0,0E0,0E0,0E0,0E0,0E0,0E0],"parents":[2147483647,0,0,1,1,2,2,3,3,5,5,6,6],"right_children":[2,4,6,8,-1,10,12,-1,-1,-1,-1,-1,-1],"split_conditions":[4E0,1.8E0,7E-1,2E0,5.5308355E-4,2.44E2,1E0,-1.3017422E-2,-7.565128E-3,-3.224161E-3,3.510165E-3,7.218542E-3,1.692019E-2],"split_indices":[2,9,9,6,0,4,8,0,0,0,0,0,0],"split_type":[0,0,0,0,0,0,0,0,0,0,0,0,0],"sum_hessian":[6.270389E1,3.2104416E1,3.0599474E1,2.6904652E1,5.199765E0,1.065109E1,1.9948385E1,1.6353228E1,1.0551422E1,5.4472327E0,5.203857E0,6.469406E0,1.3478978E1],"tree_param":{"num_deleted":"0","num_feature":"13","num_nodes":"13","size_leaf_vector":"1"}},{"base_weights":[1.8208746E-2,-7.00918E-1,9.9728614E-1,-1.1073312E0,5.5611394E-3,1.836326E-3,1.4564696E-2,-1.2186889E-2,-5.0886474E-3],"categories":[],"categories_nodes":[],"categories_segments":[],"categories_sizes":[],"default_left":[0,0,0,0,0,0,0,0,0],"id":17,"left_children":[1,3,5,7,-1,-1,-1,-1,-1],"loss_changes":[4.5166405E1,1.9517845E1,9.878933E0,1.2654762E0,0E0,0E0,0E0,0E0,0E0],"parents":[2147483647,0,0,1,1,2,2,3,3],"right_children":[2,4,6,8,-1,-1,-1,-1,-1],"split_conditions":[1E0,1E0,2E0,1.42E2,5.5611394E-3,1.836326E-3,1.4564696E-2,-1.2186889E-2,-5.0886474E-3],"split_indices":[11,8,10,3,0,0,0,0,0],"split_type":[0,0,0,0,0,0,0,0,0],"sum_hessian":[6.215666E1,3.5999405E1,2.6157253E1,2.729402E1,8.705386E0,9.94141E0,1.6215843E1,2.2138348E1,5.155672E0],"tree_param":{"num_deleted":"0","num_feature":"13","num_nodes":"9","size_leaf_vector":"1"}},{"base_weights":[-7.7350445E-2,-8.3194005E-1,9.942541E-1,-1.1872116E0,2.5292234E-3,7.144935E-4,1.5130507E-2,-1.3528462E-2,-5.0174645E-3],"categories":[],"categories_nodes":[],"categories_segments":[],"categories_sizes":[],"default_left":[0,0,0,0,0,0,0,0,0],"id":18,"left_children":[1,3,5,7,-1,-1,-1,-1,-1],"loss_changes":[4.965899E1,1.4167898E1,1.2056156E1,2.4184914E0,0E0,0E0,0E0,0E0,0E0],"parents":[2147483647,0,0,1,1,2,2,3,3],"right_children":[2,4,6,8,-1,-1,-1,-1,-1],"split_conditions":[1E0,1E0,4E0,7E0,2.5292234E-3,7.144935E-4,1.5130507E-2,-1.3528462E-2,-5.0174645E-3],"split_indices":[11,8,2,12,0,0,0,0,0],"split_type":[0,0,0,0,0,0,0,0,0],"sum_hessian":[5.9388973E1,3.4980484E1,2.4408487E1,2.627996E1,8.700524E0,9.193446E0,1.521504E1,2.0381416E1,5.898545E0],"tree_param":{"num_deleted":"0","num_feature":"13","num_nodes":"9","size_leaf_vector":"1"}},{"base_weights":[-1.4475878E-1,-8.8261276E-1,8.3958375E-1,-1.1986616E0,-2.8467408E-4,1.14897765E-1,1.4838672E-2,-7.358936E-3,-1.4891201E-2,-6.855411E-3,7.206069E-3],"categories":[],"categories_nodes":[],"categories_segments":[],"categories_sizes":[],"default_left":[0,0,0,0,0,0,0,0,0,0,0],"id":19,"left_children":[1,3,5,7,-1,9,-1,-1,-1,-1,-1],"loss_changes":[4.324734E1,9.127453E0,1.1775946E1,2.2305946E0,0E0,6.8578405E0,0E0,0E0,0E0,0E0,0E0],"parents":[2147483647,0,0,1,1,2,2,3,3,5,5],"right_children":[2,4,6,8,-1,10,-1,-1,-1,-1,-1],"split_conditions":[4.734219E0,1E0,1E0,1.62E2,-2.8467408E-4,7E-1,1.4838672E-2,-7.358936E-3,-1.4891201E-2,-6.855411E-3,7.206069E-3],"split_indices":[12,11,11,7,0,9,0,0,0,0,0],"split_type":[0,0,0,0,0,0,0,0,0,0,0],"sum_hessian":[5.7524376E1,3.293783E1,2.4586542E1,2.3747494E1,9.190337E0,1.2125826E1,1.2460717E1,1.0520096E1,1.3227399E1,5.16652E0,6.959306E0],"tree_param":{"num_deleted":"0","num_feature":"13","num_nodes":"11","size_leaf_vector":"1"}},{"base_weights":[-1.9159552E-2,-7.2472566E-1,9.878909E-1,1.9860955E-1,-1.1356591E0,8.892571E-4,1.4249614E-2,-3.2052104E-3,6.6834376E-3,-5.821152E-3,-1.3272522E-2],"categories":[],"categories_nodes":[],"categories_segments":[],"categories_sizes":[],"default_left":[0,0,0,0,0,0,0,0,0,0,0],"id":20,"left_children":[1,3,5,7,9,-1,-1,-1,-1,-1,-1],"loss_changes":[4.4215748E1,1.4103464E1,9.9494705E0,3.1687202E0,1.927536E0,0E0,0E0,0E0,0E0,0E0,0E0],"parents":[2147483647,0,0,1,1,2,2,3,3,4,4],"right_children":[2,4,6,8,10,-1,-1,-1,-1,-1,-1],"split_conditions":[1E0,1.48E2,6E-1,2.29E2,1.6E2,8.892571E-4,1.4249614E-2,-3.2052104E-3,6.6834376E-3,-5.821152E-3,-1.3272522E-2],"split_indices":[11,7,9,4,7,0,0,0,0,0,0],"split_type":[0,0,0,0,0,0,0,0,0,0,0],"sum_hessian":[6.0220695E1,3.557574E1,2.4644955E1,1.1115892E1,2.4459848E1,8.456047E0,1.618891E1,5.4312057E0,5.684686E0,7.3275733E0,1.7132275E1],"tree_param":{"num_deleted":"0","num_feature":"13","num_nodes":"11","size_leaf_vector":"1"}},{"base_weights":[-7.8898564E-2,-8.6762E-1,8.79089E-1,3.2371816E-3,-1.0993012E0,-2.5554528E-3,1.328389E0,-8.027966E-3,-1.3077592E-2,1.65951E-2,3.3053237E-3],"categories":[],"categories_nodes":[],"categories_segments":[],"categories_sizes":[],"default_left":[0,0,0,0,0,0,0,0,0,0,0],"id":21,"left_children":[1,3,5,-1,7,-1,9,-1,-1,-1,-1],"loss_changes":[4.6037777E1,9.565477E0,1.4386072E1,0E0,6.9078445E-1,0E0,6.0263634E0,0E0,0E0,0E0,0E0],"parents":[2147483647,0,0,1,1,2,2,4,4,6,6],"right_children":[2,4,6,-1,8,-1,10,-1,-1,-1,-1],"split_conditions":[4.734219E0,1.27E2,6E-1,3.2371816E-3,1.63E2,-2.5554528E-3,1.47E2,-8.027966E-3,-1.3077592E-2,1.65951E-2,3.3053237E-3],"split_indices":[12,7,9,0,7,0,7,0,0,0,0],"split_type":[0,0,0,0,0,0,0,0,0,0,0],"sum_hessian":[5.8920517E1,3.2366863E1,2.6553654E1,5.204961E0,2.7161903E1,7.6545544E0,1.88991E1,1.3215568E1,1.3946336E1,1.3692434E1,5.2066655E0],"tree_param":{"num_deleted":"0","num_feature":"13","num_nodes":"11","size_leaf_vector":"1"}},{"base_weights":[1.2020425E-2,-8.969458E-1,9.0983534E-1,-1.186044E0,-3.693808E-1,2.1337323E-1,1.4718674E-2,-6.703843E-3,-1.3355541E-2,-4.8106132E-4,-6.124182E-3,6.6924677E-3,-3.761727E-3],"categories":[],"categories_nodes":[],"categories_segments":[],"categories_sizes":[],"default_left":[0,0,0,0,0,0,0,0,0,0,0,0,0],"id":22,"left_children":[1,3,5,7,9,11,-1,-1,-1,-1,-1,-1,-1],"loss_changes":[4.792244E1,4.013397E0,1.1247263E1,5.234165E-1,8.9068365E-1,4.111115E0,0E0,0E0,0E0,0E0,0E0,0E0,0E0],"parents":[2147483647,0,0,1,1,2,2,3,3,4,4,5,5],"right_children":[2,4,6,8,10,12,-1,-1,-1,-1,-1,-1,-1],"split_conditions":[4E0,2E0,6.722408E-1,1.55E2,3E0,1.47E2,1.4718674E-2,-6.703843E-3,-1.3355541E-2,-4.8106132E-4,-6.124182E-3,6.6924677E-3,-3.761727E-3],"split_indices":[2,10,11,7,2,7,0,0,0,0,0,0,0],"split_type":[0,0,0,0,0,0,0,0,0,0,0,0,0],"sum_hessian":[5.6722492E1,2.8186686E1,2.8535809E1,1.7402313E1,1.0784372E1,1.3359971E1,1.51758375E1,5.1441245E0,1.2258188E1,5.16053E0,5.623842E0,7.457882E0,5.902089E0],"tree_param":{"num_deleted":"0","num_feature":"13","num_nodes":"13","size_leaf_vector":"1"}},{"base_weights":[-4.1102067E-2,-7.568029E-1,9.8722607E-1,-1.1765306E-2,2.5648023E-3,4.968183E-4,1.3430296E0,9.165459E-3,1.5699424E-2],"categories":[],"categories_nodes":[],"categories_segments":[],"categories_sizes":[],"default_left":[0,0,0,0,0,0,0,0,0],"id":23,"left_children":[1,3,5,-1,-1,-1,7,-1,-1],"loss_changes":[4.4984676E1,1.5615658E1,8.306284E0,0E0,0E0,0E0,3.181877E-1,0E0,0E0],"parents":[2147483647,0,0,1,1,2,2,6,6],"right_children":[2,4,6,-1,-1,-1,8,-1,-1],"split_conditions":[1E0,7E0,1E0,-1.1765306E-2,2.5648023E-3,4.968183E-4,1E0,9.165459E-3,1.5699424E-2],"split_indices":[11,12,1,0,0,0,6,0,0],"split_type":[0,0,0,0,0,0,0,0,0],"sum_hessian":[5.9107372E1,3.5007042E1,2.4100328E1,2.4639591E1,1.0367452E1,6.9435835E0,1.7156746E1,7.708252E0,9.448493E0],"tree_param":{"num_deleted":"0","num_feature":"13","num_nodes":"9","size_leaf_vector":"1"}},{"base_weights":[6.0991656E-2,-7.233473E-1,9.687462E-1,4.4864523E-3,-9.948608E-1,-1.6817738E-3,1.3363036E0,-1.3747601E-2,-2.9830928E-3,1.5721098E-2,4.605491E-3],"categories":[],"categories_nodes":[],"categories_segments":[],"categories_sizes":[],"default_left":[0,0,0,0,0,0,0,0,0,0,0],"id":24,"left_children":[1,3,5,-1,7,-1,9,-1,-1,-1,-1],"loss_changes":[4.5760944E1,1.143244E1,1.2662426E1,0E0,7.0896015E0,0E0,3.9438324E0,0E0,0E0,0E0,0E0],"parents":[2147483647,0,0,1,1,2,2,4,4,6,6],"right_children":[2,4,6,-1,8,-1,10,-1,-1,-1,-1],"split_conditions":[4.734219E0,1.37E2,6E-1,4.4864523E-3,5.6E1,-1.6817738E-3,1.51E2,-1.3747601E-2,-2.9830928E-3,1.5721098E-2,4.605491E-3],"split_indices":[12,7,9,0,0,0,7,0,0,0,0],"split_type":[0,0,0,0,0,0,0,0,0,0,0],"sum_hessian":[6.228794E1,3.3524487E1,2.8763453E1,6.1830153E0,2.7341473E1,7.159678E0,2.1603775E1,1.7062122E1,1.027935E1,1.6394289E1,5.209486E0],"tree_param":{"num_deleted":"0","num_feature":"13","num_nodes":"11","size_leaf_vector":"1"}},{"base_weights":[6.6786215E-2,-8.1504565E-1,9.78003E-1,-1.2394486E-2,-1.13176726E-1,2.3040028E-4,1.4623574E-2,3.4720069E-3,-5.5462825E-3],"categories":[],"categories_nodes":[],"categories_segments":[],"categories_sizes":[],"default_left":[0,0,0,0,0,0,0,0,0],"id":25,"left_children":[1,3,5,-1,7,-1,-1,-1,-1],"loss_changes":[4.901382E1,9.105715E0,1.38265915E1,0E0,2.7933447E0,0E0,0E0,0E0,0E0],"parents":[2147483647,0,0,1,1,2,2,4,4],"right_children":[2,4,6,-1,8,-1,-1,-1,-1],"split_conditions":[4E0,5.7E1,4.734219E0,-1.2394486E-2,6.3E1,2.3040028E-4,1.4623574E-2,3.4720069E-3,-5.5462825E-3],"split_indices":[2,0,12,0,0,0,0,0,0],"split_type":[0,0,0,0,0,0,0,0,0],"sum_hessian":[5.9005356E1,3.003981E1,2.8965546E1,1.8242868E1,1.1796942E1,1.00999155E1,1.886563E1,5.8791957E0,5.917746E0],"tree_param":{"num_deleted":"0","num_feature":"13","num_nodes":"9","size_leaf_vector":"1"}},{"base_weights":[7.154587E-2,-7.284311E-1,9.245193E-1,-1.1727155E0,-1.2782131E-1,3.4711948E-1,1.398383E-2,-1.4608597E-2,-8.677212E-3,-6.6248053E-3,7.248828E-3,-9.888198E-4,5.9599695E-3],"categories":[],"categories_nodes":[],"categories_segments":[],"categories_sizes":[],"default_left":[0,0,0,0,0,0,0,0,0,0,0,0,0],"id":26,"left_children":[1,3,5,7,9,11,-1,-1,-1,-1,-1,-1,-1],"loss_changes":[4.2289814E1,8.397438E0,7.711214E0,3.397045E-1,7.201181E0,1.7054708E0,0E0,0E0,0E0,0E0,0E0,0E0,0E0],"parents":[2147483647,0,0,1,1,2,2,3,3,4,4,5,5],"right_children":[2,4,6,8,10,12,-1,-1,-1,-1,-1,-1,-1],"split_conditions":[4.734219E0,5.7E1,1E0,1E0,1E0,2E0,1.398383E-2,-1.4608597E-2,-8.677212E-3,-6.6248053E-3,7.248828E-3,-9.888198E-4,5.9599695E-3],"split_indices":[12,0,8,1,1,10,0,0,0,0,0,0,0],"split_type":[0,0,0,0,0,0,0,0,0,0,0,0,0],"sum_hessian":[5.9988953E1,3.1031496E1,2.8957455E1,1.7289515E1,1.37419815E1,1.3833705E1,1.512375E1,6.9416137E0,1.0347902E1,8.583237E0,5.158745E0,5.1705313E0,8.663174E0],"tree_param":{"num_deleted":"0","num_feature":"13","num_nodes":"13","size_leaf_vector":"1"}},{"base_weights":[3.685109E-2,-7.4738944E-1,9.2774063E-1,-1.1398621E0,1.8909689E-3,2.1620649E-4,1.2513534E0,-1.3962287E-2,-2.0152691E-3,6.5693418E-3,1.5556341E-2],"categories":[],"categories_nodes":[],"categories_segments":[],"categories_sizes":[],"default_left":[0,0,0,0,0,0,0,0,0,0,0],"id":27,"left_children":[1,3,5,7,-1,-1,9,-1,-1,-1,-1],"loss_changes":[4.4739605E1,1.2742258E1,8.75839E0,5.5302906E0,0E0,0E0,2.9678268E0,0E0,0E0,0E0,0E0],"parents":[2147483647,0,0,1,1,2,2,3,3,6,6],"right_children":[2,4,6,8,-1,-1,10,-1,-1,-1,-1],"split_conditions":[4.734219E0,1E0,6E-1,1.4E2,1.8909689E-3,2.1620649E-4,6.722408E-1,-1.3962287E-2,-2.0152691E-3,6.5693418E-3,1.5556341E-2],"split_indices":[12,11,9,3,0,0,11,0,0,0,0],"split_type":[0,0,0,0,0,0,0,0,0,0,0],"sum_hessian":[6.204281E1,3.3082085E1,2.8960728E1,2.3159136E1,9.922947E0,7.901955E0,2.1058771E1,1.780623E1,5.3529053E0,8.1996155E0,1.2859156E1],"tree_param":{"num_deleted":"0","num_feature":"13","num_nodes":"11","size_leaf_vector":"1"}},{"base_weights":[5.1215985E-3,-5.4914427E-1,1.0600195E0,-1.1079248E0,4.874726E-1,9.991846E-4,1.4491377E-2,-7.995884E-3,-1.3154567E-2,-2.6731507E-3,1.0606978E-2],"categories":[],"categories_nodes":[],"categories_segments":[],"categories_sizes":[],"default_left":[0,0,0,0,0,0,0,0,0,0,0],"id":28,"left_children":[1,3,5,7,9,-1,-1,-1,-1,-1,-1],"loss_changes":[3.741821E1,2.4844606E1,8.089722E0,7.1229553E-1,6.9424353E0,0E0,0E0,0E0,0E0,0E0,0E0],"parents":[2147483647,0,0,1,1,2,2,3,3,4,4],"right_children":[2,4,6,8,10,-1,-1,-1,-1,-1,-1],"split_conditions":[1E0,1E0,7E-1,1.62E2,6E-1,9.991846E-4,1.4491377E-2,-7.995884E-3,-1.3154567E-2,-2.6731507E-3,1.0606978E-2],"split_indices":[8,11,9,7,9,0,0,0,0,0,0],"split_type":[0,0,0,0,0,0,0,0,0,0,0],"sum_hessian":[6.200066E1,4.0959236E1,2.1041424E1,2.6568758E1,1.4390478E1,6.4308586E0,1.4610564E1,1.2640796E1,1.3927962E1,6.4418764E0,7.9486017E0],"tree_param":{"num_deleted":"0","num_feature":"13","num_nodes":"11","size_leaf_vector":"1"}},{"base_weights":[8.390308E-2,-6.6180736E-1,9.372469E-1,-1.0349293E0,-1.2431731E-2,9.834473E-4,1.3895653E0,-1.19677195E-2,-5.9143733E-3,-4.131879E-3,4.9804277E-3,7.166904E-3,1.5991487E-2],"categories":[],"categories_nodes":[],"categories_segments":[],"categories_sizes":[],"default_left":[0,0,0,0,0,0,0,0,0,0,0,0,0],"id":29,"left_children":[1,3,5,7,9,-1,11,-1,-1,-1,-1,-1,-1],"loss_changes":[3.9166462E1,7.961547E0,1.0739279E1,7.9156685E-1,2.8697898E0,0E0,1.4692764E0,0E0,0E0,0E0,0E0,0E0,0E0],"parents":[2147483647,0,0,1,1,2,2,3,3,4,4,6,6],"right_children":[2,4,6,8,10,-1,12,-1,-1,-1,-1,-1,-1],"split_conditions":[4.734219E0,4E0,4E0,7E-1,2.65E2,9.834473E-4,1E0,-1.19677195E-2,-5.9143733E-3,-4.131879E-3,4.9804277E-3,7.166904E-3,1.5991487E-2],"split_indices":[12,2,2,9,4,0,9,0,0,0,0,0,0],"split_type":[0,0,0,0,0,0,0,0,0,0,0,0,0],"sum_hessian":[5.9574127E1,3.191183E1,2.7662296E1,1.9889742E1,1.2022089E1,1.0116652E1,1.7545645E1,1.3327603E1,6.562138E0,6.8415785E0,5.1805105E0,5.2167344E0,1.232891E1],"tree_param":{"num_deleted":"0","num_feature":"13","num_nodes":"13","size_leaf_vector":"1"}},{"base_weights":[1.12208545E-1,-6.1176336E-1,7.5995135E-1,-8.5691416E-1,2.5256693E-3,1.1720848E0,-2.976913E-3,-5.285113E-3,-1.1911583E-2,1.2724858E-3,1.465005E-2],"categories":[],"categories_nodes":[],"categories_segments":[],"categories_sizes":[],"default_left":[0,0,0,0,0,0,0,0,0,0,0],"id":30,"left_children":[1,3,5,7,-1,9,-1,-1,-1,-1,-1],"loss_changes":[2.8460625E1,6.307187E0,1.4277475E1,1.8534851E0,0E0,6.9130077E0,0E0,0E0,0E0,0E0,0E0],"parents":[2147483647,0,0,1,1,2,2,3,3,5,5],"right_children":[2,4,6,8,-1,10,-1,-1,-1,-1,-1],"split_conditions":[8E-1,1.4E2,1.57E2,1.63E2,2.5256693E-3,1E0,-2.976913E-3,-5.285113E-3,-1.1911583E-2,1.2724858E-3,1.465005E-2],"split_indices":[9,3,7,7,0,1,0,0,0,0,0],"split_type":[0,0,0,0,0,0,0,0,0,0,0],"sum_hessian":[5.8699024E1,2.7744728E1,3.0954298E1,2.162094E1,6.123788E0,2.2196676E1,8.757624E0,1.2207749E1,9.413191E0,5.174352E0,1.7022324E1],"tree_param":{"num_deleted":"0","num_feature":"13","num_nodes":"11","size_leaf_vector":"1"}},{"base_weights":[7.4968606E-2,-7.259889E-1,9.259159E-1,-1.1680119E0,-1.7159659E-1,3.3537307E-1,1.3579897E-2,-6.4645833E-3,-1.3316035E-2,-6.270754E-3,4.7227386E-3,9.730177E-3,-1.6017219E-3],"categories":[],"categories_nodes":[],"categories_segments":[],"categories_sizes":[],"default_left":[0,0,0,0,0,0,0,0,0,0,0,0,0],"id":31,"left_children":[1,3,5,7,9,11,-1,-1,-1,-1,-1,-1,-1],"loss_changes":[4.168618E1,7.533182E0,7.1015167E0,6.226349E-1,4.745665E0,4.5295277E0,0E0,0E0,0E0,0E0,0E0,0E0,0E0],"parents":[2147483647,0,0,1,1,2,2,3,3,4,4,5,5],"right_children":[2,4,6,8,10,12,-1,-1,-1,-1,-1,-1,-1],"split_conditions":[4.734219E0,5.5E1,1E0,1.53E2,1E0,5.2E1,1.3579897E-2,-6.4645833E-3,-1.3316035E-2,-6.270754E-3,4.7227386E-3,9.730177E-3,-1.6017219E-3],"split_indices":[12,0,11,7,1,0,0,0,0,0,0,0,0],"split_type":[0,0,0,0,0,0,0,0,0,0,0,0,0],"sum_hessian":[5.91755E1,3.0558777E1,2.8616724E1,1.6386673E1,1.4172103E1,1.2841551E1,1.5775173E1,5.094939E0,1.1291735E1,8.31564E0,5.8564625E0,5.1942725E0,7.647278E0],"tree_param":{"num_deleted":"0","num_feature":"13","num_nodes":"13","size_leaf_vector":"1"}},{"base_weights":[3.587467E-2,-7.3395646E-1,9.5741963E-1,1.7119573E-3,-9.537398E-1,2.1261272E-3,1.2497076E0,-6.313535E-3,-1.229438E-2,1.538172E-2,5.5941604E-3],"categories":[],"categories_nodes":[],"categories_segments":[],"categories_sizes":[],"default_left":[0,0,0,0,0,0,0,0,0,0,0],"id":32,"left_children":[1,3,5,-1,7,-1,9,-1,-1,-1,-1],"loss_changes":[4.5413128E1,7.106966E0,6.073393E0,0E0,1.7335129E0,0E0,3.2628136E0,0E0,0E0,0E0,0E0],"parents":[2147483647,0,0,1,1,2,2,4,4,6,6],"right_children":[2,4,6,-1,8,-1,10,-1,-1,-1,-1],"split_conditions":[4.734219E0,1.37E2,7E-1,1.7119573E-3,1.63E2,2.1261272E-3,1.45E2,-6.313535E-3,-1.229438E-2,1.538172E-2,5.5941604E-3],"split_indices":[12,7,9,0,7,0,7,0,0,0,0],"split_type":[0,0,0,0,0,0,0,0,0,0,0],"sum_hessian":[6.2022663E1,3.3903908E1,2.8118753E1,6.6671395E0,2.7236769E1,8.411645E0,1.970711E1,1.4071893E1,1.3164877E1,1.3032636E1,6.6744747E0],"tree_param":{"num_deleted":"0","num_feature":"13","num_nodes":"11","size_leaf_vector":"1"}},{"base_weights":[2.5201213E-2,-7.496052E-1,9.332413E-1,-1.1532729E0,-1.2579389E-1,2.5192064E-1,1.3953133E-2,-1.4063439E-2,-6.0431827E-3,4.4085924E-3,-5.851182E-3,-3.160941E-4,5.2940827E-3],"categories":[],"categories_nodes":[],"categories_segments":[],"categories_sizes":[],"default_left":[0,0,0,0,0,0,0,0,0,0,0,0,0],"id":33,"left_children":[1,3,5,7,9,11,-1,-1,-1,-1,-1,-1,-1],"loss_changes":[4.1028297E1,7.7830753E0,8.097292E0,1.7886581E0,3.7695537E0,9.6602345E-1,0E0,0E0,0E0,0E0,0E0,0E0,0E0],"parents":[2147483647,0,0,1,1,2,2,3,3,4,4,5,5],"right_children":[2,4,6,8,10,12,-1,-1,-1,-1,-1,-1,-1],"split_conditions":[4E0,5.7E1,6.722408E-1,2E0,6.2E1,2.44E2,1.3953133E-2,-1.4063439E-2,-6.0431827E-3,4.4085924E-3,-5.851182E-3,-3.160941E-4,5.2940827E-3],"split_indices":[2,0,11,10,0,4,0,0,0,0,0,0,0],"split_type":[0,0,0,0,0,0,0,0,0,0,0,0,0],"sum_hessian":[5.6321342E1,3.0484344E1,2.5836998E1,1.79926E1,1.2491745E1,1.1065791E1,1.4771207E1,1.1246187E1,6.7464123E0,5.6104817E0,6.8812637E0,5.9115753E0,5.154216E0],"tree_param":{"num_deleted":"0","num_feature":"13","num_nodes":"13","size_leaf_vector":"1"}},{"base_weights":[4.2123817E-2,-7.278499E-1,8.833256E-1,3.0007993E-3,-9.4875944E-1,4.2865026E-1,1.3239226E-2,-1.2566794E-2,-2.740344E-3,8.576873E-3,1.2518951E-3],"categories":[],"categories_nodes":[],"categories_segments":[],"categories_sizes":[],"default_left":[0,0,0,0,0,0,0,0,0,0,0],"id":34,"left_children":[1,3,5,-1,7,9,-1,-1,-1,-1,-1],"loss_changes":[3.8079124E1,7.2617264E0,5.0563946E0,0E0,4.959837E0,1.8839383E0,0E0,0E0,0E0,0E0,0E0],"parents":[2147483647,0,0,1,1,2,2,4,4,5,5],"right_children":[2,4,6,-1,8,10,-1,-1,-1,-1,-1],"split_conditions":[4.734219E0,1.38E2,1E0,3.0007993E-3,5.8E1,1.45E2,1.3239226E-2,-1.2566794E-2,-2.740344E-3,8.576873E-3,1.2518951E-3],"split_indices":[12,7,8,0,0,7,0,0,0,0,0],"split_type":[0,0,0,0,0,0,0,0,0,0,0],"sum_hessian":[5.6798374E1,2.9725033E1,2.7073341E1,5.1947207E0,2.4530312E1,1.4294735E1,1.2778606E1,1.6251303E1,8.27901E0,5.165428E0,9.129307E0],"tree_param":{"num_deleted":"0","num_feature":"13","num_nodes":"11","size_leaf_vector":"1"}},{"base_weights":[2.313897E-2,-4.673704E-1,9.6512777E-1,-7.983188E-1,2.7869647E-2,1.2697041E0,7.8868563E-4,-9.913991E-3,-1.3557925E-3,7.3154545E-3,-5.217188E-3,8.0580795E-3,1.5061066E-2],"categories":[],"categories_nodes":[],"categories_segments":[],"categories_sizes":[],"default_left":[0,0,0,0,0,0,0,0,0,0,0,0,0],"id":35,"left_children":[1,3,5,7,9,11,-1,-1,-1,-1,-1,-1,-1],"loss_changes":[2.8212713E1,6.6082706E0,5.5413723E0,2.9521303E0,6.9803348E0,4.848709E-1,0E0,0E0,0E0,0E0,0E0,0E0,0E0],"parents":[2147483647,0,0,1,1,2,2,3,3,4,4,5,5],"right_children":[2,4,6,8,10,12,-1,-1,-1,-1,-1,-1,-1],"split_conditions":[1E0,8E-1,1.47E2,1.4E2,1.48E2,1.29E2,7.8868563E-4,-9.913991E-3,-1.3557925E-3,7.3154545E-3,-5.217188E-3,8.0580795E-3,1.5061066E-2],"split_indices":[8,9,7,3,7,3,0,0,0,0,0,0,0],"split_type":[0,0,0,0,0,0,0,0,0,0,0,0,0],"sum_hessian":[5.9083065E1,3.9183437E1,1.9899626E1,2.3120789E1,1.6062649E1,1.4487965E1,5.4116616E0,1.7520512E1,5.6002774E0,6.8986964E0,9.163953E0,6.3789973E0,8.108968E0],"tree_param":{"num_deleted":"0","num_feature":"13","num_nodes":"13","size_leaf_vector":"1"}},{"base_weights":[-2.0396965E-2,-7.345092E-1,8.1064993E-1,-1.0771536E0,6.525182E-4,9.250422E-2,1.31815635E-2,-1.2799578E-2,-4.1216873E-3,-4.9034744E-3,6.7550265E-3],"categories":[],"categories_nodes":[],"categories_segments":[],"categories_sizes":[],"default_left":[0,0,0,0,0,0,0,0,0,0,0],"id":36,"left_children":[1,3,5,7,-1,9,-1,-1,-1,-1,-1],"loss_changes":[3.5660587E1,8.922483E0,1.0003794E1,2.529976E0,0E0,4.6057353E0,0E0,0E0,0E0,0E0,0E0],"parents":[2147483647,0,0,1,1,2,2,3,3,5,5],"right_children":[2,4,6,8,-1,10,-1,-1,-1,-1,-1],"split_conditions":[4.734219E0,1E0,1E0,1.4E2,6.525182E-4,4E0,1.31815635E-2,-1.2799578E-2,-4.1216873E-3,-4.9034744E-3,6.7550265E-3],"split_indices":[12,11,11,3,0,2,0,0,0,0,0],"split_type":[0,0,0,0,0,0,0,0,0,0,0],"sum_hessian":[5.8085888E1,3.1303335E1,2.6782553E1,2.1671638E1,9.631697E0,1.1579411E1,1.5203143E1,1.5898262E1,5.7733765E0,5.869905E0,5.7095056E0],"tree_param":{"num_deleted":"0","num_feature":"13","num_nodes":"11","size_leaf_vector":"1"}},{"base_weights":[5.0178103E-2,-8.398999E-1,9.6114177E-1,-1.189946E-2,-2.0817608E-4,1.483637E-1,1.5232858E-2,-6.1166678E-3,1.0387636E-2],"categories":[],"categories_nodes":[],"categories_segments":[],"categories_sizes":[],"default_left":[0,0,0,0,0,0,0,0,0],"id":37,"left_children":[1,3,5,-1,-1,7,-1,-1,-1],"loss_changes":[4.8670918E1,8.688889E0,1.3316166E1,0E0,0E0,9.585894E0,0E0,0E0,0E0],"parents":[2147483647,0,0,1,1,2,2,5,5],"right_children":[2,4,6,-1,-1,8,-1,-1,-1],"split_conditions":[4E0,4.734219E0,6.722408E-1,-1.189946E-2,-2.0817608E-4,7E0,1.5232858E-2,-6.1166678E-3,1.0387636E-2],"split_indices":[2,12,11,0,0,12,0,0,0],"split_type":[0,0,0,0,0,0,0,0,0],"sum_hessian":[5.8030533E1,2.9391195E1,2.8639336E1,2.027403E1,9.117166E0,1.2226105E1,1.641323E1,6.7648144E0,5.46129E0],"tree_param":{"num_deleted":"0","num_feature":"13","num_nodes":"9","size_leaf_vector":"1"}},{"base_weights":[2.4703998E-2,-8.457397E-1,9.2402893E-1,-1.0876653E0,-7.0360623E-4,2.0239179E-1,1.4806637E-2,-1.2006932E-2,-6.541257E-3,-6.701247E-3,1.2141782E-2],"categories":[],"categories_nodes":[],"categories_segments":[],"categories_sizes":[],"default_left":[0,0,0,0,0,0,0,0,0,0,0],"id":38,"left_children":[1,3,5,7,-1,9,-1,-1,-1,-1,-1],"loss_changes":[4.592894E1,5.518997E0,1.1286629E1,3.2530022E-1,0E0,1.2924535E1,0E0,0E0,0E0,0E0,0E0],"parents":[2147483647,0,0,1,1,2,2,3,3,5,5],"right_children":[2,4,6,8,-1,10,-1,-1,-1,-1,-1],"split_conditions":[4E0,7E0,6.722408E-1,1E0,-7.0360623E-4,7E0,1.4806637E-2,-1.2006932E-2,-6.541257E-3,-6.701247E-3,1.2141782E-2],"split_indices":[2,12,11,11,0,12,0,0,0,0,0],"split_type":[0,0,0,0,0,0,0,0,0,0,0],"sum_hessian":[5.667345E1,2.8829435E1,2.7844013E1,2.1666523E1,7.1629124E0,1.2718712E1,1.5125302E1,1.5782389E1,5.884135E0,7.0106993E0,5.7080126E0],"tree_param":{"num_deleted":"0","num_feature":"13","num_nodes":"11","size_leaf_vector":"1"}},{"base_weights":[-3.6893524E-2,-7.504526E-1,7.877712E-1,-1.0456928E0,2.0079105E-3,-6.8072906E-5,1.2222669E0,-1.1735555E-2,-6.2569794E-3,8.026637E-3,1.4606295E-2],"categories":[],"categories_nodes":[],"categories_segments":[],"categories_sizes":[],"default_left":[0,0,0,0,0,0,0,0,0,0,0],"id":39,"left_children":[1,3,5,7,-1,-1,9,-1,-1,-1,-1],"loss_changes":[3.445221E1,9.017782E0,9.392393E0,5.5962753E-1,0E0,0E0,5.856991E-1,0E0,0E0,0E0,0E0],"parents":[2147483647,0,0,1,1,2,2,3,3,6,6],"right_children":[2,4,6,8,-1,-1,10,-1,-1,-1,-1],"split_conditions":[6E0,1.4E0,4E0,4E0,2.0079105E-3,-6.8072906E-5,2.34E2,-1.1735555E-2,-6.2569794E-3,8.026637E-3,1.4606295E-2],"split_indices":[12,9,2,2,0,0,4,0,0,0,0],"split_type":[0,0,0,0,0,0,0,0,0,0,0],"sum_hessian":[5.654303E1,3.0361807E1,2.6181223E1,2.3094585E1,7.2672224E0,9.603421E0,1.65778E1,1.6329145E1,6.7654405E0,7.5878654E0,8.989936E0],"tree_param":{"num_deleted":"0","num_feature":"13","num_nodes":"11","size_leaf_vector":"1"}},{"base_weights":[3.5166826E-2,-7.657986E-1,8.7019354E-1,-1.1786126E0,-1.114685E-1,1.2985818E-1,1.3850387E-2,-1.3744985E-2,-7.877473E-3,-3.148594E-3,5.594971E-4,-2.8794233E-3,4.714009E-3],"categories":[],"categories_nodes":[],"categories_segments":[],"categories_sizes":[],"default_left":[0,0,0,0,0,0,0,0,0,0,0,0,0],"id":40,"left_children":[1,3,5,7,9,11,-1,-1,-1,-1,-1,-1,-1],"loss_changes":[4.0417076E1,8.206392E0,1.1089493E1,3.5835838E-1,4.6182144E-1,2.0237224E0,0E0,0E0,0E0,0E0,0E0,0E0,0E0],"parents":[2147483647,0,0,1,1,2,2,3,3,4,4,5,5],"right_children":[2,4,6,8,10,12,-1,-1,-1,-1,-1,-1,-1],"split_conditions":[4E0,2E0,6.722408E-1,1.34E2,1.26E2,2E0,1.3850387E-2,-1.3744985E-2,-7.877473E-3,-3.148594E-3,5.594971E-4,-2.8794233E-3,4.714009E-3],"split_indices":[2,10,11,3,3,10,0,0,0,0,0,0,0],"split_type":[0,0,0,0,0,0,0,0,0,0,0,0,0],"sum_hessian":[5.843338E1,2.9867296E1,2.8566084E1,1.7822136E1,1.2045159E1,1.2230761E1,1.6335323E1,1.0195841E1,7.626296E0,5.040701E0,7.004458E0,5.571825E0,6.658936E0],"tree_param":{"num_deleted":"0","num_feature":"13","num_nodes":"13","size_leaf_vector":"1"}},{"base_weights":[-4.4454155E-3,-7.910464E-1,8.767059E-1,-1.0854803E0,-1.2681145E-3,-2.448091E-4,1.2651235E0,-1.3433777E-2,-8.085109E-3,8.28036E-3,1.5027772E-2],"categories":[],"categories_nodes":[],"categories_segments":[],"categories_sizes":[],"default_left":[0,0,0,0,0,0,0,0,0,0,0],"id":41,"left_children":[1,3,5,7,-1,-1,9,-1,-1,-1,-1],"loss_changes":[4.0983456E1,5.9716396E0,9.793842E0,4.50428E-1,0E0,0E0,7.8219795E-1,0E0,0E0,0E0,0E0],"parents":[2147483647,0,0,1,1,2,2,3,3,6,6],"right_children":[2,4,6,8,-1,-1,10,-1,-1,-1,-1],"split_conditions":[6E0,5.9E1,7E-1,1E0,-1.2681145E-3,-2.448091E-4,1E0,-1.3433777E-2,-8.085109E-3,8.28036E-3,1.5027772E-2],"split_indices":[12,0,9,1,0,0,8,0,0,0,0],"split_type":[0,0,0,0,0,0,0,0,0,0,0],"sum_hessian":[5.7128838E1,3.0237856E1,2.689098E1,2.051156E1,9.726296E0,8.3815365E0,1.8509443E1,8.627693E0,1.1883867E1,8.0987015E0,1.0410742E1],"tree_param":{"num_deleted":"0","num_feature":"13","num_nodes":"11","size_leaf_vector":"1"}},{"base_weights":[-5.182568E-2,-6.706383E-1,6.3810825E-1,-9.42412E-1,-3.4587644E-4,-1.2173765E-2,1.2054646E0,-1.2183451E-2,-5.1875913E-4,5.0892667E-3,-4.1083144E-3,7.577383E-3,1.3842928E-2],"categories":[],"categories_nodes":[],"categories_segments":[],"categories_sizes":[],"default_left":[0,0,0,0,0,0,0,0,0,0,0,0,0],"id":42,"left_children":[1,3,5,7,-1,9,11,-1,-1,-1,-1,-1,-1],"loss_changes":[2.5866724E1,5.481448E0,1.0597929E1,5.4192543E0,0E0,3.1913943E0,1.784401E-1,0E0,0E0,0E0,0E0,0E0,0E0],"parents":[2147483647,0,0,1,1,2,2,3,3,5,5,6,6],"right_children":[2,4,6,8,-1,10,12,-1,-1,-1,-1,-1,-1],"split_conditions":[9E-1,1E0,6.722408E-1,1.4E2,-3.4587644E-4,1.43E2,1E0,-1.2183451E-2,-5.1875913E-4,5.0892667E-3,-4.1083144E-3,7.577383E-3,1.3842928E-2],"split_indices":[9,11,11,3,0,7,6,0,0,0,0,0,0],"split_type":[0,0,0,0,0,0,0,0,0,0,0,0,0],"sum_hessian":[5.8584E1,3.089856E1,2.768544E1,2.1311049E1,9.587511E0,1.3355931E1,1.432951E1,1.5988805E1,5.3222437E0,5.6690726E0,7.6868587E0,5.5846496E0,8.744861E0],"tree_param":{"num_deleted":"0","num_feature":"13","num_nodes":"13","size_leaf_vector":"1"}},{"base_weights":[3.8740568E-2,-7.522536E-1,8.9686227E-1,-1.1204777E-2,-4.957233E-2,4.3404323E-1,1.2684837E-2,-4.52806E-3,3.9344192E-3,2.0585412E-3,6.6486113E-3],"categories":[],"categories_nodes":[],"categories_segments":[],"categories_sizes":[],"default_left":[0,0,0,0,0,0,0,0,0,0,0],"id":43,"left_children":[1,3,5,-1,7,9,-1,-1,-1,-1,-1],"loss_changes":[4.0485886E1,7.981985E0,4.366455E0,0E0,2.2731001E0,6.1379814E-1,0E0,0E0,0E0,0E0,0E0],"parents":[2147483647,0,0,1,1,2,2,4,4,5,5],"right_children":[2,4,6,-1,8,10,-1,-1,-1,-1,-1],"split_conditions":[4.734219E0,5.9E1,1E0,-1.1204777E-2,1E0,2.41E2,1.2684837E-2,-4.52806E-3,3.9344192E-3,2.0585412E-3,6.6486113E-3],"split_indices":[12,0,8,0,1,4,0,0,0,0,0],"split_type":[0,0,0,0,0,0,0,0,0,0,0],"sum_hessian":[5.765207E1,3.0063599E1,2.7588469E1,1.9336283E1,1.0727316E1,1.32521515E1,1.4336317E1,5.6042233E0,5.1230927E0,7.615365E0,5.6367865E0],"tree_param":{"num_deleted":"0","num_feature":"13","num_nodes":"11","size_leaf_vector":"1"}},{"base_weights":[6.94412E-2,-5.0115484E-1,8.8687146E-1,2.1895011E-1,-8.5628027E-1,1.6191875E-3,1.31816035E-2,6.3607255E-3,-2.4315119E-3,-1.0510064E-2,-1.1089026E-3],"categories":[],"categories_nodes":[],"categories_segments":[],"categories_sizes":[],"default_left":[0,0,0,0,0,0,0,0,0,0,0],"id":44,"left_children":[1,3,5,7,9,-1,-1,-1,-1,-1,-1],"loss_changes":[2.7923264E1,9.22344E0,7.4717484E0,2.55762E0,3.3477879E0,0E0,0E0,0E0,0E0,0E0,0E0],"parents":[2147483647,0,0,1,1,2,2,3,3,4,4],"right_children":[2,4,6,8,10,-1,-1,-1,-1,-1,-1],"split_conditions":[1E0,1.48E2,2E0,5.7E1,5.8E1,1.6191875E-3,1.31816035E-2,6.3607255E-3,-2.4315119E-3,-1.0510064E-2,-1.1089026E-3],"split_indices":[11,7,10,0,0,0,0,0,0,0,0],"split_type":[0,0,0,0,0,0,0,0,0,0,0],"sum_hessian":[5.7913982E1,3.4334305E1,2.3579678E1,1.1466527E1,2.2867775E1,9.308488E0,1.427119E1,5.828694E0,5.6378336E0,1.7806091E1,5.0616846E0],"tree_param":{"num_deleted":"0","num_feature":"13","num_nodes":"11","size_leaf_vector":"1"}},{"base_weights":[4.3455034E-2,-7.4139196E-1,8.699629E-1,-1.0571978E0,-5.729838E-4,-2.7941724E-2,1.4032348E-2,-1.2302126E-2,-6.188593E-3,5.8112005E-3,-5.7944357E-3],"categories":[],"categories_nodes":[],"categories_segments":[],"categories_sizes":[],"default_left":[0,0,0,0,0,0,0,0,0,0,0],"id":45,"left_children":[1,3,5,7,-1,9,-1,-1,-1,-1,-1],"loss_changes":[3.914093E1,6.6322575E0,1.4100147E1,8.4173393E-1,0E0,4.3414216E0,0E0,0E0,0E0,0E0,0E0],"parents":[2147483647,0,0,1,1,2,2,3,3,5,5],"right_children":[2,4,6,8,-1,10,-1,-1,-1,-1,-1],"split_conditions":[4E0,4.734219E0,4.734219E0,5.7E1,-5.729838E-4,1.45E2,1.4032348E-2,-1.2302126E-2,-6.188593E-3,5.8112005E-3,-5.7944357E-3],"split_indices":[2,12,12,0,0,7,0,0,0,0,0],"split_type":[0,0,0,0,0,0,0,0,0,0,0],"sum_hessian":[5.8344852E1,2.9979488E1,2.8365364E1,2.0137695E1,9.841793E0,1.092233E1,1.7443033E1,1.3143389E1,6.994307E0,5.164789E0,5.75754E0],"tree_param":{"num_deleted":"0","num_feature":"13","num_nodes":"11","size_leaf_vector":"1"}},{"base_weights":[2.9067625E-3,-4.657758E-1,8.5824966E-1,-1.012323E0,-1.3747126E-1,1.2494292E0,-3.216156E-4,-1.330946E-2,-6.032337E-3,2.2342354E-3,-7.98547E-3,6.5618563E-3,1.5447715E-2],"categories":[],"categories_nodes":[],"categories_segments":[],"categories_sizes":[],"default_left":[0,0,0,0,0,0,0,0,0,0,0,0,0],"id":46,"left_children":[1,3,5,7,9,11,-1,-1,-1,-1,-1,-1,-1],"loss_changes":[2.3649977E1,6.7000456E0,7.3135605E0,1.0410461E0,6.1355047E0,1.5327034E0,0E0,0E0,0E0,0E0,0E0,0E0,0E0],"parents":[2147483647,0,0,1,1,2,2,3,3,4,4,5,5],"right_children":[2,4,6,8,10,12,-1,-1,-1,-1,-1,-1,-1],"split_conditions":[1E0,1E0,1.47E2,5.7E1,1.69E2,2.44E2,-3.216156E-4,-1.330946E-2,-6.032337E-3,2.2342354E-3,-7.98547E-3,6.5618563E-3,1.5447715E-2],"split_indices":[8,1,7,0,7,4,0,0,0,0,0,0,0],"split_type":[0,0,0,0,0,0,0,0,0,0,0,0,0],"sum_hessian":[5.699735E1,3.7115482E1,1.9881866E1,1.3146413E1,2.396907E1,1.3533195E1,6.348671E0,6.123574E0,7.0228386E0,1.5932968E1,8.036103E0,5.5689077E0,7.9642863E0],"tree_param":{"num_deleted":"0","num_feature":"13","num_nodes":"13","size_leaf_vector":"1"}},{"base_weights":[3.1370774E-2,-7.5559825E-1,8.722509E-1,-1.0546514E0,-7.915803E-5,1.6879264E-1,1.4362082E-2,-1.2581554E-2,-5.6193867E-3,-4.584307E-3,7.7904128E-3],"categories":[],"categories_nodes":[],"categories_segments":[],"categories_sizes":[],"default_left":[0,0,0,0,0,0,0,0,0,0,0],"id":47,"left_children":[1,3,5,7,-1,9,-1,-1,-1,-1,-1],"loss_changes":[4.0748356E1,7.1086254E0,1.1560612E1,1.5719337E0,0E0,5.858043E0,0E0,0E0,0E0,0E0,0E0],"parents":[2147483647,0,0,1,1,2,2,3,3,5,5],"right_children":[2,4,6,8,-1,10,-1,-1,-1,-1,-1],"split_conditions":[4E0,1E0,6.722408E-1,5.7E1,-7.915803E-5,1E0,1.4362082E-2,-1.2581554E-2,-5.6193867E-3,-4.584307E-3,7.7904128E-3],"split_indices":[2,11,11,0,0,8,0,0,0,0,0],"split_type":[0,0,0,0,0,0,0,0,0,0,0],"sum_hessian":[5.958102E1,3.0829502E1,2.8751518E1,2.1728228E1,9.101274E0,1.3371603E1,1.5379914E1,1.4277635E1,7.450593E0,6.716775E0,6.654828E0],"tree_param":{"num_deleted":"0","num_feature":"13","num_nodes":"11","size_leaf_vector":"1"}},{"base_weights":[2.2906363E-3,-6.366794E-1,8.9553607E-1,-9.5465064E-1,3.4610715E-3,6.591494E-4,1.3763539E-2,-6.741544E-3,-1.0975735E-2],"categories":[],"categories_nodes":[],"categories_segments":[],"categories_sizes":[],"default_left":[0,0,0,0,0,0,0,0,0],"id":48,"left_children":[1,3,5,7,-1,-1,-1,-1,-1],"loss_changes":[3.4480606E1,1.1336864E1,9.958357E0,3.3755302E-1,0E0,0E0,0E0,0E0,0E0],"parents":[2147483647,0,0,1,1,2,2,3,3],"right_children":[2,4,6,8,-1,-1,-1,-1,-1],"split_conditions":[1E0,1E0,2E0,4.9E1,3.4610715E-3,6.591494E-4,1.3763539E-2,-6.741544E-3,-1.0975735E-2],"split_indices":[11,8,10,0,0,0,0,0,0],"split_type":[0,0,0,0,0,0,0,0,0],"sum_hessian":[5.8413082E1,3.4220894E1,2.4192186E1,2.5877201E1,8.343693E0,9.2936535E0,1.4898533E1,1.0664424E1,1.5212777E1],"tree_param":{"num_deleted":"0","num_feature":"13","num_nodes":"9","size_leaf_vector":"1"}},{"base_weights":[-8.544059E-2,-6.3535553E-1,7.2277117E-1,-1.02161E0,4.65758E-3,7.919458E-2,1.1774457E-2,-1.1049608E-2,-5.9232283E-3,1.8184928E-3,-3.7224157E-4],"categories":[],"categories_nodes":[],"categories_segments":[],"categories_sizes":[],"default_left":[0,0,0,0,0,0,0,0,0,0,0],"id":49,"left_children":[1,3,5,7,-1,9,-1,-1,-1,-1,-1],"loss_changes":[2.701525E1,1.5824991E1,7.1230793E0,3.1269646E-1,0E0,1.4159769E-1,0E0,0E0,0E0,0E0,0E0],"parents":[2147483647,0,0,1,1,2,2,3,3,5,5],"right_children":[2,4,6,8,-1,10,-1,-1,-1,-1,-1],"split_conditions":[1E0,1E0,9E-1,2.73E2,4.65758E-3,2.45E2,1.1774457E-2,-1.1049608E-2,-5.9232283E-3,1.8184928E-3,-3.7224157E-4],"split_indices":[11,8,9,4,0,4,0,0,0,0,0],"split_type":[0,0,0,0,0,0,0,0,0,0,0],"sum_hessian":[5.8750633E1,3.5089367E1,2.3661263E1,2.6030466E1,9.058903E0,1.028184E1,1.3379423E1,2.0480087E1,5.5503793E0,5.165247E0,5.116594E0],"tree_param":{"num_deleted":"0","num_feature":"13","num_nodes":"11","size_leaf_vector":"1"}},{"base_weights":[1.0207385E-1,-5.725747E-1,8.66378E-1,-1.0321381E0,1.16115406E-1,8.666481E-4,1.1484249E0,-4.2482805E-3,-1.2640448E-2,4.551007E-3,-3.2673064E-3,1.3721689E-2,4.60284E-3],"categories":[],"categories_nodes":[],"categories_segments":[],"categories_sizes":[],"default_left":[0,0,0,0,0,0,0,0,0,0,0,0,0],"id":50,"left_children":[1,3,5,7,9,-1,11,-1,-1,-1,-1,-1,-1],"loss_changes":[3.012581E1,9.970316E0,5.9127483E0,2.106285E0,2.1535785E0,0E0,2.4469948E0,0E0,0E0,0E0,0E0,0E0,0E0],"parents":[2147483647,0,0,1,1,2,2,3,3,4,4,6,6],"right_children":[2,4,6,8,10,-1,12,-1,-1,-1,-1,-1,-1],"split_conditions":[4.734219E0,5.7E1,6E-1,1.59E2,6.4E1,8.666481E-4,1.48E2,-4.2482805E-3,-1.2640448E-2,4.551007E-3,-3.2673064E-3,1.3721689E-2,4.60284E-3],"split_indices":[12,0,9,7,0,0,7,0,0,0,0,0,0],"split_type":[0,0,0,0,0,0,0,0,0,0,0,0,0],"sum_hessian":[5.646245E1,3.0123446E1,2.6339003E1,1.776809E1,1.2355356E1,7.3439813E0,1.8995022E1,5.6925387E0,1.207555E1,6.982664E0,5.372692E0,1.3584195E1,5.410826E0],"tree_param":{"num_deleted":"0","num_feature":"13","num_nodes":"13","size_leaf_vector":"1"}},{"base_weights":[-4.030589E-2,-6.352428E-1,7.9193926E-1,-8.46511E-1,5.0816596E-3,-4.1689462E-4,1.2854585E-2,-1.012338E-2,-2.4798725E-4],"categories":[],"categories_nodes":[],"categories_segments":[],"categories_sizes":[],"default_left":[0,0,0,0,0,0,0,0,0],"id":51,"left_children":[1,3,5,7,-1,-1,-1,-1,-1],"loss_changes":[2.9853817E1,8.914559E0,1.0403066E1,4.0654926E0,0E0,0E0,0E0,0E0,0E0],"parents":[2147483647,0,0,1,1,2,2,3,3],"right_children":[2,4,6,8,-1,-1,-1,-1,-1],"split_conditions":[1E0,1.8E0,4E0,1.42E2,5.0816596E-3,-4.1689462E-4,1.2854585E-2,-1.012338E-2,-2.4798725E-4],"split_indices":[11,9,2,3,0,0,0,0,0],"split_type":[0,0,0,0,0,0,0,0,0],"sum_hessian":[5.8278458E1,3.4122463E1,2.4155994E1,2.902007E1,5.1023927E0,9.32321E0,1.4832786E1,2.3954006E1,5.066064E0],"tree_param":{"num_deleted":"0","num_feature":"13","num_nodes":"9","size_leaf_vector":"1"}},{"base_weights":[5.4908298E-2,-6.68421E-1,9.0728843E-1,-1.0235778E-2,-1.6243303E-1,2.8669524E-1,1.3392496E-2,-4.7246492E-3,2.68963E-3,-3.0926582E-3,7.5034103E-3],"categories":[],"categories_nodes":[],"categories_segments":[],"categories_sizes":[],"default_left":[0,0,0,0,0,0,0,0,0,0,0],"id":52,"left_children":[1,3,5,-1,7,9,-1,-1,-1,-1,-1],"loss_changes":[3.5637814E1,5.460595E0,6.7217274E0,0E0,2.0132084E0,3.5894215E0,0E0,0E0,0E0,0E0,0E0],"parents":[2147483647,0,0,1,1,2,2,4,4,5,5],"right_children":[2,4,6,-1,8,10,-1,-1,-1,-1,-1],"split_conditions":[4E0,2E0,6.722408E-1,-1.0235778E-2,1.3E0,2E0,1.3392496E-2,-4.7246492E-3,2.68963E-3,-3.0926582E-3,7.5034103E-3],"split_indices":[2,10,11,0,9,10,0,0,0,0,0],"split_type":[0,0,0,0,0,0,0,0,0,0,0],"sum_hessian":[5.581823E1,3.0311625E1,2.5506607E1,1.7209332E1,1.3102293E1,1.1150513E1,1.4356094E1,7.56811E0,5.534183E0,5.0247583E0,6.125755E0],"tree_param":{"num_deleted":"0","num_feature":"13","num_nodes":"11","size_leaf_vector":"1"}},{"base_weights":[1.26444455E-2,-7.213096E-1,8.54585E-1,-1.0605062E0,1.0534043E-3,2.0133515E-1,1.3628789E-2,-1.2010517E-2,-5.427433E-3,-5.058316E-3,8.0945995E-3],"categories":[],"categories_nodes":[],"categories_segments":[],"categories_sizes":[],"default_left":[0,0,0,0,0,0,0,0,0,0,0],"id":53,"left_children":[1,3,5,7,-1,9,-1,-1,-1,-1,-1],"loss_changes":[3.7323933E1,9.162584E0,9.063885E0,1.0202141E0,0E0,6.206608E0,0E0,0E0,0E0,0E0,0E0],"parents":[2147483647,0,0,1,1,2,2,3,3,5,5],"right_children":[2,4,6,8,-1,10,-1,-1,-1,-1,-1],"split_conditions":[4.734219E0,1E0,1E0,4E0,1.0534043E-3,7E-1,1.3628789E-2,-1.2010517E-2,-5.427433E-3,-5.058316E-3,8.0945995E-3],"split_indices":[12,11,11,2,0,9,0,0,0,0,0],"split_type":[0,0,0,0,0,0,0,0,0,0,0],"sum_hessian":[5.8402496E1,3.1278778E1,2.7123716E1,2.1977802E1,9.300977E0,1.24803295E1,1.4643386E1,1.6247705E1,5.730096E0,5.8480506E0,6.6322794E0],"tree_param":{"num_deleted":"0","num_feature":"13","num_nodes":"11","size_leaf_vector":"1"}},{"base_weights":[-8.5741654E-2,-6.454184E-1,6.4727E-1,-9.4961065E-1,2.6498662E-2,7.107962E-2,1.1924382E0,-5.2201496E-3,-1.2905235E-2,2.8650775E-3,-2.3959002E-3,-4.939031E-3,8.099364E-3,1.4151808E-2,6.9135022E-3],"categories":[],"categories_nodes":[],"categories_segments":[],"categories_sizes":[],"default_left":[0,0,0,0,0,0,0,0,0,0,0,0,0,0,0],"id":54,"left_children":[1,3,5,7,9,11,13,-1,-1,-1,-1,-1,-1,-1,-1],"loss_changes":[2.5095804E1,7.0992823E0,8.253006E0,2.8032665E0,8.821826E-1,6.2307763E0,5.368099E-1,0E0,0E0,0E0,0E0,0E0,0E0,0E0,0E0],"parents":[2147483647,0,0,1,1,2,2,3,3,4,4,5,5,6,6],"right_children":[2,4,6,8,10,12,14,-1,-1,-1,-1,-1,-1,-1,-1],"split_conditions":[4.734219E0,1E0,1E0,1.62E2,1.54E2,1E0,1.46E2,-5.2201496E-3,-1.2905235E-2,2.8650775E-3,-2.3959002E-3,-4.939031E-3,8.099364E-3,1.4151808E-2,6.9135022E-3],"split_indices":[12,11,11,7,7,8,7,0,0,0,0,0,0,0,0],"split_type":[0,0,0,0,0,0,0,0,0,0,0,0,0,0,0],"sum_hessian":[5.915374E1,3.3610554E1,2.5543184E1,2.2851755E1,1.07588E1,1.2967823E1,1.2575361E1,1.1259973E1,1.1591783E1,5.402752E0,5.3560476E0,7.5364475E0,5.4313755E0,7.4427223E0,5.132639E0],"tree_param":{"num_deleted":"0","num_feature":"13","num_nodes":"15","size_leaf_vector":"1"}},{"base_weights":[-1.9805446E-2,-6.196614E-1,7.291078E-1,-1.0909201E0,3.0532274E-1,-1.0810224E-3,1.1274489E0,-1.2717075E-2,-6.264909E-3,9.358339E-3,-3.2492408E-3,1.3533915E-2,4.741172E-3],"categories":[],"categories_nodes":[],"categories_segments":[],"categories_sizes":[],"default_left":[0,0,0,0,0,0,0,0,0,0,0,0,0],"id":55,"left_children":[1,3,5,7,9,-1,11,-1,-1,-1,-1,-1,-1],"loss_changes":[2.6342842E1,1.4518222E1,8.823203E0,1.0317421E0,4.97913E0,0E0,1.9810143E0,0E0,0E0,0E0,0E0,0E0,0E0],"parents":[2147483647,0,0,1,1,2,2,3,3,4,4,6,6],"right_children":[2,4,6,8,10,-1,12,-1,-1,-1,-1,-1,-1],"split_conditions":[1E0,7E0,6E-1,1E0,1.47E2,-1.0810224E-3,1.46E2,-1.2717075E-2,-6.264909E-3,9.358339E-3,-3.2492408E-3,1.3533915E-2,4.741172E-3],"split_indices":[11,12,9,9,7,0,7,0,0,0,0,0,0],"split_type":[0,0,0,0,0,0,0,0,0,0,0,0,0],"sum_hessian":[5.663298E1,3.1541676E1,2.5091305E1,2.077691E1,1.0764765E1,8.324331E0,1.6766973E1,1.3704118E1,7.0727935E0,5.13887E0,5.6258945E0,1.1662271E1,5.104703E0],"tree_param":{"num_deleted":"0","num_feature":"13","num_nodes":"13","size_leaf_vector":"1"}},{"base_weights":[4.9155552E-2,-6.520575E-1,8.44311E-1,-9.808132E-1,8.30316E-4,2.3725957E-1,1.3479154E-2,-1.1792682E-2,-3.1707117E-3,9.105455E-3,-4.0406166E-3],"categories":[],"categories_nodes":[],"categories_segments":[],"categories_sizes":[],"default_left":[0,0,0,0,0,0,0,0,0,0,0],"id":56,"left_children":[1,3,5,7,-1,9,-1,-1,-1,-1,-1],"loss_changes":[3.3445515E1,7.7940445E0,8.265303E0,2.5411358E0,0E0,6.3900924E0,0E0,0E0,0E0,0E0,0E0],"parents":[2147483647,0,0,1,1,2,2,3,3,5,5],"right_children":[2,4,6,8,-1,10,-1,-1,-1,-1,-1],"split_conditions":[6E0,1E0,1E0,5.9E1,8.30316E-4,5.2E1,1.3479154E-2,-1.1792682E-2,-3.1707117E-3,9.105455E-3,-4.0406166E-3],"split_indices":[12,11,11,0,0,0,0,0,0,0,0],"split_type":[0,0,0,0,0,0,0,0,0,0,0],"sum_hessian":[5.7996666E1,3.0914486E1,2.7082182E1,2.1130129E1,9.784356E0,1.29469185E1,1.4135263E1,1.5668609E1,5.4615207E0,6.1112623E0,6.835656E0],"tree_param":{"num_deleted":"0","num_feature":"13","num_nodes":"11","size_leaf_vector":"1"}},{"base_weights":[7.26396E-2,-7.1477336E-1,9.269608E-1,-1.2599981E-2,-3.7044948E-1,7.855468E-4,1.3443939E-2,-8.101961E-3,3.0432101E-3],"categories":[],"categories_nodes":[],"categories_segments":[],"categories_sizes":[],"default_left":[0,0,0,0,0,0,0,0,0],"id":57,"left_children":[1,3,5,-1,7,-1,-1,-1,-1],"loss_changes":[3.867746E1,5.159896E0,9.647457E0,0E0,6.117812E0,0E0,0E0,0E0,0E0],"parents":[2147483647,0,0,1,1,2,2,4,4],"right_children":[2,4,6,-1,8,-1,-1,-1,-1],"split_conditions":[4E0,1E0,7E-1,-1.2599981E-2,5.7E1,7.855468E-4,1.3443939E-2,-8.101961E-3,3.0432101E-3],"split_indices":[2,1,9,0,0,0,0,0,0],"split_type":[0,0,0,0,0,0,0,0,0],"sum_hessian":[5.551061E1,2.897146E1,2.6539146E1,1.0184817E1,1.8786644E1,9.143583E0,1.7395563E1,1.1252629E1,7.5340147E0],"tree_param":{"num_deleted":"0","num_feature":"13","num_nodes":"9","size_leaf_vector":"1"}},{"base_weights":[-5.594299E-2,-4.9793515E-1,8.1069154E-1,-9.285385E-3,2.4800773E-1,3.3034144E-3,1.2792277E-2,-3.3557601E-3,8.071373E-3],"categories":[],"categories_nodes":[],"categories_segments":[],"categories_sizes":[],"default_left":[0,0,0,0,0,0,0,0,0],"id":58,"left_children":[1,3,5,-1,7,-1,-1,-1,-1],"loss_changes":[2.1816326E1,1.2320402E1,3.9123793E0,0E0,5.0233936E0,0E0,0E0,0E0,0E0],"parents":[2147483647,0,0,1,1,2,2,4,4],"right_children":[2,4,6,-1,8,-1,-1,-1,-1],"split_conditions":[1E0,1E0,1.6E0,-9.285385E-3,2E0,3.3034144E-3,1.2792277E-2,-3.3557601E-3,8.071373E-3],"split_indices":[8,11,9,0,10,0,0,0,0],"split_type":[0,0,0,0,0,0,0,0,0],"sum_hessian":[5.490105E1,3.663982E1,1.8261232E1,2.307484E1,1.3564979E1,9.858848E0,8.402384E0,6.8329782E0,6.732001E0],"tree_param":{"num_deleted":"0","num_feature":"13","num_nodes":"9","size_leaf_vector":"1"}},{"base_weights":[5.4811325E-2,-7.063725E-1,8.715861E-1,-1.0868453E-2,-4.48117E-1,2.4575306E-1,1.2219387E0,-6.1075664E-3,-2.1463941E-4,5.5977167E-4,3.9094584E-3,7.0936345E-3,1.40286125E-2],"categories":[],"categories_nodes":[],"categories_segments":[],"categories_sizes":[],"default_left":[0,0,0,0,0,0,0,0,0,0,0,0,0],"id":59,"left_children":[1,3,5,-1,7,9,11,-1,-1,-1,-1,-1,-1],"loss_changes":[3.6430557E1,2.4971323E0,5.8908367E0,0E0,1.3602962E0,2.918387E-1,6.602497E-1,0E0,0E0,0E0,0E0,0E0,0E0],"parents":[2147483647,0,0,1,1,2,2,4,4,5,5,6,6],"right_children":[2,4,6,-1,8,10,12,-1,-1,-1,-1,-1,-1],"split_conditions":[4E0,2.23E2,7E-1,-1.0868453E-2,1.2E0,2.48E2,1E0,-6.1075664E-3,-2.1463941E-4,5.5977167E-4,3.9094584E-3,7.0936345E-3,1.40286125E-2],"split_indices":[2,4,9,0,9,4,8,0,0,0,0,0,0],"split_type":[0,0,0,0,0,0,0,0,0,0,0,0,0],"sum_hessian":[5.660654E1,2.937035E1,2.7236189E1,1.0577992E1,1.8792356E1,1.0385706E1,1.6850483E1,1.3293416E1,5.4989414E0,5.1022663E0,5.2834396E0,5.679782E0,1.1170701E1],"tree_param":{"num_deleted":"0","num_feature":"13","num_nodes":"13","size_leaf_vector":"1"}},{"base_weights":[-3.551936E-2,-7.426928E-1,7.2563213E-1,-1.0225327E-2,-1.015554E-3,1.3717829E-1,1.2125663E0,7.3843184E-3,-2.7776456E-3,6.287166E-3,1.439419E-2],"categories":[],"categories_nodes":[],"categories_segments":[],"categories_sizes":[],"default_left":[0,0,0,0,0,0,0,0,0,0,0],"id":60,"left_children":[1,3,5,-1,-1,7,9,-1,-1,-1,-1],"loss_changes":[3.213426E1,5.444107E0,8.079106E0,0E0,0E0,3.737162E0,1.1636829E0,0E0,0E0,0E0,0E0],"parents":[2147483647,0,0,1,1,2,2,5,5,6,6],"right_children":[2,4,6,-1,-1,8,10,-1,-1,-1,-1],"split_conditions":[4E0,6E0,7E0,-1.0225327E-2,-1.015554E-3,1.37E2,1E0,7.3843184E-3,-2.7776456E-3,6.287166E-3,1.439419E-2],"split_indices":[2,12,12,0,0,7,9,0,0,0,0],"split_type":[0,0,0,0,0,0,0,0,0,0,0],"sum_hessian":[5.7698357E1,2.9922293E1,2.7776062E1,2.0416254E1,9.506038E0,1.3157322E1,1.4618741E1,5.0541873E0,8.103134E0,5.1459956E0,9.472746E0],"tree_param":{"num_deleted":"0","num_feature":"13","num_nodes":"11","size_leaf_vector":"1"}},{"base_weights":[4.2149745E-2,-6.440861E-1,7.9746175E-1,-9.5292556E-1,6.952265E-4,7.5846225E-2,1.3466521E-2,-1.2129353E-2,-5.4900413E-3,-4.785816E-3,7.2417757E-3],"categories":[],"categories_nodes":[],"categories_segments":[],"categories_sizes":[],"default_left":[0,0,0,0,0,0,0,0,0,0,0],"id":61,"left_children":[1,3,5,7,-1,9,-1,-1,-1,-1,-1],"loss_changes":[3.1424473E1,7.07471E0,1.1325748E1,1.6721954E0,0E0,5.2069154E0,0E0,0E0,0E0,0E0,0E0],"parents":[2147483647,0,0,1,1,2,2,3,3,5,5],"right_children":[2,4,6,8,-1,10,-1,-1,-1,-1,-1],"split_conditions":[4E0,1E0,6.722408E-1,2E0,6.952265E-4,1E0,1.3466521E-2,-1.2129353E-2,-5.4900413E-3,-4.785816E-3,7.2417757E-3],"split_indices":[2,11,11,10,0,8,0,0,0,0,0],"split_type":[0,0,0,0,0,0,0,0,0,0,0],"sum_hessian":[5.8636333E1,3.0800192E1,2.783614E1,2.1262663E1,9.53753E0,1.2521484E1,1.5314655E1,1.1717224E1,9.54544E0,6.890673E0,5.630811E0],"tree_param":{"num_deleted":"0","num_feature":"13","num_nodes":"11","size_leaf_vector":"1"}},{"base_weights":[-3.4267534E-2,-7.1014714E-1,7.66886E-1,1.3735645E-3,-1.025939E-2,2.0812894E-3,1.0643535E0,1.377374E-2,4.2738793E-3],"categories":[],"categories_nodes":[],"categories_segments":[],"categories_sizes":[],"default_left":[0,0,0,0,0,0,0,0,0],"id":62,"left_children":[1,3,5,-1,-1,-1,7,-1,-1],"loss_changes":[3.233685E1,8.803106E0,4.323967E0,0E0,0E0,0E0,2.9211617E0,0E0,0E0],"parents":[2147483647,0,0,1,1,2,2,6,6],"right_children":[2,4,6,-1,-1,-1,8,-1,-1],"split_conditions":[4.734219E0,1.48E2,7E-1,1.3735645E-3,-1.025939E-2,2.0812894E-3,1.45E2,1.377374E-2,4.2738793E-3],"split_indices":[12,7,9,0,0,0,7,0,0],"split_type":[0,0,0,0,0,0,0,0,0],"sum_hessian":[5.7713245E1,3.13657E1,2.6347546E1,8.668019E0,2.269768E1,9.744096E0,1.660345E1,1.0353222E1,6.2502284E0],"tree_param":{"num_deleted":"0","num_feature":"13","num_nodes":"9","size_leaf_vector":"1"}},{"base_weights":[-4.180183E-3,-4.5695165E-1,8.8825E-1,-8.1050307E-1,1.6090162E-2,4.179766E-3,1.2883173E-2,-1.289871E-2,-5.0431457E-3,4.1709486E-3,-5.5607734E-3],"categories":[],"categories_nodes":[],"categories_segments":[],"categories_sizes":[],"default_left":[0,0,0,0,0,0,0,0,0,0,0],"id":63,"left_children":[1,3,5,7,9,-1,-1,-1,-1,-1,-1],"loss_changes":[2.3797134E1,6.5464916E0,3.1912785E0,2.6337318E0,4.290664E0,0E0,0E0,0E0,0E0,0E0,0E0],"parents":[2147483647,0,0,1,1,2,2,3,3,4,4],"right_children":[2,4,6,8,10,-1,-1,-1,-1,-1,-1],"split_conditions":[1E0,5.7E1,1.6E0,1E0,6.3E1,4.179766E-3,1.2883173E-2,-1.289871E-2,-5.0431457E-3,4.1709486E-3,-5.5607734E-3],"split_indices":[8,0,9,1,0,0,0,0,0,0,0],"split_type":[0,0,0,0,0,0,0,0,0,0,0],"sum_hessian":[5.6889538E1,3.8065235E1,1.88243E1,2.1375673E1,1.6689564E1,9.592831E0,9.23147E0,7.0794435E0,1.4296229E1,9.97182E0,6.7177434E0],"tree_param":{"num_deleted":"0","num_feature":"13","num_nodes":"11","size_leaf_vector":"1"}},{"base_weights":[3.1489577E-5,-6.6694605E-1,7.321789E-1,-9.6941876E-1,4.091094E-4,-7.784839E-2,1.2012707E-2,-4.455586E-3,-1.187472E-2,-3.926579E-3,2.5465323E-3],"categories":[],"categories_nodes":[],"categories_segments":[],"categories_sizes":[],"default_left":[0,0,0,0,0,0,0,0,0,0,0],"id":64,"left_children":[1,3,5,7,-1,9,-1,-1,-1,-1,-1],"loss_changes":[2.8972675E1,6.6870794E0,1.0840606E1,1.9602795E0,0E0,1.2840255E0,0E0,0E0,0E0,0E0,0E0],"parents":[2147483647,0,0,1,1,2,2,3,3,5,5],"right_children":[2,4,6,8,-1,10,-1,-1,-1,-1,-1],"split_conditions":[4E0,1E0,7E-1,1.53E2,4.091094E-4,5.4E1,1.2012707E-2,-4.455586E-3,-1.187472E-2,-3.926579E-3,2.5465323E-3],"split_indices":[2,11,9,7,0,0,0,0,0,0,0],"split_type":[0,0,0,0,0,0,0,0,0,0,0],"sum_hessian":[5.733062E1,3.0047115E1,2.7283506E1,2.0792715E1,9.254399E0,1.0311559E1,1.6971947E1,7.0055776E0,1.3787138E1,5.203763E0,5.1077957E0],"tree_param":{"num_deleted":"0","num_feature":"13","num_nodes":"11","size_leaf_vector":"1"}},{"base_weights":[5.2413642E-2,-6.577455E-1,8.34448E-1,-9.290485E-1,3.2398105E-3,2.870176E-1,1.2502253E-2,-1.1948135E-2,-4.0469435E-3,-3.575065E-3,1.0281328E-2],"categories":[],"categories_nodes":[],"categories_segments":[],"categories_sizes":[],"default_left":[0,0,0,0,0,0,0,0,0,0,0],"id":65,"left_children":[1,3,5,7,-1,9,-1,-1,-1,-1,-1],"loss_changes":[3.1977173E1,8.349179E0,5.871483E0,2.8516655E0,0E0,6.6315584E0,0E0,0E0,0E0,0E0,0E0],"parents":[2147483647,0,0,1,1,2,2,3,3,5,5],"right_children":[2,4,6,8,-1,10,-1,-1,-1,-1,-1],"split_conditions":[4.734219E0,1E0,1E0,5.7E1,3.2398105E-3,1E0,1.2502253E-2,-1.1948135E-2,-4.0469435E-3,-3.575065E-3,1.0281328E-2],"split_indices":[12,8,11,0,0,8,0,0,0,0,0],"split_type":[0,0,0,0,0,0,0,0,0,0,0],"sum_hessian":[5.5589996E1,2.9217108E1,2.637289E1,2.2933128E1,6.283979E0,1.2113738E1,1.4259152E1,1.43707695E1,8.562358E0,6.755931E0,5.357807E0],"tree_param":{"num_deleted":"0","num_feature":"13","num_nodes":"11","size_leaf_vector":"1"}},{"base_weights":[1.1587574E-2,-6.2341547E-1,7.2857517E-1,-1.020788E0,1.8738332E-3,2.0110305E-1,1.1796079E-2,-1.2783881E-2,-4.7287066E-3,7.829049E-3,-2.4213127E-3],"categories":[],"categories_nodes":[],"categories_segments":[],"categories_sizes":[],"default_left":[0,0,0,0,0,0,0,0,0,0,0],"id":66,"left_children":[1,3,5,7,-1,9,-1,-1,-1,-1,-1],"loss_changes":[2.705379E1,1.0347333E1,6.400732E0,2.4031734E0,0E0,3.8169417E0,0E0,0E0,0E0,0E0,0E0],"parents":[2147483647,0,0,1,1,2,2,3,3,5,5],"right_children":[2,4,6,8,-1,10,-1,-1,-1,-1,-1],"split_conditions":[4.734219E0,1E0,1E0,5.5E1,1.8738332E-3,5.2E1,1.1796079E-2,-1.2783881E-2,-4.7287066E-3,7.829049E-3,-2.4213127E-3],"split_indices":[12,11,11,0,0,0,0,0,0,0,0],"split_type":[0,0,0,0,0,0,0,0,0,0,0],"sum_hessian":[5.7423477E1,3.0522024E1,2.6901451E1,2.0309399E1,1.0212626E1,1.3066436E1,1.3835016E1,1.2907727E1,7.401671E0,5.3186636E0,7.7477727E0],"tree_param":{"num_deleted":"0","num_feature":"13","num_nodes":"11","size_leaf_vector":"1"}},{"base_weights":[-2.3549667E-3,-6.5599954E-1,6.620119E-1,-1.2118601E-2,-3.1015128E-1,8.238259E-2,1.0814034E-2,-7.7143065E-3,2.311938E-3,-3.9243125E-3,4.5604142E-3],"categories":[],"categories_nodes":[],"categories_segments":[],"categories_sizes":[],"default_left":[0,0,0,0,0,0,0,0,0,0,0],"id":67,"left_children":[1,3,5,-1,7,9,-1,-1,-1,-1,-1],"loss_changes":[2.579617E1,5.380125E0,7.0727453E0,0E0,5.1229434E0,2.565323E0,0E0,0E0,0E0,0E0,0E0],"parents":[2147483647,0,0,1,1,2,2,4,4,5,5],"right_children":[2,4,6,-1,8,10,-1,-1,-1,-1,-1],"split_conditions":[4E0,1E0,1E0,-1.2118601E-2,2E0,1E0,1.0814034E-2,-7.7143065E-3,2.311938E-3,-3.9243125E-3,4.5604142E-3],"split_indices":[2,1,8,0,10,6,0,0,0,0,0],"split_type":[0,0,0,0,0,0,0,0,0,0,0],"sum_hessian":[5.7402573E1,2.8941126E1,2.8461447E1,1.0139888E1,1.8801237E1,1.2450457E1,1.601099E1,9.921832E0,8.879405E0,5.460931E0,6.989526E0],"tree_param":{"num_deleted":"0","num_feature":"13","num_nodes":"11","size_leaf_vector":"1"}},{"base_weights":[3.4573663E-2,-5.9429497E-1,9.0907764E-1,-8.6036193E-1,2.1438177E-3,1.9886077E-3,1.2615684E-2,-1.0403044E-2,-3.5081739E-3],"categories":[],"categories_nodes":[],"categories_segments":[],"categories_sizes":[],"default_left":[0,0,0,0,0,0,0,0,0],"id":68,"left_children":[1,3,5,7,-1,-1,-1,-1,-1],"loss_changes":[3.2069942E1,7.4901648E0,5.8519382E0,1.9958496E0,0E0,0E0,0E0,0E0,0E0],"parents":[2147483647,0,0,1,1,2,2,3,3],"right_children":[2,4,6,8,-1,-1,-1,-1,-1],"split_conditions":[1E0,1E0,4E0,1.4E2,2.1438177E-3,1.9886077E-3,1.2615684E-2,-1.0403044E-2,-3.5081739E-3],"split_indices":[11,8,2,3,0,0,0,0,0],"split_type":[0,0,0,0,0,0,0,0,0],"sum_hessian":[5.63321E1,3.2954475E1,2.3377626E1,2.474807E1,8.206406E0,8.27297E0,1.5104656E1,1.7519526E1,7.228544E0],"tree_param":{"num_deleted":"0","num_feature":"13","num_nodes":"9","size_leaf_vector":"1"}},{"base_weights":[-5.3285945E-2,-6.371757E-1,6.483956E-1,-9.631825E-1,8.14178E-2,-1.0024245E-3,1.0275998E0,-1.2302207E-2,-3.6753262E-3,-2.0398677E-3,3.5405268E-3,6.3794856E-3,1.25600165E-2],"categories":[],"categories_nodes":[],"categories_segments":[],"categories_sizes":[],"default_left":[0,0,0,0,0,0,0,0,0,0,0,0,0],"id":69,"left_children":[1,3,5,7,9,-1,11,-1,-1,-1,-1,-1,-1],"loss_changes":[2.477361E1,7.7992907E0,7.9101677E0,3.166483E0,9.443096E-1,0E0,8.312473E-1,0E0,0E0,0E0,0E0,0E0,0E0],"parents":[2147483647,0,0,1,1,2,2,3,3,4,4,6,6],"right_children":[2,4,6,8,10,-1,12,-1,-1,-1,-1,-1,-1],"split_conditions":[4.734219E0,1E0,7E-1,5.8E1,6E-1,-1.0024245E-3,1E0,-1.2302207E-2,-3.6753262E-3,-2.0398677E-3,3.5405268E-3,6.3794856E-3,1.25600165E-2],"split_indices":[12,11,9,0,9,0,8,0,0,0,0,0,0],"split_type":[0,0,0,0,0,0,0,0,0,0,0,0,0],"sum_hessian":[5.8458607E1,3.1957645E1,2.6500961E1,2.1749912E1,1.0207731E1,9.15752E0,1.7343441E1,1.4281828E1,7.468085E0,5.1100903E0,5.0976415E0,7.8110175E0,9.532423E0],"tree_param":{"num_deleted":"0","num_feature":"13","num_nodes":"13","size_leaf_vector":"1"}},{"base_weights":[-9.986069E-2,-7.528344E-1,6.6191816E-1,-1.1981969E-2,-4.4759443E-1,-9.36164E-4,1.1177787E0,-1.5918704E-3,-9.160795E-3,6.8822247E-3,1.282672E-2],"categories":[],"categories_nodes":[],"categories_segments":[],"categories_sizes":[],"default_left":[0,0,0,0,0,0,0,0,0,0,0],"id":70,"left_children":[1,3,5,-1,7,-1,9,-1,-1,-1,-1],"loss_changes":[2.732666E1,3.475256E0,8.861669E0,0E0,2.4355838E0,0E0,2.4592209E-1,0E0,0E0,0E0,0E0],"parents":[2147483647,0,0,1,1,2,2,4,4,6,6],"right_children":[2,4,6,-1,8,-1,10,-1,-1,-1,-1],"split_conditions":[4E0,1E0,4.734219E0,-1.1981969E-2,1.69E2,-9.36164E-4,6.722408E-1,-1.5918704E-3,-9.160795E-3,6.8822247E-3,1.282672E-2],"split_indices":[2,1,12,0,7,0,11,0,0,0,0],"split_type":[0,0,0,0,0,0,0,0,0,0,0],"sum_hessian":[5.2934826E1,2.850928E1,2.4425547E1,1.0403927E1,1.8105354E1,9.490617E0,1.493493E1,1.2035739E1,6.0696144E0,5.5779114E0,9.357018E0],"tree_param":{"num_deleted":"0","num_feature":"13","num_nodes":"11","size_leaf_vector":"1"}},{"base_weights":[-8.445637E-2,-7.4942064E-1,6.240442E-1,-9.679304E-1,-2.2905022E-3,-6.1285436E-2,1.1918646E-2,-5.235887E-3,-1.3120585E-2,5.5978084E-3,-5.415148E-3],"categories":[],"categories_nodes":[],"categories_segments":[],"categories_sizes":[],"default_left":[0,0,0,0,0,0,0,0,0,0,0],"id":71,"left_children":[1,3,5,7,-1,9,-1,-1,-1,-1,-1],"loss_changes":[2.764693E1,3.2137604E0,1.1154399E1,2.5193253E0,0E0,4.435169E0,0E0,0E0,0E0,0E0,0E0],"parents":[2147483647,0,0,1,1,2,2,3,3,5,5],"right_children":[2,4,6,8,-1,10,-1,-1,-1,-1,-1],"split_conditions":[4E0,1E0,6.722408E-1,1.61E2,-2.2905022E-3,1.47E2,1.1918646E-2,-5.235887E-3,-1.3120585E-2,5.5978084E-3,-5.415148E-3],"split_indices":[2,11,11,7,0,7,0,0,0,0,0],"split_type":[0,0,0,0,0,0,0,0,0,0,0],"sum_hessian":[5.668981E1,2.9213593E1,2.747622E1,1.9968504E1,9.2450905E0,1.2854081E1,1.4622137E1,9.815774E0,1.0152729E1,5.532898E0,7.3211837E0],"tree_param":{"num_deleted":"0","num_feature":"13","num_nodes":"11","size_leaf_vector":"1"}},{"base_weights":[-4.6439484E-2,-6.5628684E-1,6.824281E-1,-1.018965E0,-2.151135E-1,2.608281E-1,1.0980139E-2,-3.6632728E-3,-1.2824303E-2,-5.236843E-3,1.5909589E-3,-3.5735078E-3,8.581521E-3],"categories":[],"categories_nodes":[],"categories_segments":[],"categories_sizes":[],"default_left":[0,0,0,0,0,0,0,0,0,0,0,0,0],"id":72,"left_children":[1,3,5,7,9,11,-1,-1,-1,-1,-1,-1,-1],"loss_changes":[2.5476202E1,4.7675343E0,4.293745E0,2.4253254E0,1.8533647E0,5.582552E0,0E0,0E0,0E0,0E0,0E0,0E0,0E0],"parents":[2147483647,0,0,1,1,2,2,3,3,4,4,5,5],"right_children":[2,4,6,8,10,12,-1,-1,-1,-1,-1,-1,-1],"split_conditions":[4.734219E0,5.5E1,2.41E2,1.2E2,2E0,1E0,1.0980139E-2,-3.6632728E-3,-1.2824303E-2,-5.236843E-3,1.5909589E-3,-3.5735078E-3,8.581521E-3],"split_indices":[12,0,4,3,10,11,0,0,0,0,0,0,0],"split_type":[0,0,0,0,0,0,0,0,0,0,0,0,0],"sum_hessian":[5.530697E1,3.0166271E1,2.51407E1,1.5837207E1,1.4329065E1,1.3288007E1,1.1852692E1,5.2421465E0,1.059506E1,7.634369E0,6.694696E0,6.727436E0,6.5605707E0],"tree_param":{"num_deleted":"0","num_feature":"13","num_nodes":"13","size_leaf_vector":"1"}},{"base_weights":[-6.47828E-2,-7.261355E-1,7.4334484E-1,-1.053079E0,-1.6995019E-1,-5.5107514E-5,1.0320387E0,-6.1259735E-3,-1.2975071E-2,-6.898267E-3,4.085628E-3,1.1888493E-2,5.1063322E-3],"categories":[],"categories_nodes":[],"categories_segments":[],"categories_sizes":[],"default_left":[0,0,0,0,0,0,0,0,0,0,0,0,0],"id":73,"left_children":[1,3,5,7,9,-1,11,-1,-1,-1,-1,-1,-1],"loss_changes":[3.0430983E1,5.5059376E0,5.554229E0,1.304285E0,4.1213846E0,0E0,9.07917E-1,0E0,0E0,0E0,0E0,0E0,0E0],"parents":[2147483647,0,0,1,1,2,2,3,3,4,4,6,6],"right_children":[2,4,6,8,10,-1,12,-1,-1,-1,-1,-1,-1],"split_conditions":[4.734219E0,2E0,2E0,1.26E2,1.4E0,-5.5107514E-5,1.48E2,-6.1259735E-3,-1.2975071E-2,-6.898267E-3,4.085628E-3,1.1888493E-2,5.1063322E-3],"split_indices":[12,10,10,3,9,0,7,0,0,0,0,0,0],"split_type":[0,0,0,0,0,0,0,0,0,0,0,0,0],"sum_hessian":[5.4928158E1,3.0263048E1,2.4665108E1,1.84967E1,1.1766348E1,7.135898E0,1.752921E1,7.8523326E0,1.0644368E1,6.0958986E0,5.6704493E0,1.2492157E1,5.037052E0],"tree_param":{"num_deleted":"0","num_feature":"13","num_nodes":"13","size_leaf_vector":"1"}},{"base_weights":[3.6628157E-2,-6.254142E-1,7.3725224E-1,-1.1162205E-2,-2.4089424E-1,6.306481E-4,1.1140865E0,-9.466179E-3,2.6406937E-3,7.183527E-3,1.398643E-2],"categories":[],"categories_nodes":[],"categories_segments":[],"categories_sizes":[],"default_left":[0,0,0,0,0,0,0,0,0,0,0],"id":74,"left_children":[1,3,5,-1,7,-1,9,-1,-1,-1,-1],"loss_changes":[2.5626484E1,5.097721E0,6.7430334E0,0E0,6.386474E0,0E0,9.256916E-1,0E0,0E0,0E0,0E0],"parents":[2147483647,0,0,1,1,2,2,4,4,6,6],"right_children":[2,4,6,-1,8,-1,10,-1,-1,-1,-1],"split_conditions":[4E0,2.28E2,4.734219E0,-1.1162205E-2,1E0,6.306481E-4,2.35E2,-9.466179E-3,2.6406937E-3,7.183527E-3,1.398643E-2],"split_indices":[2,4,12,0,1,0,4,0,0,0,0],"split_type":[0,0,0,0,0,0,0,0,0,0,0],"sum_hessian":[5.325415E1,2.7436172E1,2.581798E1,1.1216453E1,1.6219719E1,9.675346E0,1.6142633E1,6.4002604E0,9.819459E0,8.226488E0,7.916145E0],"tree_param":{"num_deleted":"0","num_feature":"13","num_nodes":"11","size_leaf_vector":"1"}},{"base_weights":[1.4474914E-2,-5.19864E-1,7.432546E-1,-8.3491725E-1,3.509874E-3,-1.3118351E-3,1.0556822E0,-9.9858595E-3,-3.8604962E-3,6.9086123E-3,1.2497834E-2],"categories":[],"categories_nodes":[],"categories_segments":[],"categories_sizes":[],"default_left":[0,0,0,0,0,0,0,0,0,0,0],"id":75,"left_children":[1,3,5,7,-1,-1,9,-1,-1,-1,-1],"loss_changes":[2.2552061E1,9.46497E0,6.8293076E0,1.4397163E0,0E0,0E0,4.2212105E-1,0E0,0E0,0E0,0E0],"parents":[2147483647,0,0,1,1,2,2,3,3,6,6],"right_children":[2,4,6,8,-1,-1,10,-1,-1,-1,-1],"split_conditions":[1E0,1E0,1E0,2.61E2,3.509874E-3,-1.3118351E-3,1E0,-9.9858595E-3,-3.8604962E-3,6.9086123E-3,1.2497834E-2],"split_indices":[11,8,1,4,0,0,6,0,0,0,0],"split_type":[0,0,0,0,0,0,0,0,0,0,0],"sum_hessian":[5.592038E1,3.24297E1,2.3490685E1,2.3844566E1,8.585131E0,6.336336E0,1.7154346E1,1.6575891E1,7.268675E0,7.540662E0,9.613686E0],"tree_param":{"num_deleted":"0","num_feature":"13","num_nodes":"11","size_leaf_vector":"1"}},{"base_weights":[2.327167E-2,-6.614215E-1,7.09827E-1,-1.0441E0,-1.3571943E-1,1.0039966E-1,1.0809506E0,-1.1943815E-2,-6.853658E-3,-4.899447E-3,3.5620378E-3,-3.051063E-3,4.6646157E-3,5.1797433E-3,1.3663952E-2],"categories":[],"categories_nodes":[],"categories_segments":[],"categories_sizes":[],"default_left":[0,0,0,0,0,0,0,0,0,0,0,0,0,0,0],"id":76,"left_children":[1,3,5,7,9,11,13,-1,-1,-1,-1,-1,-1,-1,-1],"loss_changes":[2.8202414E1,5.904769E0,6.6631775E0,1.11091614E-1,2.5811424E0,1.988082E0,2.2661304E0,0E0,0E0,0E0,0E0,0E0,0E0,0E0,0E0],"parents":[2147483647,0,0,1,1,2,2,3,3,4,4,5,5,6,6],"right_children":[2,4,6,8,10,12,14,-1,-1,-1,-1,-1,-1,-1,-1],"split_conditions":[4E0,2E0,7E-1,1E0,7E0,1E0,7E0,-1.1943815E-2,-6.853658E-3,-4.899447E-3,3.5620378E-3,-3.051063E-3,4.6646157E-3,5.1797433E-3,1.3663952E-2],"split_indices":[2,10,9,6,12,6,12,0,0,0,0,0,0,0,0],"split_type":[0,0,0,0,0,0,0,0,0,0,0,0,0,0,0],"sum_hessian":[5.79962E1,2.905581E1,2.8940392E1,1.6244623E1,1.2811188E1,1.1434372E1,1.7506018E1,9.806878E0,6.4377446E0,7.4503465E0,5.3608413E0,5.5039144E0,5.930458E0,6.8367214E0,1.0669297E1],"tree_param":{"num_deleted":"0","num_feature":"13","num_nodes":"15","size_leaf_vector":"1"}},{"base_weights":[-3.0207422E-2,-6.746088E-1,6.6854817E-1,-1.0016068E0,-1.724723E-1,5.7322998E-2,1.1071138E0,-1.1541564E-2,-6.5195593E-3,-5.336771E-3,2.9704927E-3,-2.85135E-3,3.5258885E-3,4.1812826E-3,1.3831072E-2],"categories":[],"categories_nodes":[],"categories_segments":[],"categories_sizes":[],"default_left":[0,0,0,0,0,0,0,0,0,0,0,0,0,0,0],"id":77,"left_children":[1,3,5,7,9,11,13,-1,-1,-1,-1,-1,-1,-1,-1],"loss_changes":[2.6626959E1,4.8747463E0,7.5474653E0,2.2944832E-1,2.4194703E0,1.4065458E0,2.5547676E0,0E0,0E0,0E0,0E0,0E0,0E0,0E0,0E0],"parents":[2147483647,0,0,1,1,2,2,3,3,4,4,5,5,6,6],"right_children":[2,4,6,8,10,12,14,-1,-1,-1,-1,-1,-1,-1,-1],"split_conditions":[4E0,5.7E1,7E-1,6E-1,2.46E2,1E0,7E0,-1.1541564E-2,-6.5195593E-3,-5.336771E-3,2.9704927E-3,-2.85135E-3,3.5258885E-3,4.1812826E-3,1.3831072E-2],"split_indices":[2,0,9,9,4,6,12,0,0,0,0,0,0,0,0],"split_type":[0,0,0,0,0,0,0,0,0,0,0,0,0,0,0],"sum_hessian":[5.713273E1,2.974035E1,2.7392378E1,1.740881E1,1.233154E1,1.1915941E1,1.5476437E1,1.0518709E1,6.890102E0,6.8924847E0,5.4390554E0,5.5329614E0,6.3829794E0,5.1457233E0,1.0330713E1],"tree_param":{"num_deleted":"0","num_feature":"13","num_nodes":"15","size_leaf_vector":"1"}},{"base_weights":[1.8817136E-2,-6.110067E-1,7.115794E-1,-9.2955416E-1,3.827909E-4,-1.2741212E-3,1.070719E0,-6.283598E-3,-1.0958837E-2,4.8971013E-3,1.3096687E-2],"categories":[],"categories_nodes":[],"categories_segments":[],"categories_sizes":[],"default_left":[0,0,0,0,0,0,0,0,0,0,0],"id":78,"left_children":[1,3,5,7,-1,-1,9,-1,-1,-1,-1],"loss_changes":[2.458654E1,6.143609E0,8.218206E0,3.0590057E-1,0E0,0E0,1.9809284E0,0E0,0E0,0E0,0E0],"parents":[2147483647,0,0,1,1,2,2,3,3,6,6],"right_children":[2,4,6,8,-1,-1,10,-1,-1,-1,-1],"split_conditions":[4.734219E0,4E0,6E-1,3E0,3.827909E-4,-1.2741212E-3,4E0,-6.283598E-3,-1.0958837E-2,4.8971013E-3,1.3096687E-2],"split_indices":[12,2,9,2,0,0,2,0,0,0,0],"split_type":[0,0,0,0,0,0,0,0,0,0,0],"sum_hessian":[5.4353554E1,2.8531864E1,2.582169E1,1.8851454E1,9.680409E0,7.933456E0,1.7888233E1,8.406508E0,1.0444945E1,6.1015863E0,1.1786648E1],"tree_param":{"num_deleted":"0","num_feature":"13","num_nodes":"11","size_leaf_vector":"1"}},{"base_weights":[5.9445826E-3,6.310483E-1,-4.594538E-1,-1.5983647E-3,9.183537E-1,-8.275015E-1,1.0792097E-1,6.8301456E-3,1.2254028E-2,-1.1340863E-2,-6.0973107E-3,-2.090282E-3,4.6706144E-3],"categories":[],"categories_nodes":[],"categories_segments":[],"categories_sizes":[],"default_left":[0,0,0,0,0,0,0,0,0,0,0,0,0],"id":79,"left_children":[1,3,5,-1,7,9,11,-1,-1,-1,-1,-1,-1],"loss_changes":[1.6580624E1,5.6727457E0,6.9130335E0,0E0,4.627962E-1,6.395197E-1,1.6618435E0,0E0,0E0,0E0,0E0,0E0,0E0],"parents":[2147483647,0,0,1,1,2,2,4,4,5,5,6,6],"right_children":[2,4,6,-1,8,10,12,-1,-1,-1,-1,-1,-1],"split_conditions":[1.48E2,7E-1,5.7E1,-1.5983647E-3,2.4E0,1E0,2E0,6.8301456E-3,1.2254028E-2,-1.1340863E-2,-6.0973107E-3,-2.090282E-3,4.6706144E-3],"split_indices":[7,9,0,0,9,1,10,0,0,0,0,0,0],"split_type":[0,0,0,0,0,0,0,0,0,0,0,0,0],"sum_hessian":[5.4996693E1,2.3319279E1,3.1677416E1,6.3321133E0,1.6987164E1,1.8935658E1,1.2741757E1,1.1441911E1,5.5452538E0,6.116674E0,1.2818983E1,6.9904833E0,5.7512746E0],"tree_param":{"num_deleted":"0","num_feature":"13","num_nodes":"13","size_leaf_vector":"1"}},{"base_weights":[6.501019E-3,-3.9745355E-1,7.757062E-1,-8.212847E-1,2.7234432E-1,2.0549796E-3,9.7879696E-1,-1.1971778E-2,-5.325869E-3,-3.2788722E-3,7.404761E-3,5.5808597E-3,1.15746455E-2],"categories":[],"categories_nodes":[],"categories_segments":[],"categories_sizes":[],"default_left":[0,0,0,0,0,0,0,0,0,0,0,0,0],"id":80,"left_children":[1,3,5,7,9,-1,11,-1,-1,-1,-1,-1,-1],"loss_changes":[1.7903502E1,1.0951387E1,2.0960636E0,1.9010315E0,4.568907E0,0E0,4.3355083E-1,0E0,0E0,0E0,0E0,0E0,0E0],"parents":[2147483647,0,0,1,1,2,2,3,3,4,4,6,6],"right_children":[2,4,6,8,10,-1,12,-1,-1,-1,-1,-1,-1],"split_conditions":[1E0,1E0,1.22E2,1E0,1E0,2.0549796E-3,2.44E2,-1.1971778E-2,-5.325869E-3,-3.2788722E-3,7.404761E-3,5.5808597E-3,1.15746455E-2],"split_indices":[8,11,3,1,6,0,4,0,0,0,0,0,0],"split_type":[0,0,0,0,0,0,0,0,0,0,0,0,0],"sum_hessian":[5.562645E1,3.678945E1,1.8836998E1,2.2393343E1,1.4396109E1,5.4755144E0,1.3361485E1,8.360674E0,1.403267E1,6.4393086E0,7.9568005E0,5.212095E0,8.149389E0],"tree_param":{"num_deleted":"0","num_feature":"13","num_nodes":"13","size_leaf_vector":"1"}},{"base_weights":[1.2270783E-3,-6.1713773E-1,6.980734E-1,-9.712797E-1,1.4020132E-3,-6.7746907E-4,1.1149234E0,-1.1239377E-2,-4.301972E-3,5.94527E-3,1.3534175E-2],"categories":[],"categories_nodes":[],"categories_segments":[],"categories_sizes":[],"default_left":[0,0,0,0,0,0,0,0,0,0,0],"id":81,"left_children":[1,3,5,7,-1,-1,9,-1,-1,-1,-1],"loss_changes":[2.3681852E1,7.946315E0,8.324051E0,1.1658459E0,0E0,0E0,1.2790279E0,0E0,0E0,0E0,0E0],"parents":[2147483647,0,0,1,1,2,2,3,3,6,6],"right_children":[2,4,6,8,-1,-1,10,-1,-1,-1,-1],"split_conditions":[4E0,1E0,7E-1,7E0,1.4020132E-3,-6.7746907E-4,7E0,-1.1239377E-2,-4.301972E-3,5.94527E-3,1.3534175E-2],"split_indices":[2,11,9,12,0,0,12,0,0,0,0],"split_type":[0,0,0,0,0,0,0,0,0,0,0],"sum_hessian":[5.2958607E1,2.8119986E1,2.4838621E1,1.8967867E1,9.152121E0,9.04993E0,1.57886915E1,1.3953811E1,5.0140553E0,6.0595455E0,9.729146E0],"tree_param":{"num_deleted":"0","num_feature":"13","num_nodes":"11","size_leaf_vector":"1"}},{"base_weights":[-2.412508E-3,-5.532339E-1,5.741122E-1,-8.715666E-3,-1.540553E-1,-1.3791725E-1,1.0836722E-2,-5.1026256E-3,1.8236864E-3,-3.5794585E-3,8.3297334E-4],"categories":[],"categories_nodes":[],"categories_segments":[],"categories_sizes":[],"default_left":[0,0,0,0,0,0,0,0,0,0,0],"id":82,"left_children":[1,3,5,-1,7,9,-1,-1,-1,-1,-1],"loss_changes":[1.6792547E1,3.301793E0,9.524415E0,0E0,1.676278E0,5.976071E-1,0E0,0E0,0E0,0E0,0E0],"parents":[2147483647,0,0,1,1,2,2,4,4,5,5],"right_children":[2,4,6,-1,8,10,-1,-1,-1,-1,-1],"split_conditions":[8E-1,5.4E1,4E0,-8.715666E-3,1E0,1.6E0,1.0836722E-2,-5.1026256E-3,1.8236864E-3,-3.5794585E-3,8.3297334E-4],"split_indices":[9,0,2,0,6,9,0,0,0,0,0],"split_type":[0,0,0,0,0,0,0,0,0,0,0],"sum_hessian":[5.0879383E1,2.604037E1,2.4839012E1,1.382887E1,1.2211502E1,1.0665295E1,1.4173717E1,5.6803727E0,6.53113E0,5.037103E0,5.6281915E0],"tree_param":{"num_deleted":"0","num_feature":"13","num_nodes":"11","size_leaf_vector":"1"}},{"base_weights":[-2.515608E-2,-6.4608E-1,6.6130656E-1,-1.0344825E0,-4.422783E-2,-5.1007274E-4,1.1113879E-2,-1.2095215E-2,-5.729616E-3,-5.480627E-3,3.8145755E-3],"categories":[],"categories_nodes":[],"categories_segments":[],"categories_sizes":[],"default_left":[0,0,0,0,0,0,0,0,0,0,0],"id":83,"left_children":[1,3,5,7,9,-1,-1,-1,-1,-1,-1],"loss_changes":[2.3587082E1,6.7415504E0,8.488381E0,7.289715E-1,2.8756335E0,0E0,0E0,0E0,0E0,0E0,0E0],"parents":[2147483647,0,0,1,1,2,2,3,3,4,4],"right_children":[2,4,6,8,10,-1,-1,-1,-1,-1,-1],"split_conditions":[4E0,2E0,7E-1,1E0,1.2E0,-5.1007274E-4,1.1113879E-2,-1.2095215E-2,-5.729616E-3,-5.480627E-3,3.8145755E-3],"split_indices":[2,10,9,11,9,0,0,0,0,0,0],"split_type":[0,0,0,0,0,0,0,0,0,0,0],"sum_hessian":[5.3335037E1,2.8035236E1,2.5299799E1,1.6602232E1,1.1433004E1,1.0139445E1,1.5160354E1,1.086194E1,5.740292E0,5.10423E0,6.328774E0],"tree_param":{"num_deleted":"0","num_feature":"13","num_nodes":"11","size_leaf_vector":"1"}},{"base_weights":[7.062566E-2,-6.018795E-1,8.014624E-1,-9.277883E-1,1.1046516E-3,1.8098722E-1,1.1699052E0,-1.0865069E-2,-5.551683E-3,2.51309E-4,3.1095713E-3,6.7750625E-3,1.3427708E-2],"categories":[],"categories_nodes":[],"categories_segments":[],"categories_sizes":[],"default_left":[0,0,0,0,0,0,0,0,0,0,0,0,0],"id":84,"left_children":[1,3,5,7,-1,9,11,-1,-1,-1,-1,-1,-1],"loss_changes":[2.7833942E1,6.96344E0,5.9829807E0,6.022625E-1,0E0,2.2065446E-1,5.218468E-1,0E0,0E0,0E0,0E0,0E0,0E0],"parents":[2147483647,0,0,1,1,2,2,3,3,5,5,6,6],"right_children":[2,4,6,8,-1,10,12,-1,-1,-1,-1,-1,-1],"split_conditions":[4E0,6E0,7E-1,5.7E1,1.1046516E-3,5.5E1,7E0,-1.0865069E-2,-5.551683E-3,2.51309E-4,3.1095713E-3,6.7750625E-3,1.3427708E-2],"split_indices":[2,12,9,0,0,0,12,0,0,0,0,0,0],"split_type":[0,0,0,0,0,0,0,0,0,0,0,0,0],"sum_hessian":[5.465012E1,2.8552752E1,2.6097368E1,1.9382507E1,9.170244E0,1.0278726E1,1.5818642E1,1.2249105E1,7.133402E0,5.2165465E0,5.062179E0,5.38864E0,1.0430002E1],"tree_param":{"num_deleted":"0","num_feature":"13","num_nodes":"13","size_leaf_vector":"1"}},{"base_weights":[4.226279E-2,-4.247767E-1,7.235707E-1,-7.4244106E-1,4.1320412E-3,-4.238968E-3,1.1115676E0,-1.0773793E-2,-5.0797374E-3,5.3004907E-3,1.3212141E-2],"categories":[],"categories_nodes":[],"categories_segments":[],"categories_sizes":[],"default_left":[0,0,0,0,0,0,0,0,0,0,0],"id":85,"left_children":[1,3,5,7,-1,-1,9,-1,-1,-1,-1],"loss_changes":[1.821235E1,9.361401E0,1.0824746E1,1.4177752E0,0E0,0E0,1.4520626E0,0E0,0E0,0E0,0E0],"parents":[2147483647,0,0,1,1,2,2,3,3,6,6],"right_children":[2,4,6,8,-1,-1,10,-1,-1,-1,-1],"split_conditions":[1E0,1E0,1E0,1E0,4.1320412E-3,-4.238968E-3,5.5E1,-1.0773793E-2,-5.0797374E-3,5.3004907E-3,1.3212141E-2],"split_indices":[11,8,1,1,0,0,0,0,0,0,0],"split_type":[0,0,0,0,0,0,0,0,0,0,0],"sum_hessian":[5.5270027E1,3.3014782E1,2.2255247E1,2.4022333E1,8.992448E0,5.6003027E0,1.6654943E1,8.411474E0,1.561086E1,5.3482475E0,1.1306696E1],"tree_param":{"num_deleted":"0","num_feature":"13","num_nodes":"11","size_leaf_vector":"1"}},{"base_weights":[-4.9713254E-2,-6.9572943E-1,6.614448E-1,-1.1674553E-2,-3.7493283E-1,-8.5107196E-5,1.0371164E0,-7.258871E-3,1.060168E-3,4.1454453E-3,1.2977812E-2],"categories":[],"categories_nodes":[],"categories_segments":[],"categories_sizes":[],"default_left":[0,0,0,0,0,0,0,0,0,0,0],"id":86,"left_children":[1,3,5,-1,7,-1,9,-1,-1,-1,-1],"loss_changes":[2.4784267E1,3.8343687E0,6.4807653E0,0E0,3.1618786E0,0E0,2.137085E0,0E0,0E0,0E0,0E0],"parents":[2147483647,0,0,1,1,2,2,4,4,6,6],"right_children":[2,4,6,-1,8,-1,10,-1,-1,-1,-1],"split_conditions":[4E0,1E0,7E-1,-1.1674553E-2,2E0,-8.5107196E-5,1E0,-7.258871E-3,1.060168E-3,4.1454453E-3,1.2977812E-2],"split_indices":[2,1,9,0,10,0,8,0,0,0,0],"split_type":[0,0,0,0,0,0,0,0,0,0,0],"sum_hessian":[5.194524E1,2.7230627E1,2.4714615E1,9.9540825E0,1.7276545E1,9.2305765E0,1.5484038E1,9.69368E0,7.5828643E0,5.334191E0,1.0149848E1],"tree_param":{"num_deleted":"0","num_feature":"13","num_nodes":"11","size_leaf_vector":"1"}},{"base_weights":[-3.413873E-2,-6.658685E-1,6.788983E-1,-1.0465174E0,-1.817531E-1,7.119151E-4,9.5785457E-1,-5.8168652E-3,-1.2025221E-2,-5.7044346E-3,2.137487E-3,1.2151641E-2,4.466972E-3],"categories":[],"categories_nodes":[],"categories_segments":[],"categories_sizes":[],"default_left":[0,0,0,0,0,0,0,0,0,0,0,0,0],"id":87,"left_children":[1,3,5,7,9,-1,11,-1,-1,-1,-1,-1,-1],"loss_changes":[2.592186E1,5.4276743E0,4.5186977E0,5.2287865E-1,2.3708704E0,0E0,1.8857517E0,0E0,0E0,0E0,0E0,0E0,0E0],"parents":[2147483647,0,0,1,1,2,2,3,3,4,4,6,6],"right_children":[2,4,6,8,10,-1,12,-1,-1,-1,-1,-1,-1],"split_conditions":[4.734219E0,5.5E1,6E-1,1.54E2,1E0,7.119151E-4,1.45E2,-5.8168652E-3,-1.2025221E-2,-5.7044346E-3,2.137487E-3,1.2151641E-2,4.466972E-3],"split_indices":[12,0,9,7,6,0,7,0,0,0,0,0,0],"split_type":[0,0,0,0,0,0,0,0,0,0,0,0,0],"sum_hessian":[5.554343E1,2.9485922E1,2.6057508E1,1.5856561E1,1.3629361E1,8.592954E0,1.7464554E1,5.17269E0,1.0683871E1,6.6507874E0,6.978574E0,1.0700694E1,6.7638597E0],"tree_param":{"num_deleted":"0","num_feature":"13","num_nodes":"13","size_leaf_vector":"1"}},{"base_weights":[1.7150478E-2,-5.4286486E-1,7.946698E-1,-1.6744617E-1,-1.0177281E-2,5.9777865E-4,1.1808354E-2,-5.175813E-3,2.4935699E-3],"categories":[],"categories_nodes":[],"categories_segments":[],"categories_sizes":[],"default_left":[0,0,0,0,0,0,0,0,0],"id":88,"left_children":[1,3,5,7,-1,-1,-1,-1,-1],"loss_changes":[2.447498E1,5.6579075E0,6.6057453E0,2.968336E0,0E0,0E0,0E0,0E0,0E0],"parents":[2147483647,0,0,1,1,2,2,3,3],"right_children":[2,4,6,8,-1,-1,-1,-1,-1],"split_conditions":[1E0,1.62E2,4E0,2.37E2,-1.0177281E-2,5.9777865E-4,1.1808354E-2,-5.175813E-3,2.4935699E-3],"split_indices":[11,7,2,4,0,0,0,0,0],"split_type":[0,0,0,0,0,0,0,0,0],"sum_hessian":[5.4218933E1,3.1693329E1,2.2525606E1,1.8455416E1,1.3237913E1,8.1570835E0,1.4368524E1,9.898445E0,8.556971E0],"tree_param":{"num_deleted":"0","num_feature":"13","num_nodes":"9","size_leaf_vector":"1"}},{"base_weights":[-3.8554713E-2,-6.343304E-1,6.3159704E-1,2.4458763E-4,-9.4899E-1,1.2771209E-1,9.66866E-1,-1.2359517E-2,-7.176362E-3,-2.0476384E-3,4.2338814E-3,1.1692677E-2,4.8497114E-3],"categories":[],"categories_nodes":[],"categories_segments":[],"categories_sizes":[],"default_left":[0,0,0,0,0,0,0,0,0,0,0,0,0],"id":89,"left_children":[1,3,5,-1,7,9,11,-1,-1,-1,-1,-1,-1],"loss_changes":[2.2375769E1,6.166498E0,4.337139E0,0E0,4.462242E-1,1.2370083E0,9.645128E-1,0E0,0E0,0E0,0E0,0E0,0E0],"parents":[2147483647,0,0,1,1,2,2,4,4,5,5,6,6],"right_children":[2,4,6,-1,8,10,12,-1,-1,-1,-1,-1,-1],"split_conditions":[4E0,1.51E2,1E0,2.4458763E-4,1E0,5.9E1,1.44E2,-1.2359517E-2,-7.176362E-3,-2.0476384E-3,4.2338814E-3,1.1692677E-2,4.8497114E-3],"split_indices":[2,7,8,0,1,0,7,0,0,0,0,0,0],"split_type":[0,0,0,0,0,0,0,0,0,0,0,0,0],"sum_hessian":[5.4039623E1,2.8635582E1,2.5404041E1,9.554341E0,1.9081242E1,1.0701455E1,1.4702586E1,6.57885E0,1.2502391E1,5.1819887E0,5.5194664E0,9.349349E0,5.353237E0],"tree_param":{"num_deleted":"0","num_feature":"13","num_nodes":"13","size_leaf_vector":"1"}},{"base_weights":[-4.79066E-2,-5.3036165E-1,6.259253E-1,-8.1393284E-1,-2.1535498E-1,-1.097335E-3,1.1361388E-2,-1.1129207E-2,-4.101856E-3,-4.2899414E-3,2.3002787E-3],"categories":[],"categories_nodes":[],"categories_segments":[],"categories_sizes":[],"default_left":[0,0,0,0,0,0,0,0,0,0,0],"id":90,"left_children":[1,3,5,7,9,-1,-1,-1,-1,-1,-1],"loss_changes":[1.8465425E1,2.7766905E0,9.032413E0,1.5994568E0,1.7177238E0,0E0,0E0,0E0,0E0,0E0,0E0],"parents":[2147483647,0,0,1,1,2,2,3,3,4,4],"right_children":[2,4,6,8,10,-1,-1,-1,-1,-1,-1],"split_conditions":[1E0,2E0,2E0,2.41E2,1.4E2,-1.097335E-3,1.1361388E-2,-1.1129207E-2,-4.101856E-3,-4.2899414E-3,2.3002787E-3],"split_indices":[11,10,10,4,3,0,0,0,0,0,0],"split_type":[0,0,0,0,0,0,0,0,0,0,0],"sum_hessian":[5.4779186E1,3.2046917E1,2.273227E1,1.6031445E1,1.6015474E1,9.630834E0,1.3101435E1,8.201492E0,7.8299513E0,1.084851E1,5.166965E0],"tree_param":{"num_deleted":"0","num_feature":"13","num_nodes":"11","size_leaf_vector":"1"}},{"base_weights":[5.7198837E-2,-4.8886746E-1,9.0118957E-1,-8.224908E-1,1.9718364E-1,1.4400318E-3,1.2669313E-2,-1.0898635E-2,-2.994995E-3,-1.4353481E-3,4.8872307E-3],"categories":[],"categories_nodes":[],"categories_segments":[],"categories_sizes":[],"default_left":[0,0,0,0,0,0,0,0,0,0,0],"id":91,"left_children":[1,3,5,7,9,-1,-1,-1,-1,-1,-1],"loss_changes":[2.4473526E1,7.5573034E0,5.5879745E0,2.7403831E0,1.2003477E0,0E0,0E0,0E0,0E0,0E0,0E0],"parents":[2147483647,0,0,1,1,2,2,3,3,4,4],"right_children":[2,4,6,8,10,-1,-1,-1,-1,-1,-1],"split_conditions":[7E0,1E0,6E-1,5.8E1,6E-1,1.4400318E-3,1.2669313E-2,-1.0898635E-2,-2.994995E-3,-1.4353481E-3,4.8872307E-3],"split_indices":[12,11,9,0,9,0,0,0,0,0,0],"split_type":[0,0,0,0,0,0,0,0,0,0,0],"sum_hessian":[5.11464E1,3.130966E1,1.9836742E1,2.0931765E1,1.0377894E1,6.9148407E0,1.2921901E1,1.3133517E1,7.7982473E0,5.019424E0,5.358471E0],"tree_param":{"num_deleted":"0","num_feature":"13","num_nodes":"11","size_leaf_vector":"1"}},{"base_weights":[3.7242338E-2,-5.7931066E-1,7.4648976E-1,3.155982E-4,-8.382711E-1,3.117053E-1,1.1480153E-2,-1.057726E-2,-5.06951E-3,6.3781515E-3,1.7566587E-4],"categories":[],"categories_nodes":[],"categories_segments":[],"categories_sizes":[],"default_left":[0,0,0,0,0,0,0,0,0,0,0],"id":92,"left_children":[1,3,5,-1,7,9,-1,-1,-1,-1,-1],"loss_changes":[2.36857E1,4.6155787E0,4.0355673E0,0E0,9.4776154E-1,1.2794504E0,0E0,0E0,0E0,0E0,0E0],"parents":[2147483647,0,0,1,1,2,2,4,4,5,5],"right_children":[2,4,6,-1,8,10,-1,-1,-1,-1,-1],"split_conditions":[4.734219E0,1.48E2,2.41E2,3.155982E-4,1E0,1.46E2,1.1480153E-2,-1.057726E-2,-5.06951E-3,6.3781515E-3,1.7566587E-4],"split_indices":[12,7,4,0,6,7,0,0,0,0,0],"split_type":[0,0,0,0,0,0,0,0,0,0,0],"sum_hessian":[5.2175976E1,2.8009958E1,2.416602E1,8.600373E0,1.9409584E1,1.2455316E1,1.1710705E1,1.0357003E1,9.052581E0,5.352553E0,7.102762E0],"tree_param":{"num_deleted":"0","num_feature":"13","num_nodes":"11","size_leaf_vector":"1"}},{"base_weights":[1.1975336E-2,-5.321881E-1,4.7260374E-1,-1.0832212E-2,-2.217708E-1,9.372562E-1,-3.033679E-2,1.9457036E-3,-6.3021565E-3,5.1682643E-3,1.2018923E-2,-3.91196E-3,3.6478834E-3],"categories":[],"categories_nodes":[],"categories_segments":[],"categories_sizes":[],"default_left":[0,0,0,0,0,0,0,0,0,0,0,0,0],"id":93,"left_children":[1,3,5,-1,7,9,11,-1,-1,-1,-1,-1,-1],"loss_changes":[1.3308982E1,3.9250846E0,6.7451153E0,0E0,2.9852815E0,1.0444927E0,2.2487853E0,0E0,0E0,0E0,0E0,0E0,0E0],"parents":[2147483647,0,0,1,1,2,2,4,4,5,5,6,6],"right_children":[2,4,6,-1,8,10,12,-1,-1,-1,-1,-1,-1],"split_conditions":[2E0,1E0,1.43E2,-1.0832212E-2,1.65E2,2.35E2,2.44E2,1.9457036E-3,-6.3021565E-3,5.1682643E-3,1.2018923E-2,-3.91196E-3,3.6478834E-3],"split_indices":[10,1,7,0,7,4,4,0,0,0,0,0,0],"split_type":[0,0,0,0,0,0,0,0,0,0,0,0,0],"sum_hessian":[5.1092937E1,2.33514E1,2.7741535E1,7.51741E0,1.5833991E1,1.39707775E1,1.3770758E1,8.100509E0,7.733482E0,6.5375233E0,7.4332542E0,7.202665E0,6.568093E0],"tree_param":{"num_deleted":"0","num_feature":"13","num_nodes":"13","size_leaf_vector":"1"}},{"base_weights":[1.9578747E-2,-5.925047E-1,7.1412647E-1,-7.257697E-1,9.863812E-5,2.6923347E-1,1.0661227E-2,-8.859285E-3,-3.6215782E-3,-1.3776822E-3,6.114333E-3],"categories":[],"categories_nodes":[],"categories_segments":[],"categories_sizes":[],"default_left":[0,0,0,0,0,0,0,0,0,0,0],"id":94,"left_children":[1,3,5,7,-1,9,-1,-1,-1,-1,-1],"loss_changes":[2.4185492E1,2.436121E0,3.8843937E0,1.1228209E0,0E0,1.9092977E0,0E0,0E0,0E0,0E0,0E0],"parents":[2147483647,0,0,1,1,2,2,3,3,5,5],"right_children":[2,4,6,8,-1,10,-1,-1,-1,-1,-1],"split_conditions":[4E0,1.6E0,1E0,1.36E2,9.863812E-5,1E0,1.0661227E-2,-8.859285E-3,-3.6215782E-3,-1.3776822E-3,6.114333E-3],"split_indices":[2,9,8,3,0,6,0,0,0,0,0],"split_type":[0,0,0,0,0,0,0,0,0,0,0],"sum_hessian":[5.4895523E1,2.9258144E1,2.5637377E1,2.3790083E1,5.468061E0,1.2103928E1,1.3533449E1,1.5518317E1,8.271766E0,5.801368E0,6.30256E0],"tree_param":{"num_deleted":"0","num_feature":"13","num_nodes":"11","size_leaf_vector":"1"}},{"base_weights":[-8.581628E-2,-7.0752853E-1,5.427621E-1,-1.0233014E0,-2.0854995E-1,-1.1717761E-3,9.47971E-3,-1.1716712E-2,-6.6325944E-3,2.2346883E-3,-5.896829E-3],"categories":[],"categories_nodes":[],"categories_segments":[],"categories_sizes":[],"default_left":[0,0,0,0,0,0,0,0,0,0,0],"id":95,"left_children":[1,3,5,7,9,-1,-1,-1,-1,-1,-1],"loss_changes":[2.1447695E1,4.1246243E0,7.4295645E0,1.09926224E-1,2.0955513E0,0E0,0E0,0E0,0E0,0E0,0E0],"parents":[2147483647,0,0,1,1,2,2,3,3,4,4],"right_children":[2,4,6,8,10,-1,-1,-1,-1,-1,-1],"split_conditions":[4E0,5.7E1,7E-1,6E-1,6.3E1,-1.1717761E-3,9.47971E-3,-1.1716712E-2,-6.6325944E-3,2.2346883E-3,-5.896829E-3],"split_indices":[2,0,9,9,0,0,0,0,0,0,0],"split_type":[0,0,0,0,0,0,0,0,0,0,0],"sum_hessian":[5.2899567E1,2.653189E1,2.6367676E1,1.5605401E1,1.092649E1,1.030133E1,1.6066345E1,9.454872E0,6.150529E0,5.315256E0,5.611234E0],"tree_param":{"num_deleted":"0","num_feature":"13","num_nodes":"11","size_leaf_vector":"1"}},{"base_weights":[5.6508556E-2,-4.8182288E-1,7.7606446E-1,-6.949179E-1,1.7732148E-3,-8.5233746E-4,1.0706927E0,-1.0729727E-2,-4.0502134E-3,6.133376E-3,1.2218078E-2],"categories":[],"categories_nodes":[],"categories_segments":[],"categories_sizes":[],"default_left":[0,0,0,0,0,0,0,0,0,0,0],"id":96,"left_children":[1,3,5,7,-1,-1,9,-1,-1,-1,-1],"loss_changes":[2.1186285E1,4.526898E0,6.023488E0,2.1842995E0,0E0,0E0,4.5957375E-1,0E0,0E0,0E0,0E0],"parents":[2147483647,0,0,1,1,2,2,3,3,6,6],"right_children":[2,4,6,8,-1,-1,10,-1,-1,-1,-1],"split_conditions":[1E0,1E0,1E0,1E0,1.7732148E-3,-8.5233746E-4,4E0,-1.0729727E-2,-4.0502134E-3,6.133376E-3,1.2218078E-2],"split_indices":[11,8,1,1,0,0,2,0,0,0,0],"split_type":[0,0,0,0,0,0,0,0,0,0,0],"sum_hessian":[5.2728786E1,3.0351719E1,2.237707E1,2.289554E1,7.4561796E0,5.884726E0,1.6492344E1,8.764502E0,1.4131038E1,5.352268E0,1.1140075E1],"tree_param":{"num_deleted":"0","num_feature":"13","num_nodes":"11","size_leaf_vector":"1"}},{"base_weights":[3.127626E-2,-4.9984133E-1,6.0299313E-1,-8.746168E-3,1.009361E-2,3.898691E-2,1.0746474E0,5.5916863E-3,-5.3967927E-3,-4.4783144E-3,4.7710026E-3,6.382998E-3,1.2568598E-2],"categories":[],"categories_nodes":[],"categories_segments":[],"categories_sizes":[],"default_left":[0,0,0,0,0,0,0,0,0,0,0,0,0],"id":97,"left_children":[1,3,5,-1,7,9,11,-1,-1,-1,-1,-1,-1],"loss_changes":[1.6099644E1,5.267906E0,6.744053E0,0E0,4.119109E0,2.9127517E0,2.992897E-1,0E0,0E0,0E0,0E0,0E0,0E0],"parents":[2147483647,0,0,1,1,2,2,4,4,5,5,6,6],"right_children":[2,4,6,-1,8,10,12,-1,-1,-1,-1,-1,-1],"split_conditions":[4E0,5.7E1,6.722408E-1,-8.746168E-3,6.2E1,4.734219E0,2E0,5.5916863E-3,-5.3967927E-3,-4.4783144E-3,4.7710026E-3,6.382998E-3,1.2568598E-2],"split_indices":[2,0,11,0,0,12,6,0,0,0,0,0,0],"split_type":[0,0,0,0,0,0,0,0,0,0,0,0,0],"sum_hessian":[5.1027996E1,2.6518433E1,2.4509562E1,1.4872657E1,1.1645776E1,1.1655055E1,1.28545065E1,5.818035E0,5.82774E0,5.510155E0,6.1449003E0,5.1131043E0,7.741402E0],"tree_param":{"num_deleted":"0","num_feature":"13","num_nodes":"13","size_leaf_vector":"1"}},{"base_weights":[-2.9718233E-2,-6.7053753E-1,6.68827E-1,-9.611231E-3,-2.4467881E-1,1.1972598E-3,1.0476011E-2,-4.8787985E-3,3.1423237E-4],"categories":[],"categories_nodes":[],"categories_segments":[],"categories_sizes":[],"default_left":[0,0,0,0,0,0,0,0,0],"id":98,"left_children":[1,3,5,-1,7,-1,-1,-1,-1],"loss_changes":[2.4616764E1,3.3112164E0,5.351308E0,0E0,8.8591075E-1,0E0,0E0,0E0,0E0],"parents":[2147483647,0,0,1,1,2,2,4,4],"right_children":[2,4,6,-1,8,-1,-1,-1,-1],"split_conditions":[4E0,2E0,7E-1,-9.611231E-3,5.7E1,1.1972598E-3,1.0476011E-2,-4.8787985E-3,3.1423237E-4],"split_indices":[2,10,9,0,0,0,0,0,0],"split_type":[0,0,0,0,0,0,0,0,0],"sum_hessian":[5.299031E1,2.7657993E1,2.5332315E1,1.5692962E1,1.1965033E1,1.0878323E1,1.4453993E1,5.953733E0,6.011299E0],"tree_param":{"num_deleted":"0","num_feature":"13","num_nodes":"9",