{"learner":{"attributes":{"scikit_learn":"{\"_estimator_type\": \"classifier\"}"},"feature_names":["AGE","GENDER","LAB_BILIRUBIN_TOTAL","LAB_BILIRUBIN_DIRECT","LAB_ALP","LAB_SGPT","LAB_SGOT","LAB_PROTEIN","LAB_ALBUMIN","LAB_AG_RATIO","LAB_BILIRUBIN_INDIRECT","LAB_GLOBULIN","LAB_SGOT_SGPT_RATIO"],"feature_types":["int","int","float","float","float","int","float","float","float","float","float","float","float"],"gradient_booster":{"model":{"cats":{"enc":[],"feature_segments":[],"sorted_idx":[]},"gbtree_model_param":{"num_parallel_tree":"1","num_trees":"300"},"iteration_indptr":[0,1,2,3,4,5,6,7,8,9,10,11,12,13,14,15,16,17,18,19,20,21,22,23,24,25,26,27,28,29,30,31,32,33,34,35,36,37,38,39,40,41,42,43,44,45,46,47,48,49,50,51,52,53,54,55,56,57,58,59,60,61,62,63,64,65,66,67,68,69,70,71,72,73,74,75,76,77,78,79,80,81,82,83,84,85,86,87,88,89,90,91,92,93,94,95,96,97,98,99,100,101,102,103,104,105,106,107,108,109,110,111,112,113,114,115,116,117,118,119,120,121,122,123,124,125,126,127,128,129,130,131,132,133,134,135,136,137,138,139,140,141,142,143,144,145,146,147,148,149,150,151,152,153,154,155,156,157,158,159,160,161,162,163,164,165,166,167,168,169,170,171,172,173,174,175,176,177,178,179,180,181,182,183,184,185,186,187,188,189,190,191,192,193,194,195,196,197,198,199,200,201,202,203,204,205,206,207,208,209,210,211,212,213,214,215,216,217,218,219,220,221,222,223,224,225,226,227,228,229,230,231,232,233,234,235,236,237,238,239,240,241,242,243,244,245,246,247,248,249,250,251,252,253,254,255,256,257,258,259,260,261,262,263,264,265,266,267,268,269,270,271,272,273,274,275,276,277,278,279,280,281,282,283,284,285,286,287,288,289,290,291,292,293,294,295,296,297,298,299,300],"tree_info":[0,0,0,0,0,0,0,0,0,0,0,0,0,0,0,0,0,0,0,0,0,0,0,0,0,0,0,0,0,0,0,0,0,0,0,0,0,0,0,0,0,0,0,0,0,0,0,0,0,0,0,0,0,0,0,0,0,0,0,0,0,0,0,0,0,0,0,0,0,0,0,0,0,0,0,0,0,0,0,0,0,0,0,0,0,0,0,0,0,0,0,0,0,0,0,0,0,0,0,0,0,0,0,0,0,0,0,0,0,0,0,0,0,0,0,0,0,0,0,0,0,0,0,0,0,0,0,0,0,0,0,0,0,0,0,0,0,0,0,0,0,0,0,0,0,0,0,0,0,0,0,0,0,0,0,0,0,0,0,0,0,0,0,0,0,0,0,0,0,0,0,0,0,0,0,0,0,0,0,0,0,0,0,0,0,0,0,0,0,0,0,0,0,0,0,0,0,0,0,0,0,0,0,0,0,0,0,0,0,0,0,0,0,0,0,0,0,0,0,0,0,0,0,0,0,0,0,0,0,0,0,0,0,0,0,0,0,0,0,0,0,0,0,0,0,0,0,0,0,0,0,0,0,0,0,0,0,0,0,0,0,0,0,0,0,0,0,0,0,0,0,0,0,0,0,0,0,0,0,0,0,0,0,0,0,0,0,0,0,0,0,0,0,0,0,0,0,0,0,0],"trees":[{"base_weights":[1.2622707E-1,-5.0625694E-1,7.4239695E-1,-8.256381E-1,2.6941878E-1,3.3523926E-1,1.3597953E-2,3.55728E-3,-9.7271186E-1,-4.4958806E-1,6.9303024E-1,-9.1015585E-2,9.82808E-3,-1.0411679E0,-1.1205801E-3,-6.1792997E-3,4.032243E-5,9.786056E-3,-1.1205801E-3,7.761719E-3,-2.81448E-1,-2.8380544E-3,-1.1023229E-2,-8.7775E-1,1.5319765E-1,-1.1205801E-3,-1.1602483E-2,7.7387053E-3,-3.0233306E-1,-7.1682954E-1,6.732067E-3,-1.08561525E-2,-3.2309603E-4],"categories":[],"categories_nodes":[],"categories_segments":[],"categories_sizes":[],"default_left":[0,0,0,0,0,0,0,0,0,0,0,0,0,0,0,0,0,0,0,0,0,0,0,0,0,0,0,0,0,0,0,0,0],"id":0,"left_children":[1,3,5,7,9,11,-1,-1,13,15,17,19,-1,21,-1,-1,-1,-1,-1,-1,23,-1,-1,25,27,-1,-1,-1,29,31,-1,-1,-1],"loss_changes":[2.2901894E1,7.561806E0,6.7675705E0,4.1740274E0,3.403686E0,5.614212E0,0E0,0E0,9.5083046E-1,3.4614378E-1,1.6949444E0,2.5315225E0,0E0,3.4220314E-1,0E0,0E0,0E0,0E0,0E0,0E0,3.3230543E0,0E0,0E0,9.5146227E-1,2.6815095E0,0E0,0E0,0E0,3.082275E0,1.1640913E0,0E0,0E0,0E0],"parents":[2147483647,0,0,1,1,2,2,3,3,4,4,5,5,8,8,9,9,10,10,11,11,13,13,20,20,23,23,24,24,28,28,29,29],"right_children":[2,4,6,8,10,12,-1,-1,14,16,18,20,-1,22,-1,-1,-1,-1,-1,-1,24,-1,-1,26,28,-1,-1,-1,30,32,-1,-1,-1],"split_conditions":[3.3E1,2.09E2,2.8E0,6.7E-1,9E-1,6.4E1,1.3597953E-2,3.55728E-3,1.34E0,3.6E0,4.5E2,1.53E2,9.82808E-3,7E-1,-1.1205801E-3,-6.1792997E-3,4.032243E-5,9.786056E-3,-1.1205801E-3,7.761719E-3,1.95E2,-2.8380544E-3,-1.1023229E-2,7E-1,2.26E2,-1.1205801E-3,-1.1602483E-2,7.7387053E-3,3.12E2,9.11762E-1,6.732067E-3,-1.08561525E-2,-3.2309603E-4],"split_indices":[5,4,2,9,2,5,0,0,9,8,4,4,0,2,0,0,0,0,0,0,4,0,0,10,4,0,0,0,4,9,0,0,0],"split_type":[0,0,0,0,0,0,0,0,0,0,0,0,0,0,0,0,0,0,0,0,0,0,0,0,0,0,0,0,0,0,0,0,0],"sum_hessian":[5.5818752E1,2.7676767E1,2.8141983E1,1.9536201E1,8.140565E0,1.835309E1,9.788893E0,1.9272839E0,1.7608917E1,2.9839115E0,5.156654E0,1.1845259E1,6.5078316E0,1.6020079E1,1.5888397E0,1.7800087E0,1.2039027E0,3.5678144E0,1.5888397E0,1.3020861E0,1.0543173E1,1.8291004E0,1.4190978E1,3.8002782E0,6.7428946E0,1.5888397E0,2.2114384E0,2.4104042E0,4.3324904E0,3.3197567E0,1.0127337E0,1.5862408E0,1.733516E0],"tree_param":{"num_deleted":"0","num_feature":"13","num_nodes":"33","size_leaf_vector":"1"}},{"base_weights":[-2.6736801E-2,-4.1268295E-1,1.2268751E0,-7.425047E-1,2.6988938E-1,-9.033696E-4,1.3376535E0,-8.508716E-1,3.2940394E-1,-7.6586297E-3,5.2249527E-1,1.44794285E-2,4.5230046E-1,2.9750247E-3,-9.38282E-1,6.741846E-3,-1.1101142E-3,-2.5625546E-2,9.045027E-1,-9.4090775E-4,7.230727E-3,-1.0581636E0,3.407982E-2,3.26948E-1,-6.147338E-3,6.2143456E-2,1.2481687E-2,-1.03471875E-1,-1.2214527E0,-4.678487E-3,5.1887166E-3,6.1641554E-3,-5.964928E-2,4.5754523E-3,-4.0433276E-3,-8.233876E-3,3.7495798E-1,-2.5926617E-1,-1.3812631E0,-6.9408375E-3,6.7089433E-3,-1.9870119E-3,7.770101E-3,-9.630135E-3,4.104704E-3,9.244554E-4,-1.5079103E-2],"categories":[],"categories_nodes":[],"categories_segments":[],"categories_sizes":[],"default_left":[0,0,0,0,0,0,0,0,0,0,0,0,0,0,0,0,0,0,0,0,0,0,0,0,0,0,0,0,0,0,0,0,0,0,0,0,0,0,0,0,0,0,0,0,0,0,0],"id":1,"left_children":[1,3,5,7,9,-1,11,13,15,-1,17,-1,19,-1,21,-1,-1,23,25,-1,-1,27,29,31,-1,33,-1,35,37,-1,-1,-1,39,-1,-1,-1,41,43,45,-1,-1,-1,-1,-1,-1,-1,-1],"loss_changes":[3.0558409E1,1.1154982E1,2.3518944E0,4.242861E0,4.997739E0,0E0,3.6675835E-1,3.4606342E0,7.352452E-1,0E0,3.050738E0,0E0,6.512193E-1,0E0,3.378828E0,0E0,0E0,1.8331707E0,2.352848E0,0E0,0E0,3.77598E0,1.4794779E0,6.810027E-1,0E0,1.0245265E0,0E0,2.3072612E0,2.781723E0,0E0,0E0,0E0,2.442197E0,0E0,0E0,0E0,1.2111813E0,2.9122715E0,3.5990562E0,0E0,0E0,0E0,0E0,0E0,0E0,0E0,0E0],"parents":[2147483647,0,0,1,1,2,2,3,3,4,4,6,6,7,7,8,8,10,10,12,12,14,14,17,17,18,18,21,21,22,22,23,23,25,25,27,27,28,28,32,32,36,36,37,37,38,38],"right_children":[2,4,6,8,10,-1,12,14,16,-1,18,-1,20,-1,22,-1,-1,24,26,-1,-1,28,30,32,-1,34,-1,36,38,-1,-1,-1,40,-1,-1,-1,42,44,46,-1,-1,-1,-1,-1,-1,-1,-1],"split_conditions":[1.1E0,2.12E2,1.5E2,1.9999987E0,1.8E1,-9.033696E-4,5.75E2,1.28E2,4.4E1,-7.6586297E-3,2.76E2,1.44794285E-2,5.1E1,2.9750247E-3,1.34E0,6.741846E-3,-1.1101142E-3,2.57E2,3.7E1,-9.4090775E-4,7.230727E-3,7.735848E-1,2.7E0,1.0952376E0,-6.147338E-3,3.9E0,1.2481687E-2,3E0,2E-1,-4.678487E-3,5.1887166E-3,6.1641554E-3,1.645833E0,4.5754523E-3,-4.0433276E-3,-8.233876E-3,9.11762E-1,1.66E2,1.53E2,-6.9408375E-3,6.7089433E-3,-1.9870119E-3,7.770101E-3,-9.630135E-3,4.104704E-3,9.244554E-4,-1.5079103E-2],"split_indices":[3,4,4,12,0,0,4,4,0,0,4,0,0,0,9,0,0,4,0,0,0,12,11,12,0,11,0,11,3,0,0,0,12,0,0,0,9,4,4,0,0,0,0,0,0,0,0],"split_type":[0,0,0,0,0,0,0,0,0,0,0,0,0,0,0,0,0,0,0,0,0,0,0,0,0,0,0,0,0,0,0,0,0,0,0,0,0,0,0,0,0,0,0,0,0,0,0],"sum_hessian":[6.0090126E1,4.6714474E1,1.3375652E1,3.1406847E1,1.5307625E1,1.0591084E0,1.2316545E1,2.8804144E1,2.602704E0,2.4037647E0,1.290386E1,1.0104638E1,2.2119062E0,1.7823834E0,2.7021759E1,1.0132718E0,1.5894322E0,5.874398E0,7.029462E0,1.0572487E0,1.1546575E0,2.3938091E1,3.0836675E0,4.092568E0,1.7818301E0,2.5501153E0,4.4793468E0,3.8542438E0,2.0083849E1,1.5408131E0,1.5428544E0,1.830369E0,2.262199E0,1.3957481E0,1.1543671E0,1.1069834E0,2.7472606E0,3.420886E0,1.6662962E1,1.2508074E0,1.0113915E0,1.4446572E0,1.3026032E0,1.3477968E0,2.0730894E0,1.3507122E0,1.531225E1],"tree_param":{"num_deleted":"0","num_feature":"13","num_nodes":"47","size_leaf_vector":"1"}},{"base_weights":[5.5458777E-2,-4.2156297E-1,9.9133056E-1,-7.144273E-1,2.0731445E-1,-4.3868506E-3,1.175454E0,-8.110395E-1,5.2330494E-3,-8.224266E-3,3.8156986E-1,4.7565648E-1,1.40633425E-2,3.942945E-4,-8.74601E-1,8.308825E-3,1.567356E-1,7.2417414E-1,-2.971954E-3,-1.2260759E0,-5.539201E-1,4.274922E-1,-3.2771796E-1,-8.921383E-4,9.327696E-3,-1.4581144E0,-4.7724694E-1,1.8047169E-1,-7.288498E-1,-2.0904303E-1,9.116939E-3,2.8951447E-3,-8.396652E-3,-1.655977E-2,-8.324622E-4,-8.327034E-3,4.884772E-4,6.761737E-3,-2.7445708E-3,-8.021917E-1,8.5444466E-5,-6.209146E-3,3.955122E-3,8.259246E-5,-8.913953E-3],"categories":[],"categories_nodes":[],"categories_segments":[],"categories_sizes":[],"default_left":[0,0,0,0,0,0,0,0,0,0,0,0,0,0,0,0,0,0,0,0,0,0,0,0,0,0,0,0,0,0,0,0,0,0,0,0,0,0,0,0,0,0,0,0,0],"id":2,"left_children":[1,3,5,7,9,-1,11,13,-1,-1,15,17,-1,-1,19,-1,21,23,-1,25,27,29,31,-1,-1,33,35,37,39,41,-1,-1,-1,-1,-1,-1,-1,-1,-1,43,-1,-1,-1,-1,-1],"loss_changes":[2.8699469E1,8.087276E0,6.4812565E0,4.1610527E0,3.1140301E0,0E0,2.1654263E0,1.5614109E0,0E0,0E0,1.1809286E0,1.6926792E0,0E0,0E0,1.9174328E0,0E0,1.6436611E0,1.1145399E0,0E0,9.0091133E-1,2.2987657E0,2.6472435E0,1.8710483E0,0E0,0E0,1.919096E0,9.7312844E-1,1.2591432E0,7.408638E-1,1.4964072E0,0E0,0E0,0E0,0E0,0E0,0E0,0E0,0E0,0E0,9.004626E-1,0E0,0E0,0E0,0E0,0E0],"parents":[2147483647,0,0,1,1,2,2,3,3,4,4,6,6,7,7,10,10,11,11,14,14,16,16,17,17,19,19,20,20,21,21,22,22,25,25,26,26,27,27,28,28,29,29,39,39],"right_children":[2,4,6,8,10,-1,12,14,-1,-1,16,18,-1,-1,20,-1,22,24,-1,26,28,30,32,-1,-1,34,36,38,40,42,-1,-1,-1,-1,-1,-1,-1,-1,-1,44,-1,-1,-1,-1,-1],"split_conditions":[7E-1,2.12E2,2.7E0,6.7E1,1.4E1,-4.3868506E-3,1.2E0,1.28E2,5.2330494E-3,-8.224266E-3,3E0,7.7E0,1.40633425E-2,3.942945E-4,1.68E2,8.308825E-3,2.98E2,3.6E1,-2.971954E-3,4.6E1,1.77E2,3.4E0,3.6E0,-8.921383E-4,9.327696E-3,7.4E0,3.3E0,3.8E1,4.3E0,2.71E2,9.116939E-3,2.8951447E-3,-8.396652E-3,-1.655977E-2,-8.324622E-4,-8.327034E-3,4.884772E-4,6.761737E-3,-2.7445708E-3,5.3E0,8.5444466E-5,-6.209146E-3,3.955122E-3,8.259246E-5,-8.913953E-3],"split_indices":[3,4,11,0,0,0,3,4,0,0,11,7,0,0,4,0,4,0,0,0,4,11,11,0,0,7,8,0,8,4,0,0,0,0,0,0,0,0,0,7,0,0,0,0,0],"split_type":[0,0,0,0,0,0,0,0,0,0,0,0,0,0,0,0,0,0,0,0,0,0,0,0,0,0,0,0,0,0,0,0,0,0,0,0,0,0,0,0,0,0,0,0,0],"sum_hessian":[6.1382267E1,4.1204372E1,2.017789E1,2.7973318E1,1.3231055E1,2.0651133E0,1.8112778E1,2.6427597E1,1.5457214E0,1.1074171E0,1.2123638E1,5.63212E0,1.2480659E1,1.8773723E0,2.4550224E1,2.6948678E0,9.42877E0,4.3332124E0,1.2989076E0,9.692242E0,1.4857983E1,6.161521E0,3.2672493E0,1.0596658E0,3.2735465E0,6.3147197E0,3.377522E0,2.8491466E0,1.2008836E1,3.0302894E0,3.1312318E0,1.7767841E0,1.4904653E0,5.2521663E0,1.0625532E0,1.4939382E0,1.8835838E0,1.01437E0,1.8347766E0,1.0802591E1,1.2062452E0,1.7782276E0,1.2520617E0,1.2060705E0,9.59652E0],"tree_param":{"num_deleted":"0","num_feature":"13","num_nodes":"45","size_leaf_vector":"1"}},{"base_weights":[-6.9225185E-2,-5.302597E-1,1.1316129E0,-7.7621996E-1,1.6384852E-1,1.24416575E-2,2.121535E-1,-9.020582E-1,2.1854228E-1,7.0711523E-1,-6.439139E-1,-5.267511E-3,7.6193227E-3,-5.3778815E-1,-1.2834717E0,7.0152436E-3,-4.637999E-3,8.931356E-3,-3.0813244E-4,-1.0857149E0,6.6668475E-3,-9.2912346E-1,-2.0078528E-1,-1.4019274E0,3.9555845E-5,-9.1673556E-4,-1.30357165E-2,-3.0643027E-4,-1.1612127E0,1.4150809E-1,-7.7886856E-1,-4.257902E-3,-1.52719505E-2,-1.3246025E-2,-3.6722491E-3,-3.7143478E-1,5.2487457E-1,-1.1003302E-2,-1.9324578E-3,-7.3146443E-3,3.288956E-3,7.829933E-3,-3.1299816E-4],"categories":[],"categories_nodes":[],"categories_segments":[],"categories_sizes":[],"default_left":[0,0,0,0,0,0,0,0,0,0,0,0,0,0,0,0,0,0,0,0,0,0,0,0,0,0,0,0,0,0,0,0,0,0,0,0,0,0,0,0,0,0,0],"id":3,"left_children":[1,3,5,7,9,-1,11,13,15,17,19,-1,-1,21,23,-1,-1,-1,-1,25,-1,27,29,31,-1,-1,-1,-1,33,35,37,-1,-1,-1,-1,39,41,-1,-1,-1,-1,-1,-1],"loss_changes":[3.6399548E1,8.275267E0,1.4944954E0,4.705267E0,6.663542E0,0E0,2.145957E0,3.3499107E0,2.1896245E0,1.2579231E0,4.7134724E0,0E0,0E0,2.1897798E0,2.1947193E0,0E0,0E0,0E0,0E0,9.5905733E-1,0E0,1.6671963E0,2.5348656E0,6.3049316E-1,0E0,0E0,0E0,0E0,1.1575127E-1,2.0211027E0,5.6287336E-1,0E0,0E0,0E0,0E0,1.5303793E0,8.482193E-1,0E0,0E0,0E0,0E0,0E0,0E0],"parents":[2147483647,0,0,1,1,2,2,3,3,4,4,6,6,7,7,8,8,9,9,10,10,13,13,14,14,19,19,21,21,22,22,23,23,28,28,29,29,30,30,35,35,36,36],"right_children":[2,4,6,8,10,-1,12,14,16,18,20,-1,-1,22,24,-1,-1,-1,-1,26,-1,28,30,32,-1,-1,-1,-1,34,36,38,-1,-1,-1,-1,40,42,-1,-1,-1,-1,-1,-1],"split_conditions":[9E-1,4.4E1,2.8148143E0,6.6E1,1.0799956E0,1.24416575E-2,4.1E1,1.0943394E0,1.329114E0,2.1599991E0,1.49E2,-5.267511E-3,7.6193227E-3,3.2E0,1.9999989E0,7.0152436E-3,-4.637999E-3,8.931356E-3,-3.0813244E-4,1.0217389E0,6.6668475E-3,1.8E1,4.9E1,2E-1,3.9555845E-5,-9.1673556E-4,-1.30357165E-2,-3.0643027E-4,1.25E0,3.1E1,1.8E1,-4.257902E-3,-1.52719505E-2,-1.3246025E-2,-3.6722491E-3,2.6E1,2.9E1,-1.1003302E-2,-1.9324578E-3,-7.3146443E-3,3.288956E-3,7.829933E-3,-3.1299816E-4],"split_indices":[3,6,12,0,9,0,0,12,12,12,6,0,0,11,12,0,0,0,0,12,0,6,0,3,0,0,0,0,9,0,6,0,0,0,0,6,6,0,0,0,0,0,0],"split_type":[0,0,0,0,0,0,0,0,0,0,0,0,0,0,0,0,0,0,0,0,0,0,0,0,0,0,0,0,0,0,0,0,0,0,0,0,0,0,0,0,0,0,0],"sum_hessian":[6.2621555E1,4.5854427E1,1.676713E1,3.372602E1,1.21284075E1,1.4466527E1,2.3006017E0,3.0062836E1,3.6631844E0,7.363159E0,4.7652483E0,1.0082878E0,1.292314E0,1.7226042E1,1.2836793E1,2.120244E0,1.5429404E0,5.6287475E0,1.7344117E0,3.7563653E0,1.0088829E0,6.7510467E0,1.0474996E1,1.1633038E1,1.2037561E0,1.0583771E0,2.6979883E0,1.7344735E0,5.016573E0,7.2908006E0,3.184195E0,2.073562E0,9.559475E0,3.329068E0,1.687505E0,3.138365E0,4.1524353E0,1.2046021E0,1.9795929E0,2.0287366E0,1.1096284E0,2.418355E0,1.7340806E0],"tree_param":{"num_deleted":"0","num_feature":"13","num_nodes":"43","size_leaf_vector":"1"}},{"base_weights":[5.4583337E-2,-4.3609214E-1,1.0925117E0,-1.412751E-2,-1.4577344E-1,3.0258624E-2,1.2765961E0,-4.7588107E-1,5.089018E-1,6.6906097E-3,-4.316663E-3,1.3589728E-2,3.3915257E-3,-5.497174E-1,4.010012E-3,2.348978E-1,9.049191E-3,-6.654467E-1,1.7795599E-1,6.0976225E-1,-1.6976088E-1,-3.8397187E-1,-1.23681165E-2,-1.9238674E-3,4.625107E-3,3.639657E-4,9.1288155E-3,-4.036491E-1,2.1831954E-3,-9.785056E-2,-8.6027646E-1,-6.929097E-3,8.8338216E-4,-6.381323E-3,4.9468535E-3,3.352864E-3,-1.2596322E-2],"categories":[],"categories_nodes":[],"categories_segments":[],"categories_sizes":[],"default_left":[0,0,0,0,0,0,0,0,0,0,0,0,0,0,0,0,0,0,0,0,0,0,0,0,0,0,0,0,0,0,0,0,0,0,0,0,0],"id":4,"left_children":[1,3,5,-1,7,9,11,13,15,-1,-1,-1,-1,17,-1,19,-1,21,23,25,27,29,-1,-1,-1,-1,-1,31,-1,33,35,-1,-1,-1,-1,-1,-1],"loss_changes":[3.2728573E1,1.2097353E1,3.9714127E0,0E0,8.013911E0,1.7846503E0,6.620693E-1,1.904593E0,1.0474734E0,0E0,0E0,0E0,0E0,2.1190972E0,0E0,1.5915165E0,0E0,2.5374794E0,5.915635E-1,8.611573E-1,6.519644E-1,2.0151572E0,0E0,0E0,0E0,0E0,0E0,6.75238E-1,0E0,4.1579533E0,3.3570733E0,0E0,0E0,0E0,0E0,0E0,0E0],"parents":[2147483647,0,0,1,1,2,2,4,4,5,5,6,6,7,7,8,8,13,13,15,15,17,17,18,18,19,19,20,20,21,21,27,27,29,29,30,30],"right_children":[2,4,6,-1,8,10,12,14,16,-1,-1,-1,-1,18,-1,20,-1,22,24,26,28,30,-1,-1,-1,-1,-1,32,-1,34,36,-1,-1,-1,-1,-1,-1],"split_conditions":[5.9E1,2.9E1,1.83E2,-1.412751E-2,2.12E2,2.8E0,4E0,7.2E1,9.11762E-1,6.6906097E-3,-4.316663E-3,1.3589728E-2,3.3915257E-3,1.4E0,4.010012E-3,7.1E-1,9.049191E-3,1.11E0,2.7E0,2.9E1,3.3E1,1.91E2,-1.23681165E-2,-1.9238674E-3,4.625107E-3,3.639657E-4,9.1288155E-3,3.4E0,2.1831954E-3,1.66E2,4.1E1,-6.929097E-3,8.8338216E-4,-6.381323E-3,4.9468535E-3,3.352864E-3,-1.2596322E-2],"split_indices":[6,0,4,0,4,8,8,0,9,0,0,0,0,9,0,9,0,9,11,5,5,4,0,0,0,0,0,11,0,4,0,0,0,0,0,0,0],"split_type":[0,0,0,0,0,0,0,0,0,0,0,0,0,0,0,0,0,0,0,0,0,0,0,0,0,0,0,0,0,0,0,0,0,0,0,0,0],"sum_hessian":[6.1360405E1,4.2254547E1,1.9105862E1,8.353452E0,3.3901093E1,3.0799084E0,1.6025953E1,2.2809492E1,1.1091601E1,1.0102252E0,2.0696833E0,1.4111439E1,1.9145141E0,2.1554207E1,1.2552853E0,7.968163E0,3.1234376E0,1.8707272E1,2.846935E0,3.7416866E0,4.2264767E0,1.4213319E1,4.4939528E0,1.4481059E0,1.3988291E0,1.875048E0,1.8666385E0,2.599584E0,1.6268924E0,1.0008975E1,4.204344E0,1.2513041E0,1.34828E0,5.1749573E0,4.834018E0,1.1129929E0,3.0913513E0],"tree_param":{"num_deleted":"0","num_feature":"13","num_nodes":"37","size_leaf_vector":"1"}},{"base_weights":[2.6535462E-3,-4.5922163E-1,9.4560826E-1,-5.695207E-1,3.1132647E-1,2.876781E-1,1.2430623E-2,-4.4911966E-1,-1.0479031E-2,-2.8120289E-3,6.509897E-1,-2.608024E-1,1.0107433E-2,-7.527973E-1,-1.8397126E-2,8.133175E-3,1.6519902E-3,3.6038773E-3,-6.914993E-1,-9.1090953E-1,2.3665987E-1,2.2741944E-1,-6.792007E-1,-7.8377016E-5,-9.753563E-3,-1.6333595E-1,-1.2878896E-2,7.826309E-3,-5.1393816E-3,5.6573E-1,-4.16714E-1,-1.0673804E-2,9.875752E-4,-7.7074873E-1,5.8254635E-1,-1.852062E-3,8.350096E-3,4.3504933E-4,-7.1291914E-3,-1.0412735E-2,5.4402353E-5,-6.7323544E-6,8.205697E-3],"categories":[],"categories_nodes":[],"categories_segments":[],"categories_sizes":[],"default_left":[0,0,0,0,0,0,0,0,0,0,0,0,0,0,0,0,0,0,0,0,0,0,0,0,0,0,0,0,0,0,0,0,0,0,0,0,0,0,0,0,0,0,0],"id":5,"left_children":[1,3,5,7,9,11,-1,13,-1,-1,15,17,-1,19,21,-1,-1,-1,23,25,27,29,31,-1,-1,33,-1,-1,-1,35,37,-1,-1,39,41,-1,-1,-1,-1,-1,-1,-1,-1],"loss_changes":[2.7436663E1,3.86026E0,3.5167007E0,1.4554071E0,1.5355722E0,3.7266355E0,0E0,4.2439513E0,0E0,0E0,1.4819169E-1,1.9707478E0,0E0,3.3091145E0,2.6714542E0,0E0,0E0,0E0,7.723142E-1,4.4091167E0,2.1688666E0,2.9841256E0,1.5015559E0,0E0,0E0,3.9979758E0,0E0,0E0,0E0,1.9610054E0,7.30917E-1,0E0,0E0,9.933028E-1,5.7662964E-1,0E0,0E0,0E0,0E0,0E0,0E0,0E0,0E0],"parents":[2147483647,0,0,1,1,2,2,3,3,4,4,5,5,7,7,10,10,11,11,13,13,14,14,18,18,19,19,20,20,21,21,22,22,25,25,29,29,30,30,33,33,34,34],"right_children":[2,4,6,8,10,12,-1,14,-1,-1,16,18,-1,20,22,-1,-1,-1,24,26,28,30,32,-1,-1,34,-1,-1,-1,36,38,-1,-1,40,42,-1,-1,-1,-1,-1,-1,-1,-1],"split_conditions":[7E-1,6.6E1,3.9E1,6E1,1E0,5.5E0,1.2430623E-2,3.9E1,-1.0479031E-2,-2.8120289E-3,9.11762E-1,2.2E0,1.0107433E-2,3.9E0,1E0,8.133175E-3,1.6519902E-3,3.6038773E-3,3.5E1,6.4E0,2.7E1,3.6E0,3.4E0,-7.8377016E-5,-9.753563E-3,8E-1,-1.2878896E-2,7.826309E-3,-5.1393816E-3,4.6E1,4.8E1,-1.0673804E-2,9.875752E-4,9.11762E-1,9.6E-1,-1.852062E-3,8.350096E-3,4.3504933E-4,-7.1291914E-3,-1.0412735E-2,5.4402353E-5,-6.7323544E-6,8.205697E-3],"split_indices":[3,0,0,0,1,2,0,0,0,0,9,2,0,11,2,0,0,0,0,7,0,11,11,0,0,2,0,0,0,0,0,0,0,9,9,0,0,0,0,0,0,0,0],"split_type":[0,0,0,0,0,0,0,0,0,0,0,0,0,0,0,0,0,0,0,0,0,0,0,0,0,0,0,0,0,0,0,0,0,0,0,0,0,0,0,0,0,0,0],"sum_hessian":[6.0000835E1,4.079047E1,1.9210367E1,3.6025043E1,4.7654247E0,6.899739E0,1.2310628E1,3.1104734E1,4.920311E0,1.8304479E0,2.9349766E0,4.4688563E0,2.4308822E0,1.7584959E1,1.3519774E1,1.4418565E0,1.4931202E0,1.9300423E0,2.5388143E0,1.5264772E1,2.3201869E0,1.0571121E1,2.948653E0,1.1970854E0,1.3417289E0,5.837862E0,9.42691E0,1.3061229E0,1.014064E0,7.0505986E0,3.520523E0,1.5948331E0,1.3538197E0,3.1900349E0,2.6478271E0,1.9845728E0,5.0660257E0,1.8796961E0,1.640827E0,1.9856844E0,1.2043505E0,1.2009478E0,1.4468795E0],"tree_param":{"num_deleted":"0","num_feature":"13","num_nodes":"43","size_leaf_vector":"1"}},{"base_weights":[8.4953286E-2,-5.398859E-1,7.8094226E-1,-7.630711E-1,6.866194E-1,9.1870844E-1,-1.6534643E-2,-4.8837956E-2,-9.479957E-1,-5.195307E-3,1.1159132E-2,3.408438E-1,1.1343558E0,7.774341E-3,-5.240745E-1,3.9314336E-1,-6.3948935E-1,-4.15581E-1,-1.1492374E0,-4.0234596E-1,7.563307E-1,3.3648007E-3,1.2023577E-2,-7.254934E-3,5.0660133E-6,7.039646E-3,-1.8839816E-3,-8.147414E-3,-8.622443E-4,2.9143465E-1,-7.87912E-1,-1.3215039E-2,-1.8629387E-1,-8.303689E-3,3.2134904E-3,9.622182E-3,-9.354532E-4,-1.846187E-3,6.765115E-3,1.0078724E-4,-9.9825E-3,-5.1086657E-3,1.7884066E-3],"categories":[],"categories_nodes":[],"categories_segments":[],"categories_sizes":[],"default_left":[0,0,0,0,0,0,0,0,0,0,0,0,0,0,0,0,0,0,0,0,0,0,0,0,0,0,0,0,0,0,0,0,0,0,0,0,0,0,0,0,0,0,0],"id":6,"left_children":[1,3,5,7,9,11,13,15,17,-1,-1,19,21,-1,23,25,27,29,31,33,35,-1,-1,-1,-1,-1,-1,-1,-1,37,39,-1,41,-1,-1,-1,-1,-1,-1,-1,-1,-1,-1],"loss_changes":[2.6058634E1,9.462068E0,3.1288872E0,3.566166E0,3.8050644E0,2.427475E0,2.883131E0,2.267843E0,1.6175594E0,0E0,0E0,3.143818E0,3.1176567E-1,0E0,4.5863616E-1,1.115654E0,2.505678E-1,2.5359044E0,2.1120834E0,1.6702384E0,1.2029257E0,0E0,0E0,0E0,0E0,0E0,0E0,0E0,0E0,9.1451347E-1,9.9836636E-1,0E0,6.13004E-1,0E0,0E0,0E0,0E0,0E0,0E0,0E0,0E0,0E0,0E0],"parents":[2147483647,0,0,1,1,2,2,3,3,4,4,5,5,6,6,7,7,8,8,11,11,12,12,14,14,15,15,16,16,17,17,18,18,19,19,20,20,29,29,30,30,32,32],"right_children":[2,4,6,8,10,12,14,16,18,-1,-1,20,22,-1,24,26,28,30,32,34,36,-1,-1,-1,-1,-1,-1,-1,-1,38,40,-1,42,-1,-1,-1,-1,-1,-1,-1,-1,-1,-1],"split_conditions":[2.1E2,6E1,4E0,2.8E0,5.6E0,4.3E1,3.2E1,3.9E1,1E0,-5.195307E-3,1.1159132E-2,2.71E2,2.7E0,7.774341E-3,4.2E0,1.91E2,6E-1,2.1E1,1.96E2,3E0,4.1E0,3.3648007E-3,1.2023577E-2,-7.254934E-3,5.0660133E-6,7.039646E-3,-1.8839816E-3,-8.147414E-3,-8.622443E-4,3.8E0,6.8E0,-1.3215039E-2,3.1E0,-8.303689E-3,3.2134904E-3,9.622182E-3,-9.354532E-4,-1.846187E-3,6.765115E-3,1.0078724E-4,-9.9825E-3,-5.1086657E-3,1.7884066E-3],"split_indices":[4,6,8,8,7,6,6,6,1,0,0,4,11,0,8,4,9,6,4,8,11,0,0,0,0,0,0,0,0,8,7,0,8,0,0,0,0,0,0,0,0,0,0],"split_type":[0,0,0,0,0,0,0,0,0,0,0,0,0,0,0,0,0,0,0,0,0,0,0,0,0,0,0,0,0,0,0,0,0,0,0,0,0,0,0,0,0,0,0],"sum_hessian":[5.696702E1,3.0195126E1,2.6771893E1,2.602599E1,4.169135E0,2.2633814E1,4.138078E0,5.7425847E0,2.0283405E1,1.0116084E0,3.1575267E0,7.2029886E0,1.5430826E1,1.3026408E0,2.8354375E0,3.5715775E0,2.1710074E0,6.824856E0,1.34585495E1,2.5999134E0,4.6030755E0,1.9125674E0,1.3518258E1,1.6336753E0,1.2017622E0,2.121767E0,1.4498106E0,1.1103756E0,1.0606318E0,2.466724E0,4.358132E0,1.0942453E1,2.5160966E0,1.4947528E0,1.1051606E0,3.5458035E0,1.057272E0,1.4522374E0,1.0144866E0,1.2070172E0,3.151115E0,1.0150912E0,1.5010054E0],"tree_param":{"num_deleted":"0","num_feature":"13","num_nodes":"43","size_leaf_vector":"1"}},{"base_weights":[9.902641E-2,-4.313416E-1,1.0098598E0,-6.42947E-1,6.778492E-2,-1.0742582E-1,1.1898462E0,-9.594096E-1,-3.9361206E-1,4.258239E-1,-3.7260166E-1,-5.713925E-3,3.3400743E-3,1.0108802E-3,1.2951998E-2,3.0379032E-3,-1.2185321E0,3.0910983E-3,-4.9123856E-1,-1.0444489E-1,9.019184E-3,-6.8808526E-1,4.4685174E-3,-1.3350642E0,-7.859446E-4,-1.823305E-1,-7.757619E-1,-6.083604E-3,4.0348947E-1,1.5913362E-3,-1.0418151E-2,-4.133971E-3,-1.5123354E-2,2.303849E-1,-6.32831E-1,-8.5609937E-1,-8.1861427E-4,6.6195643E-3,-8.566587E-4,5.768536E-1,-4.490857E-3,-9.261233E-3,-1.194449E-4,-1.0401974E-2,-1.876682E-3,7.5037656E-3,1.5824857E-4],"categories":[],"categories_nodes":[],"categories_segments":[],"categories_sizes":[],"default_left":[0,0,0,0,0,0,0,0,0,0,0,0,0,0,0,0,0,0,0,0,0,0,0,0,0,0,0,0,0,0,0,0,0,0,0,0,0,0,0,0,0,0,0,0,0,0,0],"id":7,"left_children":[1,3,5,7,9,11,13,15,17,19,21,-1,-1,-1,-1,-1,23,-1,25,27,-1,29,-1,31,-1,33,35,-1,37,-1,-1,-1,-1,39,41,43,-1,-1,-1,45,-1,-1,-1,-1,-1,-1,-1],"loss_changes":[3.253894E1,4.5822287E0,5.166664E0,1.8146229E0,2.4595828E0,1.2710311E0,2.261835E0,4.5664806E0,1.56019E0,2.279974E0,2.3014398E0,0E0,0E0,0E0,0E0,0E0,1.2331705E0,0E0,1.3375425E0,1.7380793E0,0E0,1.9659228E0,0E0,5.9856987E-1,0E0,2.1550717E0,3.8084173E-1,0E0,5.3606725E-1,0E0,0E0,0E0,0E0,1.9270059E0,9.630611E-1,6.490936E-1,0E0,0E0,0E0,4.6744764E-1,0E0,0E0,0E0,0E0,0E0,0E0,0E0],"parents":[2147483647,0,0,1,1,2,2,3,3,4,4,5,5,6,6,7,7,8,8,9,9,10,10,16,16,18,18,19,19,21,21,23,23,25,25,26,26,28,28,33,33,34,34,35,35,39,39],"right_children":[2,4,6,8,10,12,14,16,18,20,22,-1,-1,-1,-1,-1,24,-1,26,28,-1,30,-1,32,-1,34,36,-1,38,-1,-1,-1,-1,40,42,44,-1,-1,-1,46,-1,-1,-1,-1,-1,-1,-1],"split_conditions":[9E-1,2.12E2,2.7E0,6E-1,3E2,1.89E2,7E-1,1.53E2,2E-1,3.4E0,5.09E2,-5.713925E-3,3.3400743E-3,1.0108802E-3,1.2951998E-2,3.0379032E-3,1.34E0,3.0910983E-3,3.3E0,9.11762E-1,9.019184E-3,3.3E0,4.4685174E-3,2E-1,-7.859446E-4,3E-1,2.02E2,-6.083604E-3,1.02E0,1.5913362E-3,-1.0418151E-2,-4.133971E-3,-1.5123354E-2,1.91E2,3.4E0,3.9E0,-8.1861427E-4,6.6195643E-3,-8.566587E-4,3.2E0,-4.490857E-3,-9.261233E-3,-1.194449E-4,-1.0401974E-2,-1.876682E-3,7.5037656E-3,1.5824857E-4],"split_indices":[10,4,11,10,4,4,3,4,3,11,4,0,0,0,0,0,9,0,11,9,0,11,0,3,0,3,4,0,9,0,0,0,0,4,8,11,0,0,0,8,0,0,0,0,0,0,0],"split_type":[0,0,0,0,0,0,0,0,0,0,0,0,0,0,0,0,0,0,0,0,0,0,0,0,0,0,0,0,0,0,0,0,0,0,0,0,0,0,0,0,0,0,0,0,0,0,0],"sum_hessian":[6.450511E1,4.126602E1,2.323909E1,2.8676403E1,1.2589621E1,3.3081412E0,1.993095E1,1.0754585E1,1.7921818E1,6.9714E0,5.6182203E0,1.3975973E0,1.9105438E0,2.0177855E0,1.7913164E1,1.7865816E0,8.968004E0,1.7897446E0,1.6132072E1,3.852008E0,3.119392E0,4.230122E0,1.3880985E0,7.9033146E0,1.0646894E0,8.914648E0,7.2174253E0,1.7847788E0,2.0672293E0,1.4890015E0,2.7411203E0,2.0811296E0,5.822185E0,5.034924E0,3.8797238E0,6.154279E0,1.0631461E0,1.0058485E0,1.0613809E0,3.48462E0,1.5503039E0,2.1341698E0,1.745554E0,4.171191E0,1.9830881E0,2.2747889E0,1.2098312E0],"tree_param":{"num_deleted":"0","num_feature":"13","num_nodes":"47","size_leaf_vector":"1"}},{"base_weights":[8.418895E-4,-5.996265E-1,7.10544E-1,-7.698597E-1,4.784619E-1,1.0368199E0,1.8529274E-2,-1.1952745E0,-3.6711842E-1,-3.676745E-3,9.992411E-3,-9.56862E-4,1.1106158E0,-3.2840988E-1,7.4541643E-3,-1.3539654E0,-2.6705998E-1,7.031451E-2,-7.712791E-1,3.1417567E-1,1.2127802E-2,8.332019E-2,-8.478136E-1,-3.5227572E-3,-1.4757883E-2,8.977658E-4,-5.120439E-3,-1.1776317E-1,6.7674657E-3,-3.4216276E-1,-1.1966197E-2,5.0002155E-3,-9.0004015E-4,3.1969324E-1,-3.8862345E-3,-9.082688E-4,-1.0934557E-2,-5.425795E-1,2.844618E-1,-7.272448E-3,1.388717E-1,6.7341183E-3,-4.2908907E-2,1.798521E-4,-7.4303234E-3,-3.401368E-1,8.740582E-3,4.09179E-3,-1.8443844E-3,-3.8658467E-3,3.3220246E-3,1.6457774E-4,-5.219001E-3],"categories":[],"categories_nodes":[],"categories_segments":[],"categories_sizes":[],"default_left":[0,0,0,0,0,0,0,0,0,0,0,0,0,0,0,0,0,0,0,0,0,0,0,0,0,0,0,0,0,0,0,0,0,0,0,0,0,0,0,0,0,0,0,0,0,0,0,0,0,0,0,0,0],"id":8,"left_children":[1,3,5,7,9,11,13,15,17,-1,-1,-1,19,21,-1,23,25,27,29,31,-1,33,35,-1,-1,-1,-1,37,-1,39,-1,-1,-1,41,-1,-1,-1,43,45,-1,47,-1,49,-1,-1,51,-1,-1,-1,-1,-1,-1,-1],"loss_changes":[2.6314396E1,6.6913996E0,6.360836E0,4.389742E0,2.9687557E0,1.7644138E0,3.0390725E0,1.4701958E0,3.1398263E0,0E0,0E0,0E0,9.0517807E-1,1.862354E0,0E0,5.990734E-1,4.066919E-1,1.2239034E0,1.0499144E0,3.7456188E-1,0E0,8.4979516E-1,5.512843E-1,0E0,0E0,0E0,0E0,1.7126604E0,0E0,1.381304E0,0E0,0E0,0E0,6.5712947E-1,0E0,0E0,0E0,5.5172276E-1,2.448018E0,0E0,4.8124027E-1,0E0,6.7906916E-1,0E0,0E0,2.5398013E-1,0E0,0E0,0E0,0E0,0E0,0E0,0E0],"parents":[2147483647,0,0,1,1,2,2,3,3,4,4,5,5,6,6,7,7,8,8,12,12,13,13,15,15,16,16,17,17,18,18,19,19,21,21,22,22,27,27,29,29,33,33,37,37,38,38,40,40,42,42,45,45],"right_children":[2,4,6,8,10,12,14,16,18,-1,-1,-1,20,22,-1,24,26,28,30,32,-1,34,36,-1,-1,-1,-1,38,-1,40,-1,-1,-1,42,-1,-1,-1,44,46,-1,48,-1,50,-1,-1,52,-1,-1,-1,-1,-1,-1,-1],"split_conditions":[3.5E1,6.6E1,1.0799956E0,3.2E0,1.9E1,2.6E0,6.4E1,1.645833E0,9.2E-1,-3.676745E-3,9.992411E-3,-9.56862E-4,2.7E1,5.3E1,7.4541643E-3,5.2E0,2.314285E0,3.4E0,3.1E1,2.5E1,1.2127802E-2,5.4E1,6.4E0,-3.5227572E-3,-1.4757883E-2,8.977658E-4,-5.120439E-3,4.8E1,6.7674657E-3,3.1E1,-1.1966197E-2,5.0002155E-3,-9.0004015E-4,3.9E0,-3.8862345E-3,-9.082688E-4,-1.0934557E-2,1.2499996E0,1.4210522E0,-7.272448E-3,4.4E1,6.7341183E-3,3.1E0,1.798521E-4,-7.4303234E-3,2.1E1,8.740582E-3,4.09179E-3,-1.8443844E-3,-3.8658467E-3,3.3220246E-3,1.6457774E-4,-5.219001E-3],"split_indices":[5,0,9,11,5,11,5,12,9,0,0,0,0,0,0,7,12,8,5,0,0,5,7,0,0,0,0,0,0,0,0,0,0,8,0,0,0,12,12,0,0,0,11,0,0,5,0,0,0,0,0,0,0],"split_type":[0,0,0,0,0,0,0,0,0,0,0,0,0,0,0,0,0,0,0,0,0,0,0,0,0,0,0,0,0,0,0,0,0,0,0,0,0,0,0,0,0,0,0,0,0,0,0,0,0,0,0,0,0],"sum_hessian":[5.874893E1,3.1949547E1,2.6799383E1,2.796297E1,3.9865777E0,1.7704533E1,9.0948515E0,1.21632185E1,1.5799752E1,1.6868519E0,2.2997258E0,1.0558602E0,1.6648672E1,6.7130475E0,2.3818045E0,9.799793E0,2.3634245E0,8.182581E0,7.617171E0,2.587804E0,1.4060868E1,4.4471664E0,2.2658808E0,1.6955651E0,8.104229E0,1.3489271E0,1.0144974E0,7.1681724E0,1.0144085E0,5.139109E0,2.478062E0,1.5290439E0,1.05876E0,3.2855184E0,1.161648E0,1.0585164E0,1.2073644E0,3.231624E0,3.9365487E0,2.4278176E0,2.7112913E0,1.0122861E0,2.2732325E0,1.2108654E0,2.0207584E0,2.2197127E0,1.7168359E0,1.259708E0,1.4515831E0,1.1623821E0,1.1108502E0,1.2100141E0,1.0096987E0],"tree_param":{"num_deleted":"0","num_feature":"13","num_nodes":"53","size_leaf_vector":"1"}},{"base_weights":[-1.9763385E-1,-7.959751E-1,5.542547E-1,3.8510833E-3,-8.877409E-1,8.507477E-1,-2.8226453E-1,-1.0710062E0,-4.5681748E-1,3.2116252E-1,1.1350098E0,-8.174957E-1,8.992589E-3,-1.1409602E-2,-9.5585576E-4,3.6785883E-1,-8.359402E-1,7.988494E-3,-4.1843392E-2,1.2255589E-2,3.3852132E-3,-2.4830791E-1,-1.1624895E-2,6.2993923E-3,-9.262683E-4,1.0836862E-1,-1.2677712E-2,6.5446394E-3,-3.3142206E-1,-4.497022E-3,9.753374E-4,7.150813E-3,-4.7447486E-3,-5.8179367E-3,3.1221383E-3],"categories":[],"categories_nodes":[],"categories_segments":[],"categories_sizes":[],"default_left":[0,0,0,0,0,0,0,0,0,0,0,0,0,0,0,0,0,0,0,0,0,0,0,0,0,0,0,0,0,0,0,0,0,0,0],"id":9,"left_children":[1,3,5,-1,7,9,11,13,15,17,19,21,-1,-1,-1,23,25,-1,27,-1,-1,29,-1,-1,-1,31,-1,-1,33,-1,-1,-1,-1,-1,-1],"loss_changes":[2.8238913E1,4.279146E0,7.3167105E0,0E0,1.8484421E0,2.6269007E0,6.456539E0,1.3257179E0,4.329565E0,1.689745E0,3.2438087E-1,8.654523E-1,0E0,0E0,0E0,6.834874E-1,3.8493228E0,0E0,1.696073E0,0E0,0E0,3.7244785E-1,0E0,0E0,0E0,1.9889841E0,0E0,0E0,1.2066426E0,0E0,0E0,0E0,0E0,0E0,0E0],"parents":[2147483647,0,0,1,1,2,2,4,4,5,5,6,6,7,7,8,8,9,9,10,10,11,11,15,15,16,16,18,18,21,21,25,25,28,28],"right_children":[2,4,6,-1,8,10,12,14,16,18,20,22,-1,-1,-1,24,26,-1,28,-1,-1,30,-1,-1,-1,32,-1,-1,34,-1,-1,-1,-1,-1,-1],"split_conditions":[3.7E1,5.2E-1,3.8E0,3.8510833E-3,1.2499996E0,6E0,1.13E2,8.2E0,1.5270268E0,2.3E0,1.03E0,5.6E1,8.992589E-3,-1.1409602E-2,-9.5585576E-4,6.9E0,2.9E0,7.988494E-3,4.1E1,1.2255589E-2,3.3852132E-3,4.3E1,-1.1624895E-2,6.2993923E-3,-9.262683E-4,2.5E1,-1.2677712E-2,6.5446394E-3,1.5818179E0,-4.497022E-3,9.753374E-4,7.150813E-3,-4.7447486E-3,-5.8179367E-3,3.1221383E-3],"split_indices":[5,9,8,0,12,7,6,7,12,8,9,5,0,0,0,7,8,0,6,0,0,5,0,0,0,5,0,0,12,0,0,0,0,0,0],"split_type":[0,0,0,0,0,0,0,0,0,0,0,0,0,0,0,0,0,0,0,0,0,0,0,0,0,0,0,0,0,0,0,0,0,0,0],"sum_hessian":[5.97981E1,3.3250175E1,2.6547926E1,2.0514727E0,3.1198702E1,1.9581879E1,6.9660473E0,2.032621E1,1.0872492E1,7.95545E0,1.1626429E1,5.1123147E0,1.8537326E0,1.8728495E1,1.5977157E0,3.4382021E0,7.43429E0,2.6574633E0,5.297987E0,9.71403E0,1.9123977E0,2.9027815E0,2.2095332E0,1.8393643E0,1.5988379E0,2.6854475E0,4.7488422E0,1.000984E0,4.2970033E0,1.5498104E0,1.3529712E0,1.1490325E0,1.5364151E0,3.1973655E0,1.0996376E0],"tree_param":{"num_deleted":"0","num_feature":"13","num_nodes":"35","size_leaf_vector":"1"}},{"base_weights":[4.062627E-2,-4.6457347E-1,8.546686E-1,-7.700494E-1,3.034323E-1,3.9573315E-1,1.1437517E0,-1.0972048E0,-3.6576205E-1,-2.270264E-1,8.081636E-1,1.0099191E-2,-1.2575845E-1,1.3124471E-2,1.6509749E-1,3.3442338E-3,-1.2504122E0,-8.548341E-1,8.719635E-2,3.1369573E-3,-5.0021523E-1,1.1264631E-2,-4.0146973E-4,-3.9782465E-1,4.83363E-3,-4.484464E-3,6.8515143E-3,-1.6898568E-3,-1.3589447E-2,-1.7744497E-3,-1.0596199E0,6.142991E-1,-6.624337E-1,-8.266199E-3,4.8483748E-4,9.5774286E-4,-5.700469E-1,-1.2667541E-2,-9.583992E-4,1.0235823E-2,-4.4797152E-2,-9.249191E-3,1.86499E-4,-9.8707555E-5,-7.5641433E-3,-5.1469896E-3,4.077099E-3],"categories":[],"categories_nodes":[],"categories_segments":[],"categories_sizes":[],"default_left":[0,0,0,0,0,0,0,0,0,0,0,0,0,0,0,0,0,0,0,0,0,0,0,0,0,0,0,0,0,0,0,0,0,0,0,0,0,0,0,0,0,0,0,0,0,0,0],"id":10,"left_children":[1,3,5,7,9,11,13,15,17,19,21,-1,23,-1,25,-1,27,29,31,-1,33,-1,-1,35,-1,-1,-1,-1,-1,-1,37,39,41,-1,-1,-1,43,-1,-1,-1,45,-1,-1,-1,-1,-1,-1],"loss_changes":[2.5731546E1,9.426557E0,2.4964123E0,3.1148605E0,3.5107784E0,3.8877258E0,1.9682713E0,3.869545E0,3.3946807E0,1.2787516E0,1.8287568E0,0E0,1.5440451E0,0E0,1.6600364E0,0E0,1.2599621E0,7.256727E-1,4.188232E0,0E0,1.0040706E0,0E0,0E0,5.970578E-1,0E0,0E0,0E0,0E0,0E0,0E0,8.7121105E-1,1.7128854E0,8.2321167E-1,0E0,0E0,0E0,4.8034835E-1,0E0,0E0,0E0,1.1168128E0,0E0,0E0,0E0,0E0,0E0,0E0],"parents":[2147483647,0,0,1,1,2,2,3,3,4,4,5,5,6,6,7,7,8,8,9,9,10,10,12,12,14,14,16,16,17,17,18,18,20,20,23,23,30,30,31,31,32,32,36,36,40,40],"right_children":[2,4,6,8,10,12,14,16,18,20,22,-1,24,-1,26,-1,28,30,32,-1,34,-1,-1,36,-1,-1,-1,-1,-1,-1,38,40,42,-1,-1,-1,44,-1,-1,-1,46,-1,-1,-1,-1,-1,-1],"split_conditions":[9E-1,3.5E1,2.8E0,1.81E2,1.99E2,1.1E0,5.75E2,1.28E2,6.2E0,4E1,7E0,1.0099191E-2,8.4E1,1.3124471E-2,8.6E0,3.3442338E-3,7E-1,1.99E2,2.6E1,3.1369573E-3,3E0,1.1264631E-2,-4.0146973E-4,8E-1,4.83363E-3,-4.484464E-3,6.8515143E-3,-1.6898568E-3,-1.3589447E-2,-1.7744497E-3,2.71E2,3.7E0,3.8E0,-8.266199E-3,4.8483748E-4,9.5774286E-4,5.6E0,-1.2667541E-2,-9.583992E-4,1.0235823E-2,4E0,-9.249191E-3,1.86499E-4,-9.8707555E-5,-7.5641433E-3,-5.1469896E-3,4.077099E-3],"split_indices":[10,5,2,4,4,10,4,4,7,5,7,0,5,0,2,0,2,4,5,0,11,0,0,3,0,0,0,0,0,0,4,11,11,0,0,0,7,0,0,0,11,0,0,0,0,0,0],"split_type":[0,0,0,0,0,0,0,0,0,0,0,0,0,0,0,0,0,0,0,0,0,0,0,0,0,0,0,0,0,0,0,0,0,0,0,0,0,0,0,0,0,0,0,0,0,0,0],"sum_hessian":[5.962028E1,3.718623E1,2.2434053E1,2.6601454E1,1.0584776E1,1.0043239E1,1.2390815E1,1.3282316E1,1.3319138E1,5.5632544E0,5.021522E0,3.9666386E0,6.0765996E0,1.01326E1,2.258215E0,1.112497E0,1.2169819E1,5.7643585E0,7.5547786E0,1.7926514E0,3.770603E0,3.2938008E0,1.727721E0,4.5601325E0,1.5164671E0,1.1307404E0,1.1274744E0,1.4597965E0,1.0710023E1,1.988047E0,3.7763119E0,4.5947633E0,2.960015E0,1.8878269E0,1.882776E0,1.3517565E0,3.2083762E0,2.7201588E0,1.0561529E0,2.3228285E0,2.2719347E0,1.7489599E0,1.2110552E0,1.1952342E0,2.0131419E0,1.0134102E0,1.2585245E0],"tree_param":{"num_deleted":"0","num_feature":"13","num_nodes":"47","size_leaf_vector":"1"}},{"base_weights":[-4.073065E-2,-3.6058247E-1,1.0985843E0,-5.818582E-1,9.557181E-1,1.3184079E-4,1.2543314E-2,-1.6369192E-1,-7.024829E-1,-1.0235915E-3,1.1363851E-2,-4.0362123E-1,3.3031914E-1,-8.4910566E-1,-1.12925746E-1,-7.195438E-1,1.7312741E-1,1.6643647E-4,4.2919716E-1,1.3302271E-1,-9.6341383E-1,3.3088776E-1,-1.0755911E-2,1.071311E-3,-9.953886E-3,-3.6786469E-3,7.2455923E-3,-6.7314104E-4,6.803418E-3,-3.5414824E-3,6.7286864E-3,-1.0828173E0,-3.9978404E-2,-2.4689923E-1,9.741591E-3,-1.06145866E-1,-1.1792439E-2,6.6717956E-3,-5.4249815E-3,-8.001363E-3,2.2981083E-1,-8.0297785E-3,6.8121543E-3,4.09155E-3,-9.879506E-4],"categories":[],"categories_nodes":[],"categories_segments":[],"categories_sizes":[],"default_left":[0,0,0,0,0,0,0,0,0,0,0,0,0,0,0,0,0,0,0,0,0,0,0,0,0,0,0,0,0,0,0,0,0,0,0,0,0,0,0,0,0,0,0,0,0],"id":11,"left_children":[1,3,5,7,9,-1,-1,11,13,-1,-1,15,17,19,21,23,25,-1,27,29,31,33,-1,-1,-1,-1,-1,-1,-1,-1,-1,35,37,39,-1,41,-1,-1,-1,-1,43,-1,-1,-1,-1],"loss_changes":[2.4378632E1,1.6006287E1,2.4564018E0,2.1239185E0,1.7160068E0,0E0,0E0,1.6398818E0,2.87113E0,0E0,0E0,1.7997575E0,1.3804251E-1,3.3021526E0,4.240908E0,1.5304637E0,1.6950737E0,0E0,5.158773E-1,1.4636143E0,2.6911087E0,2.9944103E0,0E0,0E0,0E0,0E0,0E0,0E0,0E0,0E0,0E0,1.8913002E0,2.1134157E0,1.5759315E0,0E0,2.8132765E0,0E0,0E0,0E0,0E0,2.8536308E-1,0E0,0E0,0E0,0E0],"parents":[2147483647,0,0,1,1,2,2,3,3,4,4,7,7,8,8,11,11,12,12,13,13,14,14,15,15,16,16,18,18,19,19,20,20,21,21,31,31,32,32,33,33,35,35,40,40],"right_children":[2,4,6,8,10,-1,-1,12,14,-1,-1,16,18,20,22,24,26,-1,28,30,32,34,-1,-1,-1,-1,-1,-1,-1,-1,-1,36,38,40,-1,42,-1,-1,-1,-1,44,-1,-1,-1,-1],"split_conditions":[1.3E0,6.2E1,2.6E1,8.33333E-1,5.689655E-1,1.3184079E-4,1.2543314E-2,7.8350514E-1,1.7368417E0,-1.0235915E-3,1.1363851E-2,3.7E1,6E-1,5.2E0,1.05E2,1.6E1,7.08333E-1,1.6643647E-4,6.8E0,1.1999992E0,1.7E0,5.7E1,-1.0755911E-2,1.071311E-3,-9.953886E-3,-3.6786469E-3,7.2455923E-3,-6.7314104E-4,6.803418E-3,-3.5414824E-3,6.7286864E-3,7E-1,4.1E1,6E-1,9.741591E-3,2.1E1,-1.1792439E-2,6.6717956E-3,-5.4249815E-3,-8.001363E-3,2.0631068E0,-8.0297785E-3,6.8121543E-3,4.09155E-3,-9.879506E-4],"split_indices":[3,5,5,12,12,0,0,12,12,0,0,5,10,7,6,6,12,0,7,12,2,6,0,0,0,0,0,0,0,0,0,2,6,10,0,5,0,0,0,0,12,0,0,0,0],"split_type":[0,0,0,0,0,0,0,0,0,0,0,0,0,0,0,0,0,0,0,0,0,0,0,0,0,0,0,0,0,0,0,0,0,0,0,0,0,0,0,0,0,0,0,0,0],"sum_hessian":[6.376799E1,5.0590466E1,1.3177526E1,4.4026382E1,6.564083E0,1.8577652E0,1.1319761E1,1.064818E1,3.33782E1,1.0521746E0,5.5119085E0,7.3519645E0,3.2962158E0,2.6201523E1,7.1766787E0,4.510107E0,2.8418574E0,1.2100391E0,2.0861766E0,2.7060187E0,2.3495504E1,5.5858684E0,1.59081E0,1.357944E0,3.152163E0,1.6865627E0,1.1552949E0,1.0695801E0,1.0165966E0,1.6936233E0,1.0123954E0,2.0576052E1,2.9194515E0,3.4296372E0,2.1562312E0,2.1320858E0,1.8443966E1,1.0086094E0,1.9108421E0,1.116371E0,2.3132663E0,1.115284E0,1.0168017E0,1.2586459E0,1.0546204E0],"tree_param":{"num_deleted":"0","num_feature":"13","num_nodes":"45","size_leaf_vector":"1"}},{"base_weights":[-5.9883203E-2,-4.7095004E-1,1.1509144E0,-8.452926E-1,2.8395134E-1,-5.260764E-4,1.2963269E-2,-9.957988E-1,1.824366E-2,2.2404717E-2,7.418141E-1,-1.355311E-1,-1.1424955E0,-6.3271743E-1,5.8799726E-1,-2.1849386E-1,7.01369E-3,1.14575215E-2,-5.4038647E-3,-9.458966E-3,4.3555868E-1,1.007196E-3,-1.2249736E0,-8.046753E-3,-8.651633E-4,-8.1705785E-4,8.5790185E-3,4.504523E-3,-3.9786902E-1,7.862431E-3,-9.2975056E-4,-1.3343668E0,-1.118521E-3,3.8901176E-3,-6.0101575E-1,-5.144885E-1,-1.4467554E-2,-1.04606515E-2,-1.1093822E-1,-1.0179351E-2,4.0418897E-3,3.0204135E-3,-4.451938E-3],"categories":[],"categories_nodes":[],"categories_segments":[],"categories_sizes":[],"default_left":[0,0,0,0,0,0,0,0,0,0,0,0,0,0,0,0,0,0,0,0,0,0,0,0,0,0,0,0,0,0,0,0,0,0,0,0,0,0,0,0,0,0,0],"id":12,"left_children":[1,3,5,7,9,-1,-1,11,13,15,17,19,21,23,25,27,-1,-1,-1,-1,29,-1,31,-1,-1,-1,-1,-1,33,-1,-1,35,-1,-1,37,39,-1,-1,41,-1,-1,-1,-1],"loss_changes":[3.233567E1,1.4022326E1,2.9877872E0,4.2767773E0,2.0287738E0,0E0,0E0,3.284998E0,2.904266E0,2.268079E0,4.133745E0,3.2846785E0,2.605854E0,2.4075043E-1,8.554363E-1,1.5097532E0,0E0,0E0,0E0,0E0,9.265154E-1,0E0,2.4859314E0,0E0,0E0,0E0,0E0,0E0,1.7816124E0,0E0,0E0,7.379379E-1,0E0,0E0,1.506252E0,2.8159008E0,0E0,0E0,9.3945944E-1,0E0,0E0,0E0,0E0],"parents":[2147483647,0,0,1,1,2,2,3,3,4,4,7,7,8,8,9,9,10,10,11,11,12,12,13,13,14,14,15,15,20,20,22,22,28,28,31,31,34,34,35,35,38,38],"right_children":[2,4,6,8,10,-1,-1,12,14,16,18,20,22,24,26,28,-1,-1,-1,-1,30,-1,32,-1,-1,-1,-1,-1,34,-1,-1,36,-1,-1,38,40,-1,-1,42,-1,-1,-1,-1],"split_conditions":[1.1E0,2.12E2,1.46E2,8E-1,6.1E1,-5.260764E-4,1.2963269E-2,7.741933E-1,3E0,7.5E0,7.4E0,5.177305E-1,1.28E2,9.374997E-1,1.81E2,2.8E0,7.01369E-3,1.14575215E-2,-5.4038647E-3,-9.458966E-3,1.82E2,1.007196E-3,1.9999989E0,-8.046753E-3,-8.651633E-4,-8.1705785E-4,8.5790185E-3,4.504523E-3,2.3E2,7.862431E-3,-9.2975056E-4,2E-1,-1.118521E-3,3.8901176E-3,3.3E0,1.79E2,-1.4467554E-2,-1.04606515E-2,1.473E0,-1.0179351E-2,4.0418897E-3,3.0204135E-3,-4.451938E-3],"split_indices":[3,4,4,10,5,0,0,12,11,7,7,12,4,12,4,11,0,0,0,0,4,0,12,0,0,0,0,0,4,0,0,3,0,0,11,4,0,0,12,0,0,0,0],"split_type":[0,0,0,0,0,0,0,0,0,0,0,0,0,0,0,0,0,0,0,0,0,0,0,0,0,0,0,0,0,0,0,0,0,0,0,0,0,0,0,0,0,0,0],"sum_hessian":[6.1834236E1,4.6846405E1,1.4987832E1,3.1196827E1,1.5649578E1,1.7188567E0,1.3268975E1,2.6370886E1,4.8259416E0,1.0961436E1,4.688142E0,4.262181E0,2.2108706E1,2.1750796E0,2.6508617E0,8.841676E0,2.11976E0,3.686417E0,1.0017246E0,1.3550041E0,2.9071767E0,1.3548529E0,2.0753853E1,1.1144043E0,1.0606754E0,1.0619093E0,1.5889524E0,1.3902295E0,7.4514465E0,1.3079541E0,1.5992228E0,1.8625288E1,2.1285641E0,1.2473791E0,6.2040677E0,3.2539878E0,1.5371301E1,2.3595645E0,3.844503E0,1.9973496E0,1.2566383E0,1.7844019E0,2.060101E0],"tree_param":{"num_deleted":"0","num_feature":"13","num_nodes":"43","size_leaf_vector":"1"}},{"base_weights":[8.096707E-2,-4.6523273E-1,1.0450602E0,-7.907174E-1,1.2224105E-1,6.9043525E-2,1.2067039E-2,-9.0868795E-1,-2.708826E-1,3.7101695E-1,-5.464308E-1,4.9847797E-3,-3.7183384E-3,-6.6605365E-1,-1.3361197E-2,-6.088551E-1,4.9402905E-3,-6.320367E-1,6.905445E-1,-8.408743E-3,9.0457243E-4,-8.9027566E-1,5.324058E-2,1.2007004E-3,-9.000695E-1,-7.973713E-3,-9.2106155E-4,1.8822701E-1,1.017381E-2,-1.7434525E-3,-1.0055828E-2,-5.725736E-3,6.4661545E-3,-7.77338E-4,-1.1557334E-2,-3.9412812E-3,4.6682897E-1,6.2134997E-3,1.8506892E-4],"categories":[],"categories_nodes":[],"categories_segments":[],"categories_sizes":[],"default_left":[0,0,0,0,0,0,0,0,0,0,0,0,0,0,0,0,0,0,0,0,0,0,0,0,0,0,0,0,0,0,0,0,0,0,0,0,0,0,0],"id":13,"left_children":[1,3,5,7,9,11,-1,13,15,17,19,-1,-1,21,-1,23,-1,25,27,-1,-1,29,31,-1,33,-1,-1,35,-1,-1,-1,-1,-1,-1,-1,-1,37,-1,-1],"loss_changes":[3.2032585E1,7.5994396E0,3.339693E0,1.18151E0,2.8322685E0,1.1700069E0,0E0,7.364769E-1,2.2127976E0,4.4911757E0,1.0006657E0,0E0,0E0,2.6083078E0,0E0,1.3079515E0,0E0,2.1791041E-1,1.3208728E0,0E0,0E0,7.340565E-1,2.469208E0,0E0,7.132678E-1,0E0,0E0,1.2010375E0,0E0,0E0,0E0,0E0,0E0,0E0,0E0,0E0,2.9748434E-1,0E0,0E0],"parents":[2147483647,0,0,1,1,2,2,3,3,4,4,5,5,7,7,8,8,9,9,10,10,13,13,15,15,17,17,18,18,21,21,22,22,24,24,27,27,36,36],"right_children":[2,4,6,8,10,12,-1,14,16,18,20,-1,-1,22,-1,24,-1,26,28,-1,-1,30,32,-1,34,-1,-1,36,-1,-1,-1,-1,-1,-1,-1,-1,38,-1,-1],"split_conditions":[9E-1,2.02E2,1.89E2,5.8E1,6E1,1.58E2,1.2067039E-2,7E-1,9E-1,1.8E1,9.11762E-1,4.9847797E-3,-3.7183384E-3,4.6E1,-1.3361197E-2,9.11762E-1,4.9402905E-3,3.12E2,2.71E2,-8.408743E-3,9.0457243E-4,7E-1,8E-1,1.2007004E-3,1.61E2,-7.973713E-3,-9.2106155E-4,8.7E-1,1.017381E-2,-1.7434525E-3,-1.0055828E-2,-5.725736E-3,6.4661545E-3,-7.77338E-4,-1.1557334E-2,-3.9412812E-3,4.1E0,6.2134997E-3,1.8506892E-4],"split_indices":[10,4,4,0,0,4,0,10,2,0,9,0,0,0,0,9,0,4,4,0,0,2,2,0,4,0,0,9,0,0,0,0,0,0,0,0,8,0,0],"split_type":[0,0,0,0,0,0,0,0,0,0,0,0,0,0,0,0,0,0,0,0,0,0,0,0,0,0,0,0,0,0,0,0,0,0,0,0,0,0,0],"sum_hessian":[5.794557E1,3.7484924E1,2.0460648E1,2.3787003E1,1.3697923E1,3.2112978E0,1.724935E1,1.847277E1,5.314232E0,1.047024E1,3.227683E0,1.5274843E0,1.6838135E0,1.4231548E1,4.241223E0,3.897964E0,1.4162678E0,2.175115E0,8.295124E0,1.8787009E0,1.3489821E0,1.0577664E1,3.653884E0,1.3643816E0,2.5335824E0,1.1176648E0,1.0574503E0,4.201565E0,4.0935597E0,1.9899949E0,8.587669E0,1.8039244E0,1.8499596E0,1.0647894E0,1.468793E0,1.158333E0,3.0432317E0,1.8326595E0,1.2105722E0],"tree_param":{"num_deleted":"0","num_feature":"13","num_nodes":"39","size_leaf_vector":"1"}},{"base_weights":[4.2887725E-2,-3.9866075E-1,1.0558434E0,-6.73511E-1,2.708315E-1,-8.481834E-4,1.2122905E0,-8.04268E-1,2.375711E-1,-6.5993166E-1,6.086908E-1,4.6470717E-1,1.3918086E-2,3.4103626E-3,-8.6991006E-1,6.004969E-3,-5.0398055E-3,-9.704343E-4,-9.228695E-3,9.263489E-1,1.6345352E-1,7.602303E-3,-1.4908719E-3,3.3666338E-3,-9.406319E-1,1.0906599E-2,2.8124305E-3,-2.4199855E-1,6.2222322E-3,-3.557254E-1,-1.0721425E0,3.6501952E-3,-6.384804E-3,-6.9799214E-3,-6.1251554E-3,-1.1231673E0,-1.944033E-3,3.8967328E-3,-4.509589E-3,-1.2516705E-2,-4.892197E-3],"categories":[],"categories_nodes":[],"categories_segments":[],"categories_sizes":[],"default_left":[0,0,0,0,0,0,0,0,0,0,0,0,0,0,0,0,0,0,0,0,0,0,0,0,0,0,0,0,0,0,0,0,0,0,0,0,0,0,0,0,0],"id":14,"left_children":[1,3,5,7,9,-1,11,13,15,17,19,21,-1,-1,23,-1,-1,-1,-1,25,27,-1,-1,-1,29,-1,-1,31,-1,33,35,-1,-1,-1,37,39,-1,-1,-1,-1,-1],"loss_changes":[2.8575459E1,8.480392E0,3.6122208E0,4.1046276E0,5.020959E0,0E0,1.3298817E0,2.577776E0,1.848125E0,5.260048E-1,1.3412118E0,1.1804371E0,0E0,0E0,2.8005848E0,0E0,0E0,0E0,0E0,1.9180346E-1,1.4235071E0,0E0,0E0,0E0,1.4386272E0,0E0,0E0,1.432102E0,0E0,8.363532E-1,5.9492874E-1,0E0,0E0,0E0,1.1434823E0,6.416187E-1,0E0,0E0,0E0,0E0,0E0],"parents":[2147483647,0,0,1,1,2,2,3,3,4,4,6,6,7,7,8,8,9,9,10,10,11,11,14,14,19,19,20,20,24,24,27,27,29,29,30,30,34,34,35,35],"right_children":[2,4,6,8,10,-1,12,14,16,18,20,22,-1,-1,24,-1,-1,-1,-1,26,28,-1,-1,-1,30,-1,-1,32,-1,34,36,-1,-1,-1,38,40,-1,-1,-1,-1,-1],"split_conditions":[8E-1,4.3E1,1.79E2,4E0,1.81E2,-8.481834E-4,1.3E0,5E-1,2.9E1,1.53E2,2.75E2,1.2E0,1.3918086E-2,3.4103626E-3,1.28E2,6.004969E-3,-5.0398055E-3,-9.704343E-4,-9.228695E-3,8.1E1,3.6E2,7.602303E-3,-1.4908719E-3,3.3666338E-3,2.1E1,1.0906599E-2,2.8124305E-3,9E-1,6.2222322E-3,1.6E1,1E0,3.6501952E-3,-6.384804E-3,-6.9799214E-3,1.88E2,3.4E0,-1.944033E-3,3.8967328E-3,-4.509589E-3,-1.2516705E-2,-4.892197E-3],"split_indices":[3,6,4,11,4,0,3,10,6,4,4,10,0,0,4,0,0,0,0,6,4,0,0,0,6,0,0,2,0,6,10,0,0,0,4,11,0,0,0,0,0],"split_type":[0,0,0,0,0,0,0,0,0,0,0,0,0,0,0,0,0,0,0,0,0,0,0,0,0,0,0,0,0,0,0,0,0,0,0,0,0,0,0,0,0],"sum_hessian":[6.097711E1,4.3099606E1,1.7877508E1,3.0549109E1,1.2550497E1,2.2390797E0,1.5638429E1,2.6868801E1,3.6803071E0,2.9616327E0,9.588864E0,4.0704484E0,1.156798E1,1.1153518E0,2.5753448E1,2.662544E0,1.017763E0,1.596822E0,1.3648106E0,4.650247E0,4.9386168E0,2.506016E0,1.5644325E0,1.1136189E0,2.463983E1,2.8805559E0,1.7696913E0,2.997893E0,1.9407237E0,5.5432105E0,1.909662E1,1.2314936E0,1.7663995E0,2.0456533E0,3.4975572E0,1.7651102E1,1.4455181E0,1.9492142E0,1.5483428E0,1.346092E1,4.1901817E0],"tree_param":{"num_deleted":"0","num_feature":"13","num_nodes":"41","size_leaf_vector":"1"}},{"base_weights":[2.669456E-3,-4.3902144E-1,8.5174257E-1,-6.0779077E-1,9.53263E-3,2.261656E-1,1.1030122E0,-9.301765E-1,-2.598501E-1,7.2049826E-1,-6.870914E-3,5.889524E-1,1.3260238E-2,-1.1155086E0,-1.7730428E-1,-9.3326235E-1,5.2646875E-2,-4.0099616E-3,1.108936E-2,8.925864E-3,4.0863932E-4,-5.076568E-1,-1.2416265E-2,4.7827316E-3,-5.66557E-1,-1.1785951E-2,-8.5702323E-4,-1.6888861E-1,9.240573E-3,-4.49766E-3,4.1352655E-3,-6.891424E-3,3.5972215E-4,-6.918452E-3,-8.0999907E-4,3.19193E-1,-1.0261776E-2,6.056821E-1,-2.395924E-1,4.3286599E-4,8.956477E-3,2.49498E-3,-6.6642854E-3],"categories":[],"categories_nodes":[],"categories_segments":[],"categories_sizes":[],"default_left":[0,0,0,0,0,0,0,0,0,0,0,0,0,0,0,0,0,0,0,0,0,0,0,0,0,0,0,0,0,0,0,0,0,0,0,0,0,0,0,0,0,0,0],"id":15,"left_children":[1,3,5,7,-1,9,11,13,15,17,-1,19,-1,21,23,25,27,-1,-1,-1,29,31,-1,-1,33,-1,-1,35,-1,-1,-1,-1,-1,-1,-1,37,-1,39,41,-1,-1,-1,-1],"loss_changes":[2.4056908E1,1.078556E1,3.0759459E0,3.9622736E0,0E0,4.4339356E0,5.7940483E-1,2.4146004E0,4.413881E0,3.2970407E0,0E0,1.3074548E0,0E0,2.2815132E-1,1.8410838E0,1.2244449E0,3.2277167E0,0E0,0E0,0E0,1.0213447E0,5.470736E-1,0E0,0E0,1.7230368E-1,0E0,0E0,6.195361E0,0E0,0E0,0E0,0E0,0E0,0E0,0E0,1.7914292E0,0E0,1.0709705E0,1.169367E0,0E0,0E0,0E0,0E0],"parents":[2147483647,0,0,1,1,2,2,3,3,5,5,6,6,7,7,8,8,9,9,11,11,13,13,14,14,15,15,16,16,20,20,21,21,24,24,27,27,35,35,37,37,38,38],"right_children":[2,4,6,8,-1,10,12,14,16,18,-1,20,-1,22,24,26,28,-1,-1,-1,30,32,-1,-1,34,-1,-1,36,-1,-1,-1,-1,-1,-1,-1,38,-1,40,42,-1,-1,-1,-1],"split_conditions":[9E-1,6.5E1,3.9E1,4.4E1,9.53263E-3,3.5E1,6.2E0,3.9E0,2E1,2.9E1,-6.870914E-3,5.7E0,1.3260238E-2,2.1E1,1E0,6.8E0,6.6E1,-4.0099616E-3,1.108936E-2,8.925864E-3,5.3E1,3E1,-1.2416265E-2,4.7827316E-3,2.7E1,-1.1785951E-2,-8.5702323E-4,6E1,9.240573E-3,-4.49766E-3,4.1352655E-3,-6.891424E-3,3.5972215E-4,-6.918452E-3,-8.0999907E-4,7E-1,-1.0261776E-2,4.9E1,5.3E1,4.3286599E-4,8.956477E-3,2.49498E-3,-6.6642854E-3],"split_indices":[10,5,0,0,0,0,7,11,5,5,0,7,0,5,1,7,0,0,0,0,0,0,0,0,5,0,0,0,0,0,0,0,0,0,0,10,0,0,0,0,0,0,0],"split_type":[0,0,0,0,0,0,0,0,0,0,0,0,0,0,0,0,0,0,0,0,0,0,0,0,0,0,0,0,0,0,0,0,0,0,0,0,0,0,0,0,0,0,0],"sum_hessian":[6.1151367E1,4.0702297E1,2.044907E1,3.7055683E1,3.6466131E0,6.6766324E0,1.3772437E1,1.7931303E1,1.9124382E1,4.5372734E0,2.139359E0,5.8194623E0,7.9529753E0,1.3809385E1,4.121917E0,5.1172695E0,1.40071125E1,1.154761E0,3.3825126E0,3.32775E0,2.4917123E0,3.6680973E0,1.0141289E1,1.4078237E0,2.7140932E0,3.5141969E0,1.6030728E0,1.2132097E1,1.8750147E0,1.1287007E0,1.3630116E0,2.4490116E0,1.2190857E0,1.6508515E0,1.0632417E0,8.330685E0,3.801413E0,5.423942E0,2.906742E0,2.4316404E0,2.992302E0,1.6450114E0,1.2617306E0],"tree_param":{"num_deleted":"0","num_feature":"13","num_nodes":"43","size_leaf_vector":"1"}},{"base_weights":[-6.4954296E-2,-6.300292E-1,5.777684E-1,-7.7277905E-1,3.9932477E-1,2.2062625E-1,1.1780465E0,-1.0146635E0,-4.5747563E-1,8.712686E-3,-2.2833052E-3,-4.8424292E-2,6.2987983E-1,1.313695E-2,2.7044301E-3,2.4871525E-4,-1.0993214E0,-3.7533112E-2,-6.735841E-1,5.84818E-1,-3.44186E-1,8.970115E-3,2.0291857E-1,-4.8570478E-1,-1.3703016E-2,2.6509964E-1,-6.620404E-3,-8.739142E-1,3.861345E-3,-1.0461034E-3,9.424567E-3,7.291482E-3,-7.615127E-1,-1.0563238E-1,4.8306435E-3,6.216038E-2,-1.1099728E-2,4.5618606E-1,-1.5398109E-3,-9.585143E-3,-8.398819E-4,-9.858828E-1,3.1099853E-3,2.8589207E-3,-4.285478E-3,5.5234544E-3,-3.8087969E-3,-6.898643E-4,7.938255E-3,-8.265642E-4,-1.1192875E0,-1.36098135E-2,-3.9506545E-3],"categories":[],"categories_nodes":[],"categories_segments":[],"categories_sizes":[],"default_left":[0,0,0,0,0,0,0,0,0,0,0,0,0,0,0,0,0,0,0,0,0,0,0,0,0,0,0,0,0,0,0,0,0,0,0,0,0,0,0,0,0,0,0,0,0,0,0,0,0,0,0,0,0],"id":16,"left_children":[1,3,5,7,9,11,13,15,17,-1,-1,19,21,-1,-1,-1,23,25,27,29,31,-1,33,35,-1,37,-1,39,-1,-1,-1,-1,41,43,-1,45,-1,47,-1,-1,-1,49,-1,-1,-1,-1,-1,-1,-1,-1,51,-1,-1],"loss_changes":[2.4090488E1,5.6374025E0,6.2801504E0,1.7013569E0,1.861784E0,2.396854E0,8.533621E-1,1.4982224E0,1.4485264E0,0E0,0E0,2.975627E0,7.0516324E-1,0E0,0E0,0E0,1.5531178E0,1.6152556E0,2.783123E0,1.4055313E0,5.6146183E0,0E0,5.2942413E-1,2.5058517E0,0E0,5.770109E-1,0E0,5.1276827E-1,0E0,0E0,0E0,0E0,2.486156E0,6.5461415E-1,0E0,1.4364853E0,0E0,8.6655146E-1,0E0,0E0,0E0,7.436309E-1,0E0,0E0,0E0,0E0,0E0,0E0,0E0,0E0,2.8943872E-1,0E0,0E0],"parents":[2147483647,0,0,1,1,2,2,3,3,4,4,5,5,6,6,7,7,8,8,11,11,12,12,16,16,17,17,18,18,19,19,20,20,22,22,23,23,25,25,27,27,32,32,33,33,35,35,37,37,41,41,50,50],"right_children":[2,4,6,8,10,12,14,16,18,-1,-1,20,22,-1,-1,-1,24,26,28,30,32,-1,34,36,-1,38,-1,40,-1,-1,-1,-1,42,44,-1,46,-1,48,-1,-1,-1,50,-1,-1,-1,-1,-1,-1,-1,-1,52,-1,-1],"split_conditions":[2.12E2,2.1E0,2.7E0,2.9E1,7.1E-1,5.8E1,6.14E2,2.6E0,3.6E1,8.712686E-3,-2.2833052E-3,2.57E2,8.7E-1,1.313695E-2,2.7044301E-3,2.4871525E-4,1E0,1.99E2,8E-1,2.5E1,2.8E1,8.970115E-3,3.6E0,1.02E0,-1.3703016E-2,3.4E1,-6.620404E-3,1.95E2,3.861345E-3,-1.0461034E-3,9.424567E-3,7.291482E-3,5.15E2,3.2E0,4.8306435E-3,1.79E2,-1.1099728E-2,3.1E1,-1.5398109E-3,-9.585143E-3,-8.398819E-4,3.3E1,3.1099853E-3,2.8589207E-3,-4.285478E-3,5.5234544E-3,-3.8087969E-3,-6.898643E-4,7.938255E-3,-8.265642E-4,1.2E0,-1.36098135E-2,-3.9506545E-3],"split_indices":[4,2,2,6,9,6,4,8,6,0,0,4,9,0,0,0,1,4,10,6,6,0,8,9,0,6,0,4,0,0,0,0,4,8,0,4,0,6,0,0,0,6,0,0,0,0,0,0,0,0,2,0,0],"split_type":[0,0,0,0,0,0,0,0,0,0,0,0,0,0,0,0,0,0,0,0,0,0,0,0,0,0,0,0,0,0,0,0,0,0,0,0,0,0,0,0,0,0,0,0,0,0,0,0,0,0,0,0,0],"sum_hessian":[6.3327507E1,3.371514E1,2.9612366E1,2.9937346E1,3.7777958E0,1.9852318E1,9.760048E0,1.505831E1,1.4879035E1,1.8240589E0,1.9537369E0,1.2775797E1,7.0765204E0,7.907117E0,1.8529313E0,1.2137455E0,1.3844564E1,5.6535535E0,9.225481E0,3.600638E0,9.1751585E0,3.337196E0,3.739324E0,5.524134E0,8.320431E0,4.3896246E0,1.2639287E0,7.9799466E0,1.2455349E0,1.592324E0,2.008314E0,2.2549105E0,6.9202485E0,2.2241096E0,1.5152146E0,3.6614456E0,1.8626887E0,2.9237056E0,1.4659191E0,6.918815E0,1.0611314E0,5.8231907E0,1.0970579E0,1.0829943E0,1.1411152E0,1.562548E0,2.0988975E0,1.611171E0,1.3125346E0,1.0620294E0,4.7611613E0,2.5809689E0,2.1801925E0],"tree_param":{"num_deleted":"0","num_feature":"13","num_nodes":"53","size_leaf_vector":"1"}},{"base_weights":[-1.6370598E-2,-5.6874496E-1,6.759377E-1,-7.41021E-1,6.1604637E-1,2.208547E-1,1.0814847E0,1.6546127E-3,-7.9256165E-1,-3.193203E-3,1.01921735E-2,-8.056346E-3,3.8281435E-1,1.1995333E-3,1.1717579E-2,7.5568847E-4,-8.529805E-1,-2.7314532E-3,5.097669E-1,-9.128297E-1,-3.1403777E-1,6.8124133E-1,-4.307595E-2,-9.427657E-3,-9.191683E-4,1.0227002E-1,-7.818383E-3,9.079739E-4,7.594972E-1,-5.731586E-3,4.867355E-3,5.404432E-3,-4.8902715E-3,2.1455184E-1,9.115583E-3,7.085069E-3,-3.9819637E-3],"categories":[],"categories_nodes":[],"categories_segments":[],"categories_sizes":[],"default_left":[0,0,0,0,0,0,0,0,0,0,0,0,0,0,0,0,0,0,0,0,0,0,0,0,0,0,0,0,0,0,0,0,0,0,0,0,0],"id":17,"left_children":[1,3,5,7,9,11,13,-1,15,-1,-1,-1,17,-1,-1,-1,19,-1,21,23,25,27,29,-1,-1,31,-1,-1,33,-1,-1,-1,-1,35,-1,-1,-1],"loss_changes":[2.5121433E1,8.137771E0,5.025158E0,1.7179356E0,2.5451415E0,3.0611262E0,1.0945816E0,0E0,1.7262154E0,0E0,0E0,0E0,1.4177704E0,0E0,0E0,0E0,5.108261E-1,0E0,1.2466581E0,4.9584007E-1,1.1330247E0,3.4808874E-1,1.6581485E0,0E0,0E0,1.4532627E0,0E0,0E0,4.0476322E-1,0E0,0E0,0E0,0E0,1.573251E0,0E0,0E0,0E0],"parents":[2147483647,0,0,1,1,2,2,3,3,4,4,5,5,6,6,8,8,12,12,16,16,18,18,19,19,20,20,21,21,22,22,25,25,28,28,33,33],"right_children":[2,4,6,8,10,12,14,-1,16,-1,-1,-1,18,-1,-1,-1,20,-1,22,24,26,28,30,-1,-1,32,-1,-1,34,-1,-1,-1,-1,36,-1,-1,-1],"split_conditions":[2.1E2,1.1E0,7E-1,2.2E0,3.9E1,1.2E1,2.7E0,1.6546127E-3,1.35E2,-3.193203E-3,1.01921735E-2,-8.056346E-3,2.4E0,1.1995333E-3,1.1717579E-2,7.5568847E-4,3.9E0,-2.7314532E-3,8E-1,1E0,4.2E0,2.3E1,9E-1,-9.427657E-3,-9.191683E-4,7E-1,-7.818383E-3,9.079739E-4,1E0,-5.731586E-3,4.867355E-3,5.404432E-3,-4.8902715E-3,4.6E1,9.115583E-3,7.085069E-3,-3.9819637E-3],"split_indices":[4,3,3,8,0,0,11,0,4,0,0,0,8,0,0,0,11,0,10,10,11,0,10,0,0,10,0,0,1,0,0,0,0,0,0,0,0],"split_type":[0,0,0,0,0,0,0,0,0,0,0,0,0,0,0,0,0,0,0,0,0,0,0,0,0,0,0,0,0,0,0,0,0,0,0,0,0],"sum_hessian":[6.26839E1,3.5014492E1,2.7669409E1,3.1060007E1,3.954485E0,1.4130171E1,1.3539239E1,1.4926289E0,2.9567377E1,1.2850665E0,2.6694183E0,1.11322E0,1.3016951E1,1.4618407E0,1.2077397E1,1.8994169E0,2.7667961E1,1.830659E0,1.1186292E1,2.3965948E1,3.7020116E0,8.272153E0,2.9141386E0,2.2907917E1,1.0580311E0,2.5789812E0,1.1230302E0,1.3472786E0,6.9248743E0,1.39535E0,1.5187886E0,1.5553875E0,1.0235938E0,2.2997258E0,4.6251483E0,1.1434995E0,1.1562263E0],"tree_param":{"num_deleted":"0","num_feature":"13","num_nodes":"37","size_leaf_vector":"1"}},{"base_weights":[-8.737566E-2,-4.6520776E-1,1.2009051E-2,-7.2953266E-1,7.188167E-2,-8.6516994E-1,4.4214824E-1,8.94443E-3,-1.9760044E-1,-6.007669E-4,-9.5618635E-1,-5.215066E-3,9.425845E-3,-4.1754612E-1,6.6523724E-3,5.690097E-3,-6.5611815E-3,-1.618618E-1,-1.0634384E0,3.721294E-3,-5.5106044E-1,-7.878446E-3,3.113303E-1,-1.1222758E-2,2.6894873E-4,3.2768254E-3,-6.922104E-1,4.850461E-3,-6.724147E-4,-9.2489874E-1,1.2315796E-1,-5.0503956E-3,-1.26259895E-2,2.9990014E-3,-1.3021822E-3],"categories":[],"categories_nodes":[],"categories_segments":[],"categories_sizes":[],"default_left":[0,0,0,0,0,0,0,0,0,0,0,0,0,0,0,0,0,0,0,0,0,0,0,0,0,0,0,0,0,0,0,0,0,0,0],"id":18,"left_children":[1,3,-1,5,7,9,11,-1,13,15,17,-1,-1,19,-1,-1,-1,21,23,-1,25,-1,27,-1,-1,-1,29,-1,-1,31,33,-1,-1,-1,-1],"loss_changes":[3.1947231E1,7.247842E0,0E0,5.9737034E0,4.2598114E0,2.4353828E0,2.9161315E0,0E0,3.2258835E0,2.2215092E0,2.1280785E0,0E0,0E0,1.6484375E0,0E0,0E0,0E0,1.8790082E0,1.6111546E0,0E0,1.7645087E0,0E0,3.1068984E-1,0E0,0E0,0E0,2.1393924E0,0E0,0E0,2.1300316E-1,2.2101799E-1,0E0,0E0,0E0,0E0],"parents":[2147483647,0,0,1,1,3,3,4,4,5,5,6,6,8,8,9,9,10,10,13,13,17,17,18,18,20,20,22,22,26,26,29,29,30,30],"right_children":[2,4,-1,6,8,10,12,-1,14,16,18,-1,-1,20,-1,-1,-1,22,24,-1,26,-1,28,-1,-1,-1,30,-1,-1,32,34,-1,-1,-1,-1],"split_conditions":[1.3E0,4.4E1,1.2009051E-2,1.7E0,2.6E0,6.4556956E-1,6.1E0,8.94443E-3,3.8E0,3E-1,7E-1,-5.215066E-3,9.425845E-3,9.189188E-1,6.6523724E-3,5.690097E-3,-6.5611815E-3,2.5E0,8.5E0,3.721294E-3,5.1E1,-7.878446E-3,6.9E0,-1.1222758E-2,2.6894873E-4,3.2768254E-3,1.38E2,4.850461E-3,-6.724147E-4,8.2E1,1.68E2,-5.0503956E-3,-1.26259895E-2,2.9990014E-3,-1.3021822E-3],"split_indices":[3,6,0,2,8,12,7,0,11,3,2,0,0,12,0,0,0,8,7,0,6,0,7,0,0,0,6,0,0,6,6,0,0,0,0],"split_type":[0,0,0,0,0,0,0,0,0,0,0,0,0,0,0,0,0,0,0,0,0,0,0,0,0,0,0,0,0,0,0,0,0,0,0],"sum_hessian":[6.2411625E1,4.8999264E1,1.341236E1,3.2477985E1,1.652128E1,2.9460005E1,3.0179784E0,3.2185059E0,1.3302774E1,2.9497843E0,2.6510221E1,1.0099784E0,2.008E0,1.1217454E1,2.0853207E0,1.6842294E0,1.2655549E0,3.6014075E0,2.2908813E1,1.2345972E0,9.982857E0,1.1210035E0,2.4804041E0,2.1694191E1,1.2146236E0,1.1072545E0,8.875603E0,1.411039E0,1.0693651E0,6.7482886E0,2.1273134E0,4.676872E0,2.0714173E0,1.0909196E0,1.0363938E0],"tree_param":{"num_deleted":"0","num_feature":"13","num_nodes":"35","size_leaf_vector":"1"}},{"base_weights":[-1.512236E-1,-6.4042777E-1,8.380142E-1,-7.867688E-1,8.4058745E-3,2.7875653E-1,1.2554567E-2,-1.7186722E-1,-9.4835883E-1,-1.6227745E-2,7.5987484E-3,5.818991E-1,-5.5533665E-1,-1.0176768E0,1.823491E-3,5.1194695E-3,-3.8338965E-1,1.1647578E-3,7.538938E-3,-9.327537E-1,1.9141689E-1,1.149929E-3,-1.08096E0,2.6558054E-4,-5.959921E-1,-2.3729529E-3,-1.0833663E-2,7.27782E-3,-4.8698178E-3,-1.1169806E-2,-8.162021E-4,-1.0150835E-3,-7.308334E-3],"categories":[],"categories_nodes":[],"categories_segments":[],"categories_sizes":[],"default_left":[0,0,0,0,0,0,0,0,0,0,0,0,0,0,0,0,0,0,0,0,0,0,0,0,0,0,0,0,0,0,0,0,0],"id":19,"left_children":[1,3,5,7,-1,9,-1,11,13,15,-1,17,19,21,-1,-1,23,-1,-1,25,27,-1,29,-1,31,-1,-1,-1,-1,-1,-1,-1,-1],"loss_changes":[2.9963898E1,9.914089E0,4.2812557E0,3.5550175E0,0E0,1.5409013E0,0E0,3.3143888E0,2.625742E0,1.8687961E0,0E0,1.9116735E-1,2.3128738E0,2.2255287E0,0E0,0E0,5.1590556E-1,0E0,0E0,1.4601183E-1,1.8709166E0,0E0,8.382702E-1,0E0,1.4092517E-1,0E0,0E0,0E0,0E0,0E0,0E0,0E0,0E0],"parents":[2147483647,0,0,1,1,2,2,3,3,5,5,7,7,8,8,9,9,11,11,12,12,13,13,16,16,19,19,20,20,22,22,24,24],"right_children":[2,4,6,8,-1,10,-1,12,14,16,-1,18,20,22,-1,-1,24,-1,-1,26,28,-1,30,-1,32,-1,-1,-1,-1,-1,-1,-1,-1],"split_conditions":[9E-1,6.4E1,1.6E0,8.33333E-1,8.4058745E-3,6.2E1,1.2554567E-2,2.4E1,2.314285E0,1.1E0,7.5987484E-3,6E-1,3.9E1,5.1E0,1.823491E-3,5.1194695E-3,3.6E1,1.1647578E-3,7.538938E-3,2.8E1,4.9E1,1.149929E-3,5E1,2.6558054E-4,9.090901E-1,-2.3729529E-3,-1.0833663E-2,7.27782E-3,-4.8698178E-3,-1.1169806E-2,-8.162021E-4,-1.0150835E-3,-7.308334E-3],"split_indices":[10,5,10,12,0,5,0,5,12,10,0,10,5,7,0,0,5,0,0,5,5,0,5,0,12,0,0,0,0,0,0,0,0],"split_type":[0,0,0,0,0,0,0,0,0,0,0,0,0,0,0,0,0,0,0,0,0,0,0,0,0,0,0,0,0,0,0,0,0],"sum_hessian":[5.875315E1,3.966612E1,1.9087032E1,3.6739033E1,2.9270856E0,9.227027E0,9.860006E0,8.289655E0,2.8449377E1,6.61849E0,2.6085365E0,2.5334983E0,5.7561564E0,2.694732E1,1.5020561E0,2.4715617E0,4.1469283E0,1.3624557E0,1.1710424E0,3.575463E0,2.1806936E0,1.361049E0,2.5586273E1,1.8644501E0,2.2824783E0,1.3242052E0,2.251258E0,1.1568542E0,1.0238395E0,2.4525682E1,1.0605907E0,1.0523925E0,1.2300857E0],"tree_param":{"num_deleted":"0","num_feature":"13","num_nodes":"33","size_leaf_vector":"1"}},{"base_weights":[8.6813524E-2,-3.4624907E-1,7.5578415E-1,-5.25158E-1,8.217175E-3,5.655999E-2,9.382477E-1,-2.5683296E-1,-1.0582352E0,-5.274608E-1,6.960516E-3,4.1323286E-1,1.19524645E-2,-4.875334E-1,2.070095E-1,1.2617478E-3,-1.2484425E0,-7.878487E-5,-7.220103E-3,7.4960095E-1,-2.723691E-1,-6.199676E-1,2.3221758E-1,-9.999228E-2,5.974128E-1,-4.7236815E-4,-1.393504E-2,-9.937434E-4,9.525908E-3,-7.0683053E-3,3.2088985E-3,-3.7984696E-1,-1.02792205E-2,-3.4566002E-3,7.063568E-3,-4.5933047E-1,5.2613085E-3,8.22999E-3,1.1088354E-4,-7.4628764E-1,2.0956078E-1,9.1028993E-4,-7.075568E-3,-7.6051574E-4,-1.0995346E-2,6.763011E-3,-2.9393276E-3],"categories":[],"categories_nodes":[],"categories_segments":[],"categories_sizes":[],"default_left":[0,0,0,0,0,0,0,0,0,0,0,0,0,0,0,0,0,0,0,0,0,0,0,0,0,0,0,0,0,0,0,0,0,0,0,0,0,0,0,0,0,0,0,0,0,0,0],"id":20,"left_children":[1,3,5,7,-1,9,11,13,15,17,-1,19,-1,21,23,-1,25,-1,-1,27,29,31,33,35,37,-1,-1,-1,-1,-1,-1,39,-1,-1,-1,41,-1,-1,-1,43,45,-1,-1,-1,-1,-1,-1],"loss_changes":[1.8056055E1,8.596081E0,3.0373344E0,4.4415903E0,0E0,3.0351133E0,1.8603477E0,2.7764883E0,2.6851902E0,4.2918253E-1,0E0,2.2960613E0,0E0,1.8202066E0,1.192435E0,0E0,1.5573015E0,0E0,0E0,1.2084227E0,1.35578E0,8.4681463E-1,1.381874E0,1.8104981E0,5.505053E-1,0E0,0E0,0E0,0E0,0E0,0E0,2.7366376E0,0E0,0E0,0E0,7.6464105E-1,0E0,0E0,0E0,1.6436849E0,1.6170619E0,0E0,0E0,0E0,0E0,0E0,0E0],"parents":[2147483647,0,0,1,1,2,2,3,3,5,5,6,6,7,7,8,8,9,9,11,11,13,13,14,14,16,16,19,19,20,20,21,21,22,22,23,23,24,24,31,31,35,35,39,39,40,40],"right_children":[2,4,6,8,-1,10,12,14,16,18,-1,20,-1,22,24,-1,26,-1,-1,28,30,32,34,36,38,-1,-1,-1,-1,-1,-1,40,-1,-1,-1,42,-1,-1,-1,44,46,-1,-1,-1,-1,-1,-1],"split_conditions":[8E-1,6.1E1,2.9E0,1.11E0,8.217175E-3,2.1E2,5.3E1,2.06E2,2.5E0,4.3E1,6.960516E-3,4E1,1.19524645E-2,1.09E0,4.6E1,1.2617478E-3,2.1E1,-7.878487E-5,-7.220103E-3,1.85E2,1.6E0,1.91E2,6.1E0,9.11762E-1,6.6E0,-4.7236815E-4,-1.393504E-2,-9.937434E-4,9.525908E-3,-7.0683053E-3,3.2088985E-3,2.5E1,-1.02792205E-2,-3.4566002E-3,7.063568E-3,2.8E1,5.2613085E-3,8.22999E-3,1.1088354E-4,1.9E1,2.9E1,9.1028993E-4,-7.075568E-3,-7.6051574E-4,-1.0995346E-2,6.763011E-3,-2.9393276E-3],"split_indices":[10,5,11,9,0,4,6,4,11,5,0,6,0,9,6,0,6,0,0,4,10,4,7,9,7,0,0,0,0,0,0,5,0,0,0,6,0,0,0,6,5,0,0,0,0,0,0],"split_type":[0,0,0,0,0,0,0,0,0,0,0,0,0,0,0,0,0,0,0,0,0,0,0,0,0,0,0,0,0,0,0,0,0,0,0,0,0,0,0,0,0,0,0,0,0,0,0],"sum_hessian":[5.947047E1,3.6539806E1,2.2930666E1,3.240202E1,4.1377873E0,5.1521025E0,1.7778563E1,2.3031683E1,9.370336E0,2.83019E0,2.3219125E0,7.1282854E0,1.0650277E1,1.5330279E1,7.7014046E0,1.3664571E0,8.003879E0,1.1962132E0,1.6339767E0,4.6881685E0,2.4401166E0,1.31235075E1,2.2067716E0,4.9358263E0,2.765578E0,1.0766823E0,6.927196E0,1.0523865E0,3.635782E0,1.2428124E0,1.1973044E0,1.0084473E1,3.0390346E0,1.1777719E0,1.0289997E0,3.389909E0,1.5459175E0,1.5599185E0,1.2056595E0,5.97223E0,4.112243E0,1.3489606E0,2.0409484E0,2.6904407E0,3.2817893E0,1.8668453E0,2.2453976E0],"tree_param":{"num_deleted":"0","num_feature":"13","num_nodes":"47","size_leaf_vector":"1"}},{"base_weights":[-4.5392364E-3,-4.2876816E-1,9.854829E-1,-7.485641E-1,2.1985039E-1,3.9676163E-1,1.3339258E-2,-9.42397E-1,-2.7170697E-1,8.136702E-1,-5.826057E-1,-4.7795694E-2,9.555514E-3,-6.513916E-4,-9.880087E-1,4.353721E-1,-5.31806E-1,1.9124176E-1,9.7711176E-1,3.4448265E-3,-8.368939E-1,5.548475E-3,-4.6600637E-1,-2.766671E-1,-1.0879431E0,6.9505763E-3,-7.454939E-4,-8.402583E-1,1.8996812E-1,-1.1669555E-3,3.72709E-3,1.1869058E-2,-1.5189864E-4,-1.1695276E-2,2.933973E-3,4.126314E-4,-8.767194E-3,-8.958356E-3,6.8910853E-3,-5.573831E-1,-1.2486966E0,-1.0234184E-2,-1.36803E-3,-1.1122945E-3,3.7321327E-3,-8.788952E-3,-7.717651E-2,-1.3769339E0,-3.9931087E-4,4.2726286E-3,-5.1547103E-3,-1.5898447E-2,-5.9945304E-3],"categories":[],"categories_nodes":[],"categories_segments":[],"categories_sizes":[],"default_left":[0,0,0,0,0,0,0,0,0,0,0,0,0,0,0,0,0,0,0,0,0,0,0,0,0,0,0,0,0,0,0,0,0,0,0,0,0,0,0,0,0,0,0,0,0,0,0,0,0,0,0,0,0],"id":21,"left_children":[1,3,5,7,9,11,-1,13,15,17,19,21,-1,-1,23,25,27,29,31,-1,33,-1,35,37,39,-1,-1,41,43,-1,-1,-1,-1,-1,-1,-1,-1,-1,-1,45,47,-1,-1,-1,-1,-1,49,51,-1,-1,-1,-1,-1],"loss_changes":[2.5026785E1,8.897018E0,2.873249E0,2.2290916E0,7.825779E0,2.2499945E0,0E0,6.834564E-1,2.2375982E0,6.5631104E-1,2.135478E0,1.9805022E0,0E0,0E0,8.5822487E-1,5.529628E-1,2.0626774E0,2.7645755E-1,1.469089E0,0E0,2.810556E0,0E0,1.0013347E0,3.485967E0,2.901802E-1,0E0,0E0,5.64878E-1,2.651222E-1,0E0,0E0,0E0,0E0,0E0,0E0,0E0,0E0,0E0,0E0,8.781713E-1,1.5910187E0,0E0,0E0,0E0,0E0,0E0,1.2566749E0,1.7874336E-1,0E0,0E0,0E0,0E0,0E0],"parents":[2147483647,0,0,1,1,2,2,3,3,4,4,5,5,7,7,8,8,9,9,10,10,11,11,14,14,15,15,16,16,17,17,18,18,20,20,22,22,23,23,24,24,27,27,28,28,39,39,40,40,46,46,47,47],"right_children":[2,4,6,8,10,12,-1,14,16,18,20,22,-1,-1,24,26,28,30,32,-1,34,-1,36,38,40,-1,-1,42,44,-1,-1,-1,-1,-1,-1,-1,-1,-1,-1,46,48,-1,-1,-1,-1,-1,50,52,-1,-1,-1,-1,-1],"split_conditions":[1E0,3.7E1,6.2E0,3E1,1.02E0,3.7E0,1.3339258E-2,5E-1,5.9E0,7.08333E-1,3.5E1,5.1E0,9.555514E-3,-6.513916E-4,7.735848E-1,1.7166663E0,3E-1,7.1E-1,6.9E0,3.4448265E-3,6.2E1,5.548475E-3,1.8E0,6.967741E-1,2.1E1,6.9505763E-3,-7.454939E-4,7.3E0,9.5E-1,-1.1669555E-3,3.72709E-3,1.1869058E-2,-1.5189864E-4,-1.1695276E-2,2.933973E-3,4.126314E-4,-8.767194E-3,-8.958356E-3,6.8910853E-3,1.8E1,7.4E0,-1.0234184E-2,-1.36803E-3,-1.1122945E-3,3.7321327E-3,-8.788952E-3,1.9E1,2.5E1,-3.9931087E-4,4.2726286E-3,-5.1547103E-3,-1.5898447E-2,-5.9945304E-3],"split_indices":[10,5,7,6,9,3,0,10,7,12,6,7,0,0,12,12,3,9,7,0,5,0,3,12,6,0,0,7,9,0,0,0,0,0,0,0,0,0,0,6,7,0,0,0,0,0,5,6,0,0,0,0,0],"split_type":[0,0,0,0,0,0,0,0,0,0,0,0,0,0,0,0,0,0,0,0,0,0,0,0,0,0,0,0,0,0,0,0,0,0,0,0,0,0,0,0,0,0,0,0,0,0,0,0,0,0,0,0,0],"sum_hessian":[5.657905E1,4.0202473E1,1.6376575E1,2.6771751E1,1.3430723E1,7.281657E0,9.094917E0,1.7993395E1,8.778356E0,7.7067466E0,5.7239766E0,4.8192763E0,2.4623811E0,1.0693114E0,1.6924084E1,2.0888934E0,6.689462E0,2.2798014E0,5.426945E0,1.1175503E0,4.6064262E0,1.7735326E0,3.0457437E0,2.7810528E0,1.4143031E1,1.0232073E0,1.0656862E0,4.514109E0,2.175353E0,1.0438539E0,1.2359474E0,4.236984E0,1.1899614E0,3.5188057E0,1.0876207E0,1.966379E0,1.0793647E0,1.7608083E0,1.0202445E0,4.8469276E0,9.2961035E0,3.040246E0,1.4738631E0,1.0458336E0,1.1295196E0,2.1572325E0,2.6896951E0,8.215806E0,1.0802976E0,1.268042E0,1.421653E0,5.2192345E0,2.9965713E0],"tree_param":{"num_deleted":"0","num_feature":"13","num_nodes":"53","size_leaf_vector":"1"}},{"base_weights":[-7.759186E-2,-5.6654626E-1,1.0287688E0,-7.367621E-1,5.257418E-1,4.4581944E-1,1.2747297E0,6.744964E-3,-8.0172926E-1,-2.8345468E-3,9.088925E-3,9.609702E-3,8.111474E-3,1.3363355E-2,2.3681866E-3,-9.729895E-1,-2.8100643E-1,4.2427698E-1,-5.011565E-3,4.1733454E-3,-1.0632463E0,-7.150408E-1,2.7180684E-1,6.942226E-3,-1.0388583E-3,4.203992E-4,-1.1193982E0,7.612187E-4,-1.0444101E0,6.142075E-1,-2.92466E-3,-1.170693E0,-2.5896784E-3,-1.3735877E-2,-9.613158E-5,8.074613E-3,9.140514E-4,-1.2111422E-2,-2.3445461E-3],"categories":[],"categories_nodes":[],"categories_segments":[],"categories_sizes":[],"default_left":[0,0,0,0,0,0,0,0,0,0,0,0,0,0,0,0,0,0,0,0,0,0,0,0,0,0,0,0,0,0,0,0,0,0,0,0,0,0,0],"id":22,"left_children":[1,3,5,7,9,11,13,-1,15,-1,-1,17,-1,-1,-1,19,21,23,-1,-1,25,27,29,-1,-1,-1,31,-1,33,35,-1,37,-1,-1,-1,-1,-1,-1,-1],"loss_changes":[3.4329838E1,8.735133E0,1.941761E0,4.347334E0,2.4911315E0,1.2774197E0,3.5003853E-1,0E0,2.939148E0,0E0,0E0,1.4213457E0,0E0,0E0,0E0,4.1356106E0,3.0278325E0,6.3357484E-1,0E0,0E0,1.7084389E0,1.891624E0,1.4485204E0,0E0,0E0,0E0,6.5605736E-1,0E0,1.6507125E0,3.2190073E-1,0E0,4.5742226E-1,0E0,0E0,0E0,0E0,0E0,0E0,0E0],"parents":[2147483647,0,0,1,1,2,2,3,3,4,4,5,5,6,6,8,8,11,11,15,15,16,16,17,17,20,20,21,21,22,22,26,26,28,28,29,29,31,31],"right_children":[2,4,6,8,10,12,14,-1,16,-1,-1,18,-1,-1,-1,20,22,24,-1,-1,26,28,30,-1,-1,-1,32,-1,34,36,-1,38,-1,-1,-1,-1,-1,-1,-1],"split_conditions":[1E0,8.6E1,2.8E0,4.5E0,5.6E1,5.8E1,8.02E2,6.744964E-3,2.18E2,-2.8345468E-3,9.088925E-3,4.1E1,8.111474E-3,1.3363355E-2,2.3681866E-3,5E-1,9E-1,6.9E0,-5.011565E-3,4.1733454E-3,1.35E2,2.8E1,3.9E0,6.942226E-3,-1.0388583E-3,4.203992E-4,5.8E1,7.612187E-4,3.3E1,8E-1,-2.92466E-3,8E-1,-2.5896784E-3,-1.3735877E-2,-9.613158E-5,8.074613E-3,9.140514E-4,-1.2111422E-2,-2.3445461E-3],"split_indices":[10,6,2,7,5,6,4,0,4,0,0,6,0,0,0,10,2,7,0,0,4,6,11,0,0,0,6,0,5,10,0,10,0,0,0,0,0,0,0],"split_type":[0,0,0,0,0,0,0,0,0,0,0,0,0,0,0,0,0,0,0,0,0,0,0,0,0,0,0,0,0,0,0,0,0,0,0,0,0,0,0],"sum_hessian":[6.0344826E1,4.2357063E1,1.7987762E1,3.7068718E1,5.288343E0,6.5893245E0,1.13984375E1,1.0120099E0,3.605671E1,1.8247844E0,3.4635587E0,3.7049677E0,2.884357E0,1.0352664E1,1.0457734E0,2.6152594E1,9.904117E0,2.1850367E0,1.5199311E0,1.2629035E0,2.488969E1,5.301513E0,4.6026034E0,1.1338876E0,1.051149E0,1.2215668E0,2.3668123E1,1.8973371E0,3.4041762E0,2.7818413E0,1.8207619E0,2.1826069E1,1.8420535E0,2.2100449E0,1.1941315E0,1.4347544E0,1.347087E0,2.0499952E1,1.3261174E0],"tree_param":{"num_deleted":"0","num_feature":"13","num_nodes":"39","size_leaf_vector":"1"}},{"base_weights":[-8.117224E-2,-3.7244767E-1,9.657006E-1,-5.437796E-1,8.823719E-1,1.0486759E0,1.5771921E-3,-4.707928E-3,-6.942695E-1,2.6686415E-3,1.0375617E-2,3.0465235E-3,1.1447775E-2,-4.883256E-1,2.8208855E-1,2.2956096E-1,-8.0918473E-1,1.1255828E-3,-7.776069E-3,7.7236765E-3,1.6932005E-2,6.9271233E-3,-4.105473E-3,-9.2688155E-1,2.1596426E-1,-7.679646E-3,3.7796205E-1,-1.3839519E-2,-6.854161E-1,8.756197E-3,-6.703392E-3,9.468815E-3,-2.8791422E-1,-7.767035E-1,2.6952924E-2,5.032266E-4,-4.8173345E-3,-4.8351404E-3,-1.27514815E-2,-4.6046553E-3,4.41213E-3],"categories":[],"categories_nodes":[],"categories_segments":[],"categories_sizes":[],"default_left":[0,0,0,0,0,0,0,0,0,0,0,0,0,0,0,0,0,0,0,0,0,0,0,0,0,0,0,0,0,0,0,0,0,0,0,0,0,0,0,0,0],"id":23,"left_children":[1,3,5,7,9,11,-1,13,15,-1,-1,-1,-1,17,19,21,23,-1,-1,-1,25,-1,-1,27,29,-1,31,-1,33,-1,-1,-1,35,37,39,-1,-1,-1,-1,-1,-1],"loss_changes":[1.9649984E1,1.1493483E1,6.9447994E-1,3.6473694E0,2.1436405E-1,3.6952305E-1,0E0,1.7788569E0,4.0139446E0,0E0,0E0,0E0,0E0,9.602593E-1,1.0290318E0,1.9269975E0,4.115902E0,0E0,0E0,0E0,2.3534703E0,0E0,0E0,1.7391968E0,3.4958153E0,0E0,2.5460987E0,0E0,1.4437733E0,0E0,0E0,0E0,2.821691E-1,1.8959332E0,1.0956007E0,0E0,0E0,0E0,0E0,0E0,0E0],"parents":[2147483647,0,0,1,1,2,2,3,3,4,4,5,5,7,7,8,8,13,13,14,14,15,15,16,16,20,20,23,23,24,24,26,26,28,28,32,32,33,33,34,34],"right_children":[2,4,6,8,10,12,-1,14,16,-1,-1,-1,-1,18,20,22,24,-1,-1,-1,26,-1,-1,28,30,-1,32,-1,34,-1,-1,-1,36,38,40,-1,-1,-1,-1,-1,-1],"split_conditions":[6.2E1,1.5E0,4E0,8.33333E-1,3.3E1,2.4E0,1.5771921E-3,3E0,2E-1,2.6686415E-3,1.0375617E-2,3.0465235E-3,1.1447775E-2,2.7E0,6.4556956E-1,1.6547617E0,2.314285E0,1.1255828E-3,-7.776069E-3,7.7236765E-3,7.1428555E-1,6.9271233E-3,-4.105473E-3,2.4E1,3.0999994E0,-7.679646E-3,3.6E0,-1.3839519E-2,4E0,8.756197E-3,-6.703392E-3,9.468815E-3,4.2E0,4.3E1,3E-1,5.032266E-4,-4.8173345E-3,-4.8351404E-3,-1.27514815E-2,-4.6046553E-3,4.41213E-3],"split_indices":[5,3,8,12,5,8,0,11,3,0,0,0,0,11,12,12,12,0,0,0,12,0,0,6,12,0,8,0,11,0,0,0,8,5,3,0,0,0,0,0,0],"split_type":[0,0,0,0,0,0,0,0,0,0,0,0,0,0,0,0,0,0,0,0,0,0,0,0,0,0,0,0,0,0,0,0,0,0,0,0,0,0,0,0,0],"sum_hessian":[6.1172016E1,4.861267E1,1.2559346E1,4.3520405E1,5.0922666E0,1.0984457E1,1.5748883E0,9.835488E0,3.3684917E1,1.846832E0,3.2454345E0,1.9720329E0,9.012424E0,3.2690077E0,6.5664806E0,3.56097E0,3.0123945E1,1.3601378E0,1.9088697E0,1.2976997E0,5.268781E0,1.9945441E0,1.5664259E0,2.7150585E1,2.9733598E0,1.1272855E0,4.1414957E0,6.931927E0,2.0218658E1,1.7150033E0,1.2583566E0,1.8919857E0,2.2495098E0,1.7801943E1,2.416717E0,1.2240121E0,1.0254977E0,1.3069449E1,4.7324924E0,1.0334518E0,1.3832653E0],"tree_param":{"num_deleted":"0","num_feature":"13","num_nodes":"41","size_leaf_vector":"1"}},{"base_weights":[-9.605929E-3,-4.844811E-1,9.1276085E-1,-6.06204E-1,4.7580025E-1,1.3413936E-2,1.0257207E0,-6.753674E-1,7.2014527E-3,-4.1986215E-3,8.408088E-3,-5.6198216E-3,6.4863064E-3,2.888968E-3,1.0824712E-2,5.6759898E-2,-7.864797E-1,-3.0611768E-1,7.348458E-3,-8.9660704E-1,-6.0212873E-2,1.5069738E-1,-6.7377496E-3,1.0974534E-2,-1.0028319E0,3.5035145E-1,-7.7815596E-3,-4.623623E-3,6.7807636E-3,5.305951E-3,-5.3840843E-3,-4.7049865E-1,-1.1976407E0,-3.762266E-3,7.3743365E-3,-7.763731E-3,3.8604506E-3,-1.3815348E-2,-1.849091E-3],"categories":[],"categories_nodes":[],"categories_segments":[],"categories_sizes":[],"default_left":[0,0,0,0,0,0,0,0,0,0,0,0,0,0,0,0,0,0,0,0,0,0,0,0,0,0,0,0,0,0,0,0,0,0,0,0,0,0,0],"id":24,"left_children":[1,3,5,7,9,11,13,15,-1,-1,-1,-1,-1,-1,-1,17,19,21,-1,23,25,27,-1,29,31,33,-1,-1,-1,-1,-1,35,37,-1,-1,-1,-1,-1,-1],"loss_changes":[2.855958E1,5.461528E0,2.231184E0,4.2927694E0,2.386589E0,2.0063262E0,3.5352325E-1,3.13311E0,0E0,0E0,0E0,0E0,0E0,0E0,0E0,1.9037558E0,2.5445023E0,1.0265673E0,0E0,2.7540874E0,2.156927E0,1.6171054E0,0E0,1.7014374E0,1.7926464E0,1.768114E0,0E0,0E0,0E0,0E0,0E0,2.8822882E0,2.9041405E0,0E0,0E0,0E0,0E0,0E0,0E0],"parents":[2147483647,0,0,1,1,2,2,3,3,4,4,5,5,6,6,7,7,15,15,16,16,17,17,19,19,20,20,21,21,23,23,24,24,25,25,31,31,32,32],"right_children":[2,4,6,8,10,12,14,16,-1,-1,-1,-1,-1,-1,-1,18,20,22,-1,24,26,28,-1,30,32,34,-1,-1,-1,-1,-1,36,38,-1,-1,-1,-1,-1,-1],"split_conditions":[7E-1,6.2E1,2.7E1,7.3E1,5.8823514E-1,1.1E0,7.3684174E-1,7.4999976E-1,7.2014527E-3,-4.1986215E-3,8.408088E-3,-5.6198216E-3,6.4863064E-3,2.888968E-3,1.0824712E-2,7.083332E-1,4E-1,6.2589926E-1,7.348458E-3,5.2E0,6E-1,5.5319136E-1,-6.7377496E-3,1.7166663E0,9.11762E-1,3.9E1,-7.7815596E-3,-4.623623E-3,6.7807636E-3,5.305951E-3,-5.3840843E-3,7E0,1.34E0,-3.762266E-3,7.3743365E-3,-7.763731E-3,3.8604506E-3,-1.3815348E-2,-1.849091E-3],"split_indices":[3,5,0,0,12,3,12,12,0,0,0,0,0,0,0,12,3,12,0,7,3,12,0,12,9,0,0,0,0,0,0,7,9,0,0,0,0,0,0],"split_type":[0,0,0,0,0,0,0,0,0,0,0,0,0,0,0,0,0,0,0,0,0,0,0,0,0,0,0,0,0,0,0,0,0,0,0,0,0,0,0],"sum_hessian":[6.218876E1,4.1523E1,2.066576E1,3.7342625E1,4.180374E0,2.493278E0,1.8172483E1,3.6191597E1,1.1510262E0,1.1450982E0,3.0352762E0,1.3989806E0,1.0942975E0,1.952895E0,1.6219587E1,4.865593E0,3.1326004E1,3.705454E0,1.160139E0,2.6895845E1,4.43016E0,2.0470996E0,1.6583544E0,2.9590282E0,2.3936817E1,3.3070145E0,1.1231456E0,1.0321664E0,1.0149333E0,1.5470684E0,1.4119598E0,7.7853613E0,1.6151455E1,1.1640623E0,2.1429522E0,5.8402033E0,1.9451579E0,1.3207039E1,2.9444158E0],"tree_param":{"num_deleted":"0","num_feature":"13","num_nodes":"39","size_leaf_vector":"1"}},{"base_weights":[3.959204E-2,-3.5958964E-1,8.674717E-1,-5.253971E-1,5.81169E-1,2.2796474E-1,1.1572115E-2,-9.598775E-1,-3.1367472E-1,8.8176817E-1,-5.0222473E-3,-7.5464877E-3,7.1916014E-1,-1.1440035E0,3.3020487E-3,1.4755921E-1,-4.6765202E-1,1.8963058E-3,1.0617325E-2,9.275774E-3,-1.4557196E-3,-3.9420184E-4,-1.2647607E-2,3.5204214E-1,-5.1006703E-3,-1.1405453E-2,-2.3303467E-1,6.321406E-1,-2.34778E-3,-6.1718285E-1,1.9162597E-1,7.591325E-3,1.3442583E-3,1.7633586E-1,-8.7273455E-1,6.482569E-1,-4.5206055E-1,-4.5861593E-3,7.078194E-3,-1.0614906E-2,4.0403867E-4,3.0638513E-4,7.914568E-3,-6.370768E-3,4.055606E-4],"categories":[],"categories_nodes":[],"categories_segments":[],"categories_sizes":[],"default_left":[0,0,0,0,0,0,0,0,0,0,0,0,0,0,0,0,0,0,0,0,0,0,0,0,0,0,0,0,0,0,0,0,0,0,0,0,0,0,0,0,0,0,0,0,0],"id":25,"left_children":[1,3,5,7,9,11,-1,13,15,17,-1,-1,19,21,-1,23,25,-1,-1,-1,-1,-1,-1,27,-1,-1,29,31,-1,33,35,-1,-1,37,39,41,43,-1,-1,-1,-1,-1,-1,-1,-1],"loss_changes":[2.11244E1,7.2015524E0,3.4534473E0,3.0018187E0,3.0058382E0,4.8419266E0,0E0,3.3154554E0,2.0544007E0,4.6686983E-1,0E0,0E0,1.3437197E0,1.3208094E0,0E0,1.3472131E0,2.9094315E0,0E0,0E0,0E0,0E0,0E0,0E0,1.3734794E0,0E0,0E0,3.0195332E0,1.7216969E-1,0E0,2.1578722E0,3.2081914E0,0E0,0E0,1.6892308E0,1.3467083E0,5.0548244E-1,4.7557908E-1,0E0,0E0,0E0,0E0,0E0,0E0,0E0,0E0],"parents":[2147483647,0,0,1,1,2,2,3,3,4,4,5,5,7,7,8,8,9,9,12,12,13,13,15,15,16,16,23,23,26,26,27,27,29,29,30,30,33,33,34,34,35,35,36,36],"right_children":[2,4,6,8,10,12,-1,14,16,18,-1,-1,20,22,-1,24,26,-1,-1,-1,-1,-1,-1,28,-1,-1,30,32,-1,34,36,-1,-1,38,40,42,44,-1,-1,-1,-1,-1,-1,-1,-1],"split_conditions":[1.7E0,7.5E1,3.9E1,3.1E1,2.784615E0,3.3E1,1.1572115E-2,4E0,8.33333E-1,2.8E1,-5.0222473E-3,-7.5464877E-3,3.8E1,2.6E0,3.3020487E-3,5.4E1,8.8571405E-1,1.8963058E-3,1.0617325E-2,9.275774E-3,-1.4557196E-3,-3.9420184E-4,-1.2647607E-2,5.2E1,-5.1006703E-3,-1.1405453E-2,2.3E1,7.4999976E-1,-2.34778E-3,2.1E1,3.8E0,7.591325E-3,1.3442583E-3,1.8E1,3.9E0,9.5121926E-1,1E0,-4.5861593E-3,7.078194E-3,-1.0614906E-2,4.0403867E-4,3.0638513E-4,7.914568E-3,-6.370768E-3,4.055606E-4],"split_indices":[2,6,0,0,12,5,0,11,12,0,0,0,0,11,0,5,12,0,0,0,0,0,0,0,0,0,5,12,0,6,8,0,0,6,11,12,2,0,0,0,0,0,0,0,0],"split_type":[0,0,0,0,0,0,0,0,0,0,0,0,0,0,0,0,0,0,0,0,0,0,0,0,0,0,0,0,0,0,0,0,0,0,0,0,0,0,0,0,0,0,0,0,0],"sum_hessian":[6.100559E1,4.1732E1,1.9273592E1,3.604193E1,5.690066E0,6.845204E0,1.2428388E1,1.0072149E1,2.5969784E1,4.672726E0,1.0173397E0,2.0132544E0,4.8319497E0,8.9627905E0,1.1093588E0,6.515459E0,1.9454325E1,1.5999466E0,3.0727797E0,3.8056903E0,1.0262594E0,1.0793638E0,7.883427E0,5.5017548E0,1.0137044E0,3.5321121E0,1.5922212E1,3.6457403E0,1.8560146E0,8.002823E0,7.919389E0,2.2769277E0,1.3688124E0,2.0627391E0,5.9400835E0,4.626618E0,3.2927709E0,1.0335879E0,1.0291513E0,4.7205877E0,1.2194954E0,1.213548E0,3.41307E0,2.0739598E0,1.2188112E0],"tree_param":{"num_deleted":"0","num_feature":"13","num_nodes":"45","size_leaf_vector":"1"}},{"base_weights":[1.2930243E-1,-2.920308E-1,8.735305E-1,-6.7892075E-1,1.08880624E-1,2.3425558E-1,1.1319192E-2,3.0899916E-2,-8.927606E-1,-5.13985E-1,5.270602E-1,8.295831E-1,-7.206838E-1,-7.4771983E-3,4.2385295E-1,-9.945679E-1,9.782979E-4,2.8606734E-1,-8.6832076E-1,8.371299E-1,-3.1581393E-1,-9.4273966E-4,1.0627036E-2,-1.2274905E-3,-8.681412E-3,8.015868E-3,-3.712342E-3,-1.1170799E0,-3.5561714E-1,-2.805592E-3,7.2369087E-3,7.38922E-4,-1.1209705E-2,1.6584429E-1,1.0505315E0,1.4529537E-3,-5.741501E-3,-1.337878E-2,-5.577988E-1,7.6238327E-3,-1.08445035E-2,-2.5767735E-3,4.9006585E-3,1.1993377E-2,3.493867E-3,-1.0377875E-1,-1.0158834E-2,-5.0457534E-3,4.341985E-3],"categories":[],"categories_nodes":[],"categories_segments":[],"categories_sizes":[],"default_left":[0,0,0,0,0,0,0,0,0,0,0,0,0,0,0,0,0,0,0,0,0,0,0,0,0,0,0,0,0,0,0,0,0,0,0,0,0,0,0,0,0,0,0,0,0,0,0,0,0],"id":26,"left_children":[1,3,5,7,9,11,-1,13,15,17,19,21,23,-1,25,27,-1,29,31,33,35,-1,-1,-1,-1,-1,-1,37,39,-1,-1,-1,-1,41,43,-1,-1,-1,45,-1,-1,-1,-1,-1,-1,47,-1,-1,-1],"loss_changes":[1.9561552E1,6.3428273E0,3.31645E0,3.176381E0,5.8824954E0,5.6516366E0,0E0,2.3819687E0,1.751708E0,2.981994E0,3.8776057E0,1.4100385E0,1.9411445E-1,0E0,1.9776695E0,5.448675E-1,0E0,1.2849333E0,1.7313251E0,1.1924343E0,6.81574E-1,0E0,0E0,0E0,0E0,0E0,0E0,3.0412865E-1,4.9437027E0,0E0,0E0,0E0,0E0,7.701395E-1,1.4552307E-1,0E0,0E0,0E0,1.0555106E0,0E0,0E0,0E0,0E0,0E0,0E0,1.3207778E0,0E0,0E0,0E0],"parents":[2147483647,0,0,1,1,2,2,3,3,4,4,5,5,7,7,8,8,9,9,10,10,11,11,12,12,14,14,15,15,17,17,18,18,19,19,20,20,27,27,28,28,33,33,34,34,38,38,45,45],"right_children":[2,4,6,8,10,12,-1,14,16,18,20,22,24,-1,26,28,-1,30,32,34,36,-1,-1,-1,-1,-1,-1,38,40,-1,-1,-1,-1,42,44,-1,-1,-1,46,-1,-1,-1,-1,-1,-1,48,-1,-1,-1],"split_conditions":[9E-1,3E1,3.9E1,1.9E1,3.7E1,3.5E1,1.1319192E-2,1.3E1,3.7E1,6E-1,3.9E0,3E1,1.3E0,-7.4771983E-3,7E-1,1.2903222E0,9.782979E-4,2.6E1,1.9E1,3.6E1,3.7E1,-9.4273966E-4,1.0627036E-2,-1.2274905E-3,-8.681412E-3,8.015868E-3,-3.712342E-3,4.6E1,1.4999993E0,-2.805592E-3,7.2369087E-3,7.38922E-4,-1.1209705E-2,6E-1,7E-1,1.4529537E-3,-5.741501E-3,-1.337878E-2,2.8E1,7.6238327E-3,-1.08445035E-2,-2.5767735E-3,4.9006585E-3,1.1993377E-2,3.493867E-3,2.5E1,-1.0158834E-2,-5.0457534E-3,4.341985E-3],"split_indices":[10,6,0,6,0,0,0,5,5,10,8,5,10,0,10,12,0,0,0,6,5,0,0,0,0,0,0,0,12,0,0,0,0,10,10,0,0,0,5,0,0,0,0,0,0,5,0,0,0],"split_type":[0,0,0,0,0,0,0,0,0,0,0,0,0,0,0,0,0,0,0,0,0,0,0,0,0,0,0,0,0,0,0,0,0,0,0,0,0,0,0,0,0,0,0,0,0,0,0,0,0],"sum_hessian":[5.9663456E1,3.8677944E1,2.0985514E1,1.9153833E1,1.952411E1,6.8638034E0,1.412171E1,4.73146E0,1.4422374E1,7.7046385E0,1.1819472E1,4.3492837E0,2.5145195E0,1.1327435E0,3.5987167E0,1.3072803E1,1.3495717E0,2.4536216E0,5.2510166E0,8.648249E0,3.1712239E0,1.0563534E0,3.2929301E0,1.0411892E0,1.4733303E0,2.4313545E0,1.1673621E0,1.0027651E1,3.0451512E0,1.3038177E0,1.149804E0,1.3347179E0,3.9162989E0,2.729122E0,5.9191265E0,1.3743961E0,1.7968278E0,5.6922164E0,4.335435E0,1.1744871E0,1.870664E0,1.3168377E0,1.4122843E0,4.0036135E0,1.9155129E0,3.1013887E0,1.2340461E0,1.8306638E0,1.2707248E0],"tree_param":{"num_deleted":"0","num_feature":"13","num_nodes":"49","size_leaf_vector":"1"}},{"base_weights":[3.5763554E-2,-2.7864772E-1,1.0867054E0,-3.435062E-1,8.205116E-3,3.8225675E-4,1.2456347E-2,-1.8689069E-1,-7.1189064E-1,-7.366652E-1,-4.3577634E-2,6.4797783E-3,-1.0099238E0,-1.1545761E-2,2.909482E-3,1.671468E-1,-3.2646003E-1,-1.4053095E-2,-5.2950674E-1,7.5810266E-1,-1.079186E-1,-4.84262E-1,1.0512578E-1,-8.800127E-1,2.0821027E-1,9.492631E-3,8.218503E-5,-5.109702E-1,3.622462E-1,4.6614668E-4,-6.1767745E-1,-3.6161563E-3,5.399189E-3,-2.4640906E-4,-1.0820874E-2,-5.0220184E-4,3.4331842E-3,1.9121082E-3,-8.284749E-3,8.185709E-3,-1.6317839E-3,-9.015812E-3,-5.7866314E-4],"categories":[],"categories_nodes":[],"categories_segments":[],"categories_sizes":[],"default_left":[0,0,0,0,0,0,0,0,0,0,0,0,0,0,0,0,0,0,0,0,0,0,0,0,0,0,0,0,0,0,0,0,0,0,0,0,0,0,0,0,0,0,0],"id":27,"left_children":[1,3,5,7,-1,-1,-1,9,11,13,15,-1,17,-1,-1,19,21,-1,23,25,27,29,31,33,35,-1,-1,37,39,-1,41,-1,-1,-1,-1,-1,-1,-1,-1,-1,-1,-1,-1],"loss_changes":[2.0886662E1,3.901049E0,2.3523865E0,2.5195484E0,0E0,0E0,0E0,2.7176814E0,6.4632826E0,3.5805979E0,1.836754E0,0E0,1.1024914E0,0E0,0E0,3.026492E0,9.6690035E-1,0E0,2.2606976E0,8.2843065E-1,2.8364575E0,7.40309E-1,1.2534394E0,9.0952635E-1,1.5458608E-1,0E0,0E0,1.9972467E0,1.9051546E0,0E0,1.1886013E0,0E0,0E0,0E0,0E0,0E0,0E0,0E0,0E0,0E0,0E0,0E0,0E0],"parents":[2147483647,0,0,1,1,2,2,3,3,7,7,8,8,9,9,10,10,12,12,15,15,16,16,18,18,19,19,20,20,21,21,22,22,23,23,24,24,27,27,28,28,30,30],"right_children":[2,4,6,8,-1,-1,-1,10,12,14,16,-1,18,-1,-1,20,22,-1,24,26,28,30,32,34,36,-1,-1,38,40,-1,42,-1,-1,-1,-1,-1,-1,-1,-1,-1,-1,-1,-1],"split_conditions":[1.3E0,6.1E2,1.75E2,1.18E0,8.205116E-3,3.8225675E-4,1.2456347E-2,2.9E0,7.999996E-1,1.2239685E0,1.1944441E0,6.4797783E-3,1.3E0,-1.1545761E-2,2.909482E-3,1E0,4E0,-1.4053095E-2,1.2499996E0,7E-1,8.6538446E-1,3.1E0,7.1E-1,1E0,1.81E2,9.492631E-3,8.218503E-5,6E-1,3.4E0,4.6614668E-4,9.11762E-1,-3.6161563E-3,5.399189E-3,-2.4640906E-4,-1.0820874E-2,-5.0220184E-4,3.4331842E-3,1.9121082E-3,-8.284749E-3,8.185709E-3,-1.6317839E-3,-9.015812E-3,-5.7866314E-4],"split_indices":[3,4,4,9,0,0,0,11,12,12,12,0,9,0,0,1,11,0,12,10,12,11,9,1,4,0,0,10,11,0,9,0,0,0,0,0,0,0,0,0,0,0,0],"split_type":[0,0,0,0,0,0,0,0,0,0,0,0,0,0,0,0,0,0,0,0,0,0,0,0,0,0,0,0,0,0,0,0,0,0,0,0,0,0,0,0,0,0,0],"sum_hessian":[6.033632E1,4.7290627E1,1.3045693E1,4.5629383E1,1.661244E0,1.9621158E0,1.1083578E1,3.3603943E1,1.202544E1,5.6643E0,2.7939642E1,1.8451414E0,1.0180299E1,3.894965E0,1.769335E0,1.6363705E1,1.1575937E1,4.0002737E0,6.180025E0,4.3607855E0,1.2002919E1,8.342548E0,3.233389E0,3.99336E0,2.186665E0,3.1571465E0,1.203639E0,6.3926215E0,5.6102977E0,1.8715051E0,6.471043E0,1.6811574E0,1.5522316E0,1.0847174E0,2.9086428E0,1.0742738E0,1.1123912E0,2.1762867E0,4.216335E0,2.5546935E0,3.055604E0,3.685969E0,2.7850742E0],"tree_param":{"num_deleted":"0","num_feature":"13","num_nodes":"43","size_leaf_vector":"1"}},{"base_weights":[-1.792179E-2,-2.4611665E-1,1.0127741E0,-6.8247086E-1,6.3034795E-2,1.1384002E0,-1.2618096E-3,-8.5942394E-1,2.794352E-1,2.9423216E-1,-6.470993E-1,2.2637846E-3,1.2721174E-2,2.6551625E-3,-9.86948E-1,4.8817825E-3,-3.9911736E-4,-1.0064118E-1,7.838749E-1,-1.1128197E-2,1.0768797E-1,-1.2299018E-2,-4.9840423E-1,-2.4696133E-1,4.6972865E-3,9.948325E-3,2.59713E-1,3.4996658E-3,-2.3332755E-3,9.888431E-2,-7.8573954E-1,2.3604174E-1,-6.366155E-1,6.8033775E-3,-3.1678593E-3,7.0428974E-3,-4.9797324E-3,2.9266294E-4,-1.00895865E-2,-3.366835E-3,4.3580455E-1,5.5850926E-4,-7.892276E-1,-8.225609E-4,5.7399455E-3,-1.2273223E-2,-2.507655E-3],"categories":[],"categories_nodes":[],"categories_segments":[],"categories_sizes":[],"default_left":[0,0,0,0,0,0,0,0,0,0,0,0,0,0,0,0,0,0,0,0,0,0,0,0,0,0,0,0,0,0,0,0,0,0,0,0,0,0,0,0,0,0,0,0,0,0,0],"id":28,"left_children":[1,3,5,7,9,11,-1,13,15,17,19,-1,-1,-1,21,-1,-1,23,25,-1,27,-1,29,31,-1,-1,33,-1,-1,35,37,39,41,-1,-1,-1,-1,-1,-1,-1,43,-1,45,-1,-1,-1,-1],"loss_changes":[1.5516745E1,7.338215E0,1.9272699E0,4.1876965E0,5.692546E0,9.0035725E-1,0E0,3.1704903E0,3.375913E-1,5.121271E0,3.1878457E0,0E0,0E0,0E0,1.1822643E0,0E0,0E0,1.4803728E0,9.0863895E-1,0E0,5.0526494E-1,0E0,1.5587196E0,2.7549736E0,0E0,0E0,1.6312401E0,0E0,0E0,1.9937613E0,1.106992E0,1.0319037E0,8.951571E-1,0E0,0E0,0E0,0E0,0E0,0E0,0E0,4.9424767E-1,0E0,1.0781236E0,0E0,0E0,0E0,0E0],"parents":[2147483647,0,0,1,1,2,2,3,3,4,4,5,5,7,7,8,8,9,9,10,10,14,14,17,17,18,18,20,20,22,22,23,23,26,26,29,29,30,30,31,31,32,32,40,40,42,42],"right_children":[2,4,6,8,10,12,-1,14,16,18,20,-1,-1,-1,22,-1,-1,24,26,-1,28,-1,30,32,-1,-1,34,-1,-1,36,38,40,42,-1,-1,-1,-1,-1,-1,-1,44,-1,46,-1,-1,-1,-1],"split_conditions":[6.5E1,3.9E1,8E0,4E0,1.11E0,2.6E1,-1.2618096E-3,2.5E0,3E1,3.3E1,6.9E0,2.2637846E-3,1.2721174E-2,2.6551625E-3,3.4E1,4.8817825E-3,-3.9911736E-4,7.2E1,8.8E-1,-1.1128197E-2,3.2E0,-1.2299018E-2,4.6E1,2.3E1,4.6972865E-3,9.948325E-3,5.3E1,3.4996658E-3,-2.3332755E-3,1.11E0,2.7E1,1.6E1,2.2E0,6.8033775E-3,-3.1678593E-3,7.0428974E-3,-4.9797324E-3,2.9266294E-4,-1.00895865E-2,-3.366835E-3,7.6E-1,5.5850926E-4,4.5E1,-8.225609E-4,5.7399455E-3,-1.2273223E-2,-2.507655E-3],"split_indices":[5,0,7,11,9,0,0,11,5,5,7,0,0,0,5,0,0,0,9,0,11,0,5,5,0,0,0,0,0,9,0,5,8,0,0,0,0,0,0,0,9,0,0,0,0,0,0],"split_type":[0,0,0,0,0,0,0,0,0,0,0,0,0,0,0,0,0,0,0,0,0,0,0,0,0,0,0,0,0,0,0,0,0,0,0,0,0,0,0,0,0,0,0,0,0,0,0],"sum_hessian":[6.2883022E1,5.2419273E1,1.0463747E1,2.0986446E1,3.1432827E1,9.424914E0,1.0388328E0,1.7860607E1,3.125841E0,2.4375446E1,7.0573807E0,1.7216694E0,7.7032447E0,1.6532764E0,1.620733E1,1.4107078E0,1.715133E0,1.4153234E1,1.0222214E1,3.9244094E0,3.1329713E0,9.304136E0,6.9031935E0,1.1940575E1,2.2126591E0,6.328344E0,3.8938694E0,1.8086333E0,1.3243378E0,2.5617754E0,4.341418E0,5.595683E0,6.3448915E0,2.0950794E0,1.79879E0,1.1377435E0,1.424032E0,1.2136261E0,3.1277916E0,1.1811552E0,4.414528E0,1.3175689E0,5.027323E0,1.0574383E0,3.3570895E0,1.7139119E0,3.3134108E0],"tree_param":{"num_deleted":"0","num_feature":"13","num_nodes":"47","size_leaf_vector":"1"}},{"base_weights":[-1.1768766E-2,-4.0721688E-1,8.6723214E-1,-7.215113E-1,2.5645047E-1,9.217697E-1,4.686929E-4,3.722461E-1,-8.4611166E-1,-3.810425E-1,4.3313318E-1,1.0116979E0,2.1006465E-1,8.439565E-3,-3.5947987E-3,1.3476463E-1,-1.0178899E0,-5.5350373E-3,1.5364867E-4,6.506559E-1,-1.6651632E-1,1.1399114E0,2.121437E-1,-3.5303694E-3,6.6861343E-3,-5.069548E-3,4.5456478E-1,-1.0766782E0,3.0740624E-4,9.751544E-4,7.780992E-1,2.2971197E-3,-5.0498163E-3,2.1029522E-3,1.2477617E0,-1.1396668E-3,3.9527244E-3,7.844925E-3,-6.1893294E-4,-3.5404968E-1,-1.1626549E0,9.1701335E-1,5.763445E-4,2.3897653E-3,1.3127599E-2,-7.5795124E-3,3.7342429E-3,-1.2611642E-2,-3.9947996E-1,1.0894142E-2,2.2282724E-3,-6.2196413E-3,7.827936E-4],"categories":[],"categories_nodes":[],"categories_segments":[],"categories_sizes":[],"default_left":[0,0,0,0,0,0,0,0,0,0,0,0,0,0,0,0,0,0,0,0,0,0,0,0,0,0,0,0,0,0,0,0,0,0,0,0,0,0,0,0,0,0,0,0,0,0,0,0,0,0,0,0,0],"id":29,"left_children":[1,3,5,7,9,11,-1,13,15,17,19,21,23,-1,-1,25,27,-1,-1,29,31,33,35,-1,-1,-1,37,39,-1,-1,41,-1,-1,-1,43,-1,-1,-1,-1,45,47,49,-1,-1,-1,-1,-1,-1,51,-1,-1,-1,-1],"loss_changes":[2.216149E1,9.443422E0,8.2057667E-1,4.5900707E0,1.9628474E0,8.63678E-1,0E0,1.88117E0,4.853178E0,2.9324192E-1,1.8094287E0,1.2784672E0,1.3780358E0,0E0,0E0,1.4610794E0,1.5074234E0,0E0,0E0,5.6086874E-1,7.849057E-1,9.553089E-1,3.097639E-1,0E0,0E0,0E0,8.2568276E-1,7.7630997E-1,0E0,0E0,6.777172E-1,0E0,0E0,0E0,2.9995537E-1,0E0,0E0,0E0,0E0,1.7591386E0,7.0212364E-1,3.8272047E-1,0E0,0E0,0E0,0E0,0E0,0E0,5.420264E-1,0E0,0E0,0E0,0E0],"parents":[2147483647,0,0,1,1,2,2,3,3,4,4,5,5,7,7,8,8,9,9,10,10,11,11,12,12,15,15,16,16,19,19,20,20,21,21,22,22,26,26,27,27,30,30,34,34,39,39,40,40,41,41,48,48],"right_children":[2,4,6,8,10,12,-1,14,16,18,20,22,24,-1,-1,26,28,-1,-1,30,32,34,36,-1,-1,-1,38,40,-1,-1,42,-1,-1,-1,44,-1,-1,-1,-1,46,48,50,-1,-1,-1,-1,-1,-1,52,-1,-1,-1,-1],"split_conditions":[7E-1,2.12E2,1.39E0,1.35E2,2E-1,2.874998E0,4.686929E-4,1.3333328E0,7.741933E-1,7E-1,1.02E0,6.3E2,2.28E2,8.439565E-3,-3.5947987E-3,2.6E0,1.9999989E0,-5.5350373E-3,1.5364867E-4,1E0,9.661015E-1,1E0,8.02E2,-3.5303694E-3,6.6861343E-3,-5.069548E-3,1.02E0,2.8E0,3.0740624E-4,9.751544E-4,1.4E0,2.2971197E-3,-5.0498163E-3,2.1029522E-3,5.8241755E-1,-1.1396668E-3,3.9527244E-3,7.844925E-3,-6.1893294E-4,2.4E0,1.4E0,3.4E0,5.763445E-4,2.3897653E-3,1.3127599E-2,-7.5795124E-3,3.7342429E-3,-1.2611642E-2,1.81E2,1.0894142E-2,2.2282724E-3,-6.2196413E-3,7.827936E-4],"split_indices":[3,4,9,4,3,12,0,12,12,2,9,4,4,0,0,8,12,0,0,1,12,1,4,0,0,0,9,8,0,0,2,0,0,0,12,0,0,0,0,8,9,8,0,0,0,0,0,0,4,0,0,0,0],"split_type":[0,0,0,0,0,0,0,0,0,0,0,0,0,0,0,0,0,0,0,0,0,0,0,0,0,0,0,0,0,0,0,0,0,0,0,0,0,0,0,0,0,0,0,0,0,0,0,0,0,0,0,0,0],"sum_hessian":[6.0731903E1,4.244271E1,1.828919E1,2.871388E1,1.3728832E1,1.697526E1,1.3139296E0,2.6316507E0,2.608223E1,2.6027644E0,1.1126067E1,1.4509613E1,2.4656472E0,1.4602361E0,1.1714146E0,3.935158E0,2.2147072E1,1.3994628E0,1.2033017E0,8.070797E0,3.0552704E0,1.1954164E1,2.5554492E0,1.2615739E0,1.2040734E0,1.0168614E0,2.9182966E0,2.0933382E1,1.2136887E0,2.00711E0,6.063687E0,1.6295676E0,1.4257028E0,1.7026854E0,1.0251478E1,1.1226931E0,1.4327561E0,1.3057003E0,1.6125963E0,3.042056E0,1.7891327E1,4.7404575E0,1.3232291E0,1.0451726E0,9.2063055E0,1.9156334E0,1.1264226E0,1.4979069E1,2.9122577E0,3.1132684E0,1.6271894E0,1.6780608E0,1.234197E0],"tree_param":{"num_deleted":"0","num_feature":"13","num_nodes":"53","size_leaf_vector":"1"}},{"base_weights":[-1.5127122E-2,-4.3487197E-1,8.362979E-1,-7.6028645E-1,1.7245793E-1,2.913183E-1,1.1068777E0,2.2012289E-1,-8.592604E-1,-5.5222124E-1,4.936484E-1,-1.9769733E-1,9.445931E-3,1.2998696E-2,7.162238E-2,-5.739464E-4,3.663987E-3,-6.1385628E-2,-9.7314876E-1,-7.866841E-3,8.4915996E-4,6.316675E-1,-2.8068605E-3,-8.324421E-3,2.5924715E-1,-1.8259574E-3,2.7099773E-3,-3.5121557E-1,3.7194483E-3,-1.0375682E0,5.0907047E-4,9.1685104E-1,-1.2890176E-1,7.863364E-3,-3.44238E-3,-4.632126E-3,-3.707325E-4,-1.0741273E0,-2.3656082E-3,1.09738875E-2,-3.9362142E-4,-5.39909E-3,3.788927E-3,-1.1536986E-2,-4.1180995E-1,-3.7294324E-4,-6.1015883E-3],"categories":[],"categories_nodes":[],"categories_segments":[],"categories_sizes":[],"default_left":[0,0,0,0,0,0,0,0,0,0,0,0,0,0,0,0,0,0,0,0,0,0,0,0,0,0,0,0,0,0,0,0,0,0,0,0,0,0,0,0,0,0,0,0,0,0,0],"id":30,"left_children":[1,3,5,7,9,11,13,15,17,19,21,23,-1,-1,25,-1,-1,27,29,-1,-1,31,-1,-1,33,-1,-1,35,-1,37,-1,39,41,-1,-1,-1,-1,43,-1,-1,-1,-1,-1,-1,45,-1,-1],"loss_changes":[2.2165825E1,8.3999E0,2.5376825E0,2.933114E0,4.0640798E0,3.1021047E0,2.4888115E0,1.8164858E-1,2.1917267E0,9.263972E-1,1.5134766E0,2.1487532E0,0E0,0E0,2.5945738E-1,0E0,0E0,7.9087436E-1,1.5218983E0,0E0,0E0,2.426241E0,0E0,0E0,1.9336121E0,0E0,0E0,1.0125041E-1,0E0,2.2341919E-1,0E0,1.3985367E0,1.1714603E0,0E0,0E0,0E0,0E0,3.0553627E-1,0E0,0E0,0E0,0E0,0E0,0E0,2.9307562E-1,0E0,0E0],"parents":[2147483647,0,0,1,1,2,2,3,3,4,4,5,5,6,6,7,7,8,8,9,9,10,10,11,11,14,14,17,17,18,18,21,21,24,24,27,27,29,29,31,31,32,32,37,37,44,44],"right_children":[2,4,6,8,10,12,14,16,18,20,22,24,-1,-1,26,-1,-1,28,30,-1,-1,32,-1,-1,34,-1,-1,36,-1,38,-1,40,42,-1,-1,-1,-1,44,-1,-1,-1,-1,-1,-1,46,-1,-1],"split_conditions":[8E-1,2.08E2,4E1,1.35E2,2.3E1,2.4E0,6.3E2,3.4E0,8.7E-1,3.56E2,4.3E0,1.79E2,9.445931E-3,1.2998696E-2,3.3E0,-5.739464E-4,3.663987E-3,6.4E0,6.7E1,-7.866841E-3,8.4915996E-4,6E1,-2.8068605E-3,-8.324421E-3,3.7E1,-1.8259574E-3,2.7099773E-3,1.66E2,3.7194483E-3,1.51E0,5.0907047E-4,6E-1,6.6E1,7.863364E-3,-3.44238E-3,-4.632126E-3,-3.707325E-4,4E-1,-2.3656082E-3,1.09738875E-2,-3.9362142E-4,-5.39909E-3,3.788927E-3,-1.1536986E-2,3.7E0,-3.7294324E-4,-6.1015883E-3],"split_indices":[3,4,0,4,0,3,4,8,9,4,8,4,0,0,3,0,0,7,0,0,0,0,0,0,0,0,0,4,0,9,0,3,0,0,0,0,0,3,0,0,0,0,0,0,8,0,0],"split_type":[0,0,0,0,0,0,0,0,0,0,0,0,0,0,0,0,0,0,0,0,0,0,0,0,0,0,0,0,0,0,0,0,0,0,0,0,0,0,0,0,0,0,0,0,0,0,0],"sum_hessian":[5.8996464E1,4.000716E1,1.8989304E1,2.5803541E1,1.4203618E1,7.3335776E0,1.16557255E1,2.1976938E0,2.3605846E1,4.030637E0,1.0172981E1,4.7923083E0,2.5412695E0,9.501124E0,2.154601E0,1.073144E0,1.12455E0,3.2369616E0,2.0368885E1,2.6890182E0,1.3416184E0,8.86859E0,1.3043903E0,1.4899591E0,3.302349E0,1.002536E0,1.152065E0,2.1099696E0,1.1269921E0,1.914477E1,1.2241162E0,6.2259026E0,2.642688E0,1.5201492E0,1.7821999E0,1.0307082E0,1.0792613E0,1.7819983E1,1.3247865E0,5.050822E0,1.1750807E0,1.4081064E0,1.2345815E0,1.4915194E1,2.904789E0,1.6227686E0,1.2820204E0],"tree_param":{"num_deleted":"0","num_feature":"13","num_nodes":"47","size_leaf_vector":"1"}},{"base_weights":[8.160876E-2,-3.8474903E-1,6.177626E-1,-5.195404E-1,9.285405E-3,-3.9590794E-1,8.0217564E-1,-6.450796E-1,1.663714E-1,-8.564927E-1,4.3292115E-3,8.6899984E-1,2.0995997E-1,4.149423E-3,-7.2060233E-1,-7.2828326E-3,5.907062E-1,-1.1129142E-2,-5.9859717E-4,4.1562656E-1,1.052305E0,5.9729177E-3,-4.0700003E-3,-1.17137596E-1,-8.885725E-1,-4.087514E-4,9.13224E-3,1.1663929E-2,-7.5942403E-1,4.4004893E-1,1.3035129E-2,7.30405E-3,-6.7242634E-1,-1.0586824E0,-1.6755542E-1,-9.79051E-3,-6.48244E-4,7.310883E-1,-3.245874E-3,-9.895474E-3,-1.193743E-1,-1.2814258E-2,-4.5518187E-1,4.3102494E-3,-4.9078286E-1,-9.812358E-4,9.733008E-3,-5.3014103E-3,3.4226526E-3,-7.5329146E-3,-9.382721E-4,-3.4505627E-4,-7.702106E-3],"categories":[],"categories_nodes":[],"categories_segments":[],"categories_sizes":[],"default_left":[0,0,0,0,0,0,0,0,0,0,0,0,0,0,0,0,0,0,0,0,0,0,0,0,0,0,0,0,0,0,0,0,0,0,0,0,0,0,0,0,0,0,0,0,0,0,0,0,0,0,0,0,0],"id":31,"left_children":[1,3,5,7,-1,9,11,13,15,17,-1,19,21,-1,23,-1,25,-1,-1,27,29,-1,-1,31,33,-1,-1,-1,35,37,-1,-1,39,41,43,-1,-1,45,-1,-1,47,-1,49,-1,51,-1,-1,-1,-1,-1,-1,-1,-1],"loss_changes":[1.5823259E1,6.743404E0,5.9630785E0,2.8994703E0,0E0,2.664239E0,7.286892E-1,2.625228E0,2.9658568E0,7.28039E-1,0E0,1.1957722E0,1.4510267E0,0E0,2.4722185E0,0E0,1.069248E0,0E0,0E0,9.175389E0,1.4294319E0,0E0,0E0,4.2069798E0,2.1938457E0,0E0,0E0,0E0,5.723698E-1,1.8237897E0,0E0,0E0,7.4110603E-1,1.2685642E0,1.4028375E0,0E0,0E0,1.1954148E0,0E0,0E0,9.574672E-1,0E0,6.0765207E-1,0E0,5.140642E-1,0E0,0E0,0E0,0E0,0E0,0E0,0E0,0E0],"parents":[2147483647,0,0,1,1,2,2,3,3,5,5,6,6,7,7,8,8,9,9,11,11,12,12,14,14,16,16,19,19,20,20,23,23,24,24,28,28,29,29,32,32,33,33,34,34,37,37,40,40,42,42,44,44],"right_children":[2,4,6,8,-1,10,12,14,16,18,-1,20,22,-1,24,-1,26,-1,-1,28,30,-1,-1,32,34,-1,-1,-1,36,38,-1,-1,40,42,44,-1,-1,46,-1,-1,48,-1,50,-1,52,-1,-1,-1,-1,-1,-1,-1,-1],"split_conditions":[2.1E2,6.5E1,2.3E1,6.3E1,9.285405E-3,5.8E1,6.3E1,2.3E0,1.49E2,7.4E0,4.3292115E-3,4E1,7E0,4.149423E-3,8.2758594E-1,-7.2828326E-3,2E1,-1.1129142E-2,-5.9859717E-4,3.5E1,6.2E0,5.9729177E-3,-4.0700003E-3,2.8E1,3.5E1,-4.087514E-4,9.13224E-3,1.1663929E-2,8.9E1,6.1E2,1.3035129E-2,7.30405E-3,3.7E1,1.4210522E0,3.9E1,-9.79051E-3,-6.48244E-4,2.5E1,-3.245874E-3,-9.895474E-3,6.8789804E-1,-1.2814258E-2,3.7E1,4.3102494E-3,6.5E0,-9.812358E-4,9.733008E-3,-5.3014103E-3,3.4226526E-3,-7.5329146E-3,-9.382721E-4,-3.4505627E-4,-7.702106E-3],"split_indices":[4,5,0,0,0,5,0,11,4,7,0,0,7,0,12,0,5,0,0,0,7,0,0,5,5,0,0,0,5,4,0,0,5,12,5,0,0,5,0,0,12,0,0,0,7,0,0,0,0,0,0,0,0],"split_type":[0,0,0,0,0,0,0,0,0,0,0,0,0,0,0,0,0,0,0,0,0,0,0,0,0,0,0,0,0,0,0,0,0,0,0,0,0,0,0,0,0,0,0,0,0,0,0,0,0,0,0,0,0],"sum_hessian":[6.035716E1,3.2506187E1,2.7850971E1,3.0302628E1,2.2035587E0,4.0221233E0,2.3828848E1,2.5690004E1,4.6126237E0,2.5532203E0,1.4689033E0,2.078272E1,3.0461276E0,1.2602321E0,2.4429771E1,1.138276E0,3.4743476E0,1.4809847E0,1.0722355E0,7.3945932E0,1.3388127E1,1.9006838E0,1.1454437E0,5.873645E0,1.8556128E1,1.6172353E0,1.8571123E0,4.5186057E0,2.8759875E0,5.0958567E0,8.292271E0,2.137744E0,3.7359006E0,1.4445513E1,4.1106143E0,1.7183735E0,1.1576141E0,3.7386477E0,1.3572091E0,1.6219811E0,2.1139197E0,9.320477E0,5.1250367E0,1.2659549E0,2.8446593E0,1.0469062E0,2.6917415E0,1.0008142E0,1.1131054E0,1.9167839E0,3.208253E0,1.7204953E0,1.1241641E0],"tree_param":{"num_deleted":"0","num_feature":"13","num_nodes":"53","size_leaf_vector":"1"}},{"base_weights":[-1.690643E-2,-4.7540578E-1,8.8640267E-1,-6.005792E-1,6.8853736E-1,1.9856918E-1,1.1616763E-2,4.2630097E-1,-6.7403966E-1,-1.1567215E-3,9.516194E-3,-3.747464E-1,6.9112784E-1,-5.327467E-4,6.635281E-3,3.3459582E-3,-7.183534E-1,-7.46662E-3,3.1978132E-3,-8.566029E-4,9.396556E-3,-9.031491E-1,-3.752344E-1,5.0340774E-3,-1.005782E0,-6.691036E-1,5.1025635E-1,-4.6765585E-3,4.340887E-3,-2.2909692E-1,-1.1372824E-2,-4.052065E-1,-9.652506E-3,7.0782923E-3,-6.5689295E-4,1.5535675E-3,-5.9579294E-3,-6.9436016E-3,-1.8995519E-4],"categories":[],"categories_nodes":[],"categories_segments":[],"categories_sizes":[],"default_left":[0,0,0,0,0,0,0,0,0,0,0,0,0,0,0,0,0,0,0,0,0,0,0,0,0,0,0,0,0,0,0,0,0,0,0,0,0,0,0],"id":32,"left_children":[1,3,5,7,9,11,-1,13,15,-1,-1,17,19,-1,-1,-1,21,-1,-1,-1,-1,23,25,27,29,31,33,-1,-1,35,-1,37,-1,-1,-1,-1,-1,-1,-1],"loss_changes":[2.7002348E1,6.915762E0,3.8120499E0,3.4345055E0,1.200665E0,2.6719108E0,0E0,4.5997447E-1,2.0473118E0,0E0,0E0,1.5745901E0,1.0621989E0,0E0,0E0,0E0,1.814064E0,0E0,0E0,0E0,0E0,2.1271381E0,4.516205E0,1.075464E0,1.696621E0,3.669405E-1,6.0287976E-1,0E0,0E0,8.208523E-1,0E0,9.8949575E-1,0E0,0E0,0E0,0E0,0E0,0E0,0E0],"parents":[2147483647,0,0,1,1,2,2,3,3,4,4,5,5,7,7,8,8,11,11,12,12,16,16,21,21,22,22,23,23,24,24,25,25,26,26,29,29,31,31],"right_children":[2,4,6,8,10,12,-1,14,16,-1,-1,18,20,-1,-1,-1,22,-1,-1,-1,-1,24,26,28,30,32,34,-1,-1,36,-1,38,-1,-1,-1,-1,-1,-1,-1],"split_conditions":[9E-1,6.4E1,2.1E2,6.6666657E-1,5.689655E-1,6.1E0,1.1616763E-2,6.9E0,4.5E0,-1.1567215E-3,9.516194E-3,1.8E0,2.5E1,-5.327467E-4,6.635281E-3,3.3459582E-3,1.96E2,-7.46662E-3,3.1978132E-3,-8.566029E-4,9.396556E-3,1.35E2,7E-1,2.4E1,8.1818146E-1,2.89E2,2.89E2,-4.6765585E-3,4.340887E-3,1.76E2,-1.1372824E-2,6.4E0,-9.652506E-3,7.0782923E-3,-6.5689295E-4,1.5535675E-3,-5.9579294E-3,-6.9436016E-3,-1.8995519E-4],"split_indices":[10,5,4,12,12,7,0,7,7,0,0,10,5,0,0,0,4,0,0,0,0,4,10,5,12,4,4,0,0,4,0,7,0,0,0,0,0,0,0],"split_type":[0,0,0,0,0,0,0,0,0,0,0,0,0,0,0,0,0,0,0,0,0,0,0,0,0,0,0,0,0,0,0,0,0,0,0,0,0,0,0],"sum_hessian":[6.2170612E1,4.171008E1,2.0460535E1,3.8315548E1,3.3945312E0,6.585986E0,1.3874549E1,2.0770102E0,3.6238537E1,1.0439088E0,2.3506224E0,3.2092931E0,3.376693E0,1.0723338E0,1.0046763E0,1.1115828E0,3.5126953E1,2.0167427E0,1.1925505E0,1.0567505E0,2.3199425E0,2.1239565E1,1.388739E1,2.3013833E0,1.893818E1,1.0702191E1,3.1851983E0,1.0307988E0,1.2705845E0,3.3377285E0,1.5600452E1,7.5377135E0,3.1644778E0,2.1158843E0,1.0693141E0,2.0514429E0,1.2862855E0,3.6260765E0,3.911637E0],"tree_param":{"num_deleted":"0","num_feature":"13","num_nodes":"39","size_leaf_vector":"1"}},{"base_weights":[-1.3255477E-1,-5.164742E-1,7.529831E-1,-8.094092E-1,3.08493E-2,-2.7791655E-3,8.968181E-1,-8.9447147E-1,4.343327E-3,-1.7058255E-1,8.578915E-3,1.938475E-1,9.93362E-1,2.5613056E-3,-9.8720807E-1,3.0015144E-1,-4.4512782E-1,-4.2713094E-3,6.885854E-3,1.3480379E-1,1.1945798E-2,-1.0418837E0,3.0519746E-4,6.594351E-1,-3.392005E-3,3.9324984E-3,-7.517232E-1,6.8628667E-3,-3.7076685E-3,-2.9280195E-1,-1.1005998E0,2.9727674E-4,8.832682E-3,-1.0693535E0,7.556077E-4,3.9061703E-4,-4.7616265E-3,-1.149173E-2,-2.952385E-3,-1.2547055E-2,-1.1099151E-3],"categories":[],"categories_nodes":[],"categories_segments":[],"categories_sizes":[],"default_left":[0,0,0,0,0,0,0,0,0,0,0,0,0,0,0,0,0,0,0,0,0,0,0,0,0,0,0,0,0,0,0,0,0,0,0,0,0,0,0,0,0],"id":33,"left_children":[1,3,5,7,9,-1,11,13,-1,15,-1,17,19,-1,21,23,25,-1,-1,27,-1,29,-1,31,-1,-1,33,-1,-1,35,37,-1,-1,39,-1,-1,-1,-1,-1,-1,-1],"loss_changes":[2.0683697E1,6.792531E0,3.115654E0,3.492014E0,2.9071987E0,0E0,8.3650875E-1,3.17799E0,0E0,2.038779E0,0E0,1.6288813E0,2.2142982E0,0E0,1.4155407E0,1.7450094E0,2.9081354E0,0E0,0E0,1.6056403E0,0E0,5.445442E-1,0E0,5.8613396E-1,0E0,0E0,2.1015167E0,0E0,0E0,2.5563133E-1,3.176098E-1,0E0,0E0,7.760048E-1,0E0,0E0,0E0,0E0,0E0,0E0,0E0],"parents":[2147483647,0,0,1,1,2,2,3,3,4,4,6,6,7,7,9,9,11,11,12,12,14,14,15,15,16,16,19,19,21,21,23,23,26,26,29,29,30,30,33,33],"right_children":[2,4,6,8,10,-1,12,14,-1,16,-1,18,20,-1,22,24,26,-1,-1,28,-1,30,-1,32,-1,-1,34,-1,-1,36,38,-1,-1,40,-1,-1,-1,-1,-1,-1,-1],"split_conditions":[1.7E0,2.12E2,2.7E0,7E1,1.04E2,-2.7791655E-3,2.6E1,5E-1,4.343327E-3,2.8E1,8.578915E-3,4.3E1,2.3E0,2.5613056E-3,8.6E1,5.5E1,2.46E2,-4.2713094E-3,6.885854E-3,2.06E2,1.1945798E-2,7E-1,3.0519746E-4,1.6E1,-3.392005E-3,3.9324984E-3,1E0,6.8628667E-3,-3.7076685E-3,1.77E2,4E0,2.9727674E-4,8.832682E-3,5.7E1,7.556077E-4,3.9061703E-4,-4.7616265E-3,-1.149173E-2,-2.952385E-3,-1.2547055E-2,-1.1099151E-3],"split_indices":[2,4,11,0,6,0,5,10,0,6,0,0,2,0,6,0,4,0,0,4,0,2,0,5,0,0,2,0,0,4,11,0,0,6,0,0,0,0,0,0,0],"split_type":[0,0,0,0,0,0,0,0,0,0,0,0,0,0,0,0,0,0,0,0,0,0,0,0,0,0,0,0,0,0,0,0,0,0,0,0,0,0,0,0,0],"sum_hessian":[5.762299E1,4.0632275E1,1.6990717E1,2.5998987E1,1.46332855E1,1.9091434E0,1.50815735E1,2.4728954E1,1.2700346E0,1.272471E1,1.9085753E0,2.3659627E0,1.2715611E1,1.6473294E0,2.3081623E1,4.63598E0,8.08873E0,1.1400225E0,1.2259402E0,2.8898938E0,9.825717E0,2.1871037E1,1.210587E0,2.9379067E0,1.6980734E0,2.0524373E0,6.036293E0,1.1257436E0,1.76415E0,2.2424638E0,1.9628572E1,1.216043E0,1.7218637E0,4.044516E0,1.9917767E0,1.2181649E0,1.0242988E0,1.7908134E1,1.7204385E0,3.0003958E0,1.0441203E0],"tree_param":{"num_deleted":"0","num_feature":"13","num_nodes":"41","size_leaf_vector":"1"}},{"base_weights":[-7.849428E-3,-4.9121115E-1,5.956966E-1,-6.456214E-1,8.113288E-3,-4.2193863E-1,7.1534646E-1,-7.538773E-1,-3.0403018E-2,1.4899246E-4,-6.1967457E-3,3.4718525E-1,9.0575063E-1,4.6471283E-3,-8.4412247E-1,-7.287705E-3,4.0541464E-1,-7.981563E-3,9.495414E-3,1.5744838E-1,1.011964E-2,-2.3067427E-1,-9.673705E-1,1.3253174E-2,7.372838E-3,3.1313545E-1,-4.086923E-1,3.3875415E-3,-1.366929E-3,-4.7263172E-1,2.474686E-3,-9.587773E-2,-1.0769918E0,4.241953E-3,-4.4279457E-3,-5.4353274E-2,7.278337E-3,-7.604651E-3,4.662591E-4,-7.4884933E-3,-7.855967E-2,-4.3422575E-3,2.3536074E-3,-1.3481313E0,-6.754299E-1,3.0316499E-3,-3.101265E-3,-4.740401E-3,3.4844624E-3,-1.4785826E-2,-2.3524796E-3,4.1929103E-4,-1.02060735E-2],"categories":[],"categories_nodes":[],"categories_segments":[],"categories_sizes":[],"default_left":[0,0,0,0,0,0,0,0,0,0,0,0,0,0,0,0,0,0,0,0,0,0,0,